{"learner":{"attributes":{"best_iteration":"99","best_ntree_limit":"100","scikit_learn":"{\"use_label_encoder\": null, \"n_estimators\": 100, \"objective\": \"binary:logistic\", \"max_depth\": null, \"max_leaves\": null, \"max_bin\": null, \"grow_policy\": null, \"learning_rate\": null, \"verbosity\": null, \"booster\": null, \"tree_method\": null, \"gamma\": null, \"min_child_weight\": null, \"max_delta_step\": null, \"subsample\": null, \"sampling_method\": null, \"colsample_bytree\": null, \"colsample_bylevel\": null, \"colsample_bynode\": null, \"reg_alpha\": null, \"reg_lambda\": null, \"scale_pos_weight\": null, \"base_score\": null, \"missing\": NaN, \"num_parallel_tree\": null, \"random_state\": null, \"n_jobs\": null, \"monotone_constraints\": null, \"interaction_constraints\": null, \"importance_type\": null, \"gpu_id\": null, \"validate_parameters\": null, \"predictor\": null, \"enable_categorical\": false, \"feature_types\": null, \"max_cat_to_onehot\": null, \"max_cat_threshold\": null, \"eval_metric\": null, \"early_stopping_rounds\": null, \"callbacks\": null, \"classes_\": [0, 1], \"n_classes_\": 2, \"_estimator_type\": \"classifier\"}"},"feature_names":[],"feature_types":[],"gradient_booster":{"model":{"gbtree_model_param":{"num_parallel_tree":"1","num_trees":"100","size_leaf_vector":"0"},"tree_info":[0,0,0,0,0,0,0,0,0,0,0,0,0,0,0,0,0,0,0,0,0,0,0,0,0,0,0,0,0,0,0,0,0,0,0,0,0,0,0,0,0,0,0,0,0,0,0,0,0,0,0,0,0,0,0,0,0,0,0,0,0,0,0,0,0,0,0,0,0,0,0,0,0,0,0,0,0,0,0,0,0,0,0,0,0,0,0,0,0,0,0,0,0,0,0,0,0,0,0,0],"trees":[{"base_weights":[-4.6251994E-1,-1.2296296E0,9.20354E-1,-1.4106584E0,-5.3333336E-1,1.744E0,-9.52381E-2,-1.483871E0,-8.181818E-1,-4.1095892E-1,-8.5714287E-1,2.0689656E-1,-4.3137255E-1,-1.0526316E0,4E-1,1.3333334E-1,2.5E-1],"categories":[],"categories_nodes":[],"categories_segments":[],"categories_sizes":[],"default_left":[1,1,1,1,1,0,1,0,1,0,0,1,0,0,0,0,0],"id":0,"left_children":[1,3,5,7,9,-1,11,-1,13,-1,-1,15,-1,-1,-1,-1,-1],"loss_changes":[1.674146E2,1.2010178E1,4.742769E1,2.2452087E0,5.393348E-1,0E0,2.7551434E0,0E0,3.5626788E0,0E0,0E0,1.2643695E-2,0E0,0E0,0E0,0E0,0E0],"parents":[2147483647,0,0,1,1,2,2,3,3,4,4,6,6,8,8,11,11],"right_children":[2,4,6,8,10,-1,12,-1,14,-1,-1,16,-1,-1,-1,-1,-1],"split_conditions":[5E-1,5E-1,5E-1,5E-1,5E-1,5.2320004E-1,5E-1,-4.451613E-1,5E-1,-1.2328768E-1,-2.5714287E-1,5E-1,-1.2941177E-1,-3.157895E-1,1.20000005E-1,4.0000003E-2,7.5E-2],"split_indices":[0,5,7,3,4,0,2,0,6,0,0,3,0,0,0,0,0],"split_type":[0,0,0,0,0,0,0,0,0,0,0,0,0,0,0,0,0],"sum_hessian":[1.5575E2,1.0025E2,5.55E1,7.875E1,2.15E1,3.025E1,2.525E1,6.875E1,1E1,1.725E1,4.25E0,1.35E1,1.175E1,8.5E0,1.5E0,6.5E0,7E0],"tree_param":{"num_deleted":"0","num_feature":"8","num_nodes":"17","size_leaf_vector":"0"}},{"base_weights":[-3.4051237E-1,-9.0874237E-1,6.8415105E-1,-1.0481226E0,-3.9298242E-1,1.3332286E0,-6.744371E-2,-1.1043944E0,-6.042605E-1,-2.9563326E-1,-6.588392E-1,1.5290901E-1,-3.1348303E-1,-7.897354E-1,3.287948E-1,9.8705456E-2,1.846326E-1],"categories":[],"categories_nodes":[],"categories_segments":[],"categories_sizes":[],"default_left":[1,1,1,1,1,0,1,0,1,0,0,1,0,0,0,0,0],"id":1,"left_children":[1,3,5,7,9,-1,11,-1,13,-1,-1,15,-1,-1,-1,-1,-1],"loss_changes":[8.8577866E1,6.604599E0,2.6657505E1,1.2368851E0,3.8405538E-1,0E0,1.4677556E0,0E0,2.1262991E0,0E0,0E0,6.6875815E-3,0E0,0E0,0E0,0E0,0E0],"parents":[2147483647,0,0,1,1,2,2,3,3,4,4,6,6,8,8,11,11],"right_children":[2,4,6,8,10,-1,12,-1,14,-1,-1,16,-1,-1,-1,-1,-1],"split_conditions":[5E-1,5E-1,5E-1,5E-1,5E-1,3.999686E-1,5E-1,-3.3131835E-1,5E-1,-8.868998E-2,-1.9765177E-1,5E-1,-9.404492E-2,-2.3692062E-1,9.8638445E-2,2.9611638E-2,5.538978E-2],"split_indices":[0,5,7,3,4,0,2,0,6,0,0,3,0,0,0,0,0],"split_type":[0,0,0,0,0,0,0,0,0,0,0,0,0,0,0,0,0],"sum_hessian":[1.5006396E2,9.660469E1,5.345927E1,7.523956E1,2.1365128E1,2.8270765E1,2.5188507E1,6.545339E1,9.786175E0,1.7184616E1,4.180512E0,1.3487566E1,1.1700941E1,8.291561E0,1.4946129E0,6.4974008E0,6.990165E0],"tree_param":{"num_deleted":"0","num_feature":"8","num_nodes":"17","size_leaf_vector":"0"}},{"base_weights":[-2.6118785E-1,-7.0312643E-1,5.356865E-1,-8.2327765E-1,-2.922248E-1,1.1085393E0,-4.791452E-2,-8.7241244E-1,-4.5777142E-1,-2.1359454E-1,-5.160725E-1,1.1313899E-1,-2.2890621E-1,-6.0996467E-1,2.712668E-1,7.310419E-2,1.3657679E-1],"categories":[],"categories_nodes":[],"categories_segments":[],"categories_sizes":[],"default_left":[1,1,1,1,1,0,1,0,1,0,0,1,0,0,0,0,0],"id":2,"left_children":[1,3,5,7,9,-1,11,-1,13,-1,-1,15,-1,-1,-1,-1,-1],"loss_changes":[4.9854397E1,4.2425537E0,1.6998985E1,8.525772E-1,2.7867293E-1,0E0,7.857343E-1,0E0,1.3154786E0,0E0,0E0,3.5862029E-3,0E0,0E0,0E0,0E0,0E0],"parents":[2147483647,0,0,1,1,2,2,3,3,4,4,6,6,8,8,11,11],"right_children":[2,4,6,8,10,-1,12,-1,14,-1,-1,16,-1,-1,-1,-1,-1],"split_conditions":[5E-1,5E-1,5E-1,5E-1,5E-1,3.3256182E-1,5E-1,-2.6172376E-1,5E-1,-6.407837E-2,-1.5482175E-1,5E-1,-6.867187E-2,-1.829894E-1,8.138004E-2,2.1931257E-2,4.0973037E-2],"split_indices":[0,5,7,3,4,0,2,0,6,0,0,3,0,0,0,0,0],"split_type":[0,0,0,0,0,0,0,0,0,0,0,0,0,0,0,0,0],"sum_hessian":[1.3949411E2,8.980616E1,4.9687954E1,6.87109E1,2.1095257E1,2.4620958E1,2.5066998E1,5.9346172E1,9.364729E0,1.7057663E1,4.0375943E0,1.3462463E1,1.1604533E1,7.8825135E0,1.4822158E0,6.492132E0,6.970331E0],"tree_param":{"num_deleted":"0","num_feature":"8","num_nodes":"17","size_leaf_vector":"0"}},{"base_weights":[-2.019657E-1,-5.5028546E-1,4.259964E-1,-6.564983E-1,-2.1805967E-1,9.519075E-1,-3.4039482E-2,-7.0067906E-1,-3.4912273E-1,-1.5441966E-1,-4.0720454E-1,8.373753E-2,-1.6729744E-1,-4.7526196E-1,2.2431083E-1,5.414966E-2,1.01069465E-1],"categories":[],"categories_nodes":[],"categories_segments":[],"categories_sizes":[],"default_left":[1,1,1,1,1,0,1,0,1,0,0,1,0,0,0,0,0],"id":3,"left_children":[1,3,5,7,9,-1,11,-1,13,-1,-1,15,-1,-1,-1,-1,-1],"loss_changes":[2.8590986E1,2.814703E0,1.1359262E1,6.111927E-1,1.9957674E-1,0E0,4.211004E-1,0E0,8.2363117E-1,0E0,0E0,1.9297451E-3,0E0,0E0,0E0,0E0,0E0],"parents":[2147483647,0,0,1,1,2,2,3,3,4,4,6,6,8,8,11,11],"right_children":[2,4,6,8,10,-1,12,-1,14,-1,-1,16,-1,-1,-1,-1,-1],"split_conditions":[5E-1,5E-1,5E-1,5E-1,5E-1,2.8557226E-1,5E-1,-2.1020372E-1,5E-1,-4.63259E-2,-1.22161366E-1,5E-1,-5.0189234E-2,-1.4257859E-1,6.729325E-2,1.62449E-2,3.032084E-2],"split_indices":[0,5,7,3,4,0,2,0,6,0,0,3,0,0,0,0,0],"split_type":[0,0,0,0,0,0,0,0,0,0,0,0,0,0,0,0,0],"sum_hessian":[1.2864091E2,8.282372E1,4.58172E1,6.2019867E1,2.0803858E1,2.0879097E1,2.49381E1,5.310696E1,8.912907E0,1.6925488E1,3.8783698E0,1.3435263E1,1.1502838E1,7.4461603E0,1.4667459E0,6.486401E0,6.9488616E0],"tree_param":{"num_deleted":"0","num_feature":"8","num_nodes":"17","size_leaf_vector":"0"}},{"base_weights":[-1.5520467E-1,-4.293212E-1,3.3905622E-1,-5.2222186E-1,-1.6288948E-1,8.257255E-1,-2.4147274E-2,-5.615769E-1,-2.6576048E-1,-1.1154631E-1,-3.2182992E-1,6.197143E-2,-1.2218335E-1,-3.7017888E-1,1.8573375E-1,4.0108263E-2,7.478345E-2],"categories":[],"categories_nodes":[],"categories_segments":[],"categories_sizes":[],"default_left":[1,1,1,1,1,0,1,0,1,0,0,1,0,0,0,0,0],"id":4,"left_children":[1,3,5,7,9,-1,11,-1,13,-1,-1,15,-1,-1,-1,-1,-1],"loss_changes":[1.6414959E1,1.8377609E0,7.690945E0,4.275446E-1,1.3985932E-1,0E0,2.2558746E-1,0E0,5.1668096E-1,0E0,0E0,1.0370947E-3,0E0,0E0,0E0,0E0,0E0],"parents":[2147483647,0,0,1,1,2,2,3,3,4,4,6,6,8,8,11,11],"right_children":[2,4,6,8,10,-1,12,-1,14,-1,-1,16,-1,-1,-1,-1,-1],"split_conditions":[5E-1,5E-1,5E-1,5E-1,5E-1,2.4771766E-1,5E-1,-1.6847308E-1,5E-1,-3.3463895E-2,-9.654898E-2,5E-1,-3.665501E-2,-1.1105367E-1,5.5720128E-2,1.203248E-2,2.2435036E-2],"split_indices":[0,5,7,3,4,0,2,0,6,0,0,3,0,0,0,0,0],"split_type":[0,0,0,0,0,0,0,0,0,0,0,0,0,0,0,0,0],"sum_hessian":[1.19082565E2,7.66847E1,4.2397865E1,5.6147038E1,2.0537664E1,1.7575018E1,2.4822845E1,4.7645866E1,8.501173E0,1.6809452E1,3.7282126E0,1.3410453E1,1.1412392E1,7.050651E0,1.4505221E0,6.481157E0,6.929296E0],"tree_param":{"num_deleted":"0","num_feature":"8","num_nodes":"17","size_leaf_vector":"0"}},{"base_weights":[-1.177426E-1,-3.3170268E-1,2.6832026E-1,-4.108681E-1,-1.21695995E-1,7.1480614E-1,-1.7094838E-2,-4.4501042E-1,-2.011191E-1,-8.047435E-2,-2.5407928E-1,4.5852836E-2,-8.91238E-2,-2.8706747E-1,1.5391085E-1,2.970539E-2,5.5315595E-2],"categories":[],"categories_nodes":[],"categories_segments":[],"categories_sizes":[],"default_left":[1,1,1,1,1,0,1,0,1,0,0,1,0,0,0,0,0],"id":5,"left_children":[1,3,5,7,9,-1,11,-1,13,-1,-1,15,-1,-1,-1,-1,-1],"loss_changes":[9.359518E0,1.1579614E0,5.182579E0,2.8536606E-1,9.585479E-2,0E0,1.2073681E-1,0E0,3.2346562E-1,0E0,0E0,5.555451E-4,0E0,0E0,0E0,0E0,0E0],"parents":[2147483647,0,0,1,1,2,2,3,3,4,4,6,6,8,8,11,11],"right_children":[2,4,6,8,10,-1,12,-1,14,-1,-1,16,-1,-1,-1,-1,-1],"split_conditions":[5E-1,5E-1,5E-1,5E-1,5E-1,2.1444185E-1,5E-1,-1.3350314E-1,5E-1,-2.4142304E-2,-7.622379E-2,5E-1,-2.673714E-2,-8.612025E-2,4.6173256E-2,8.911617E-3,1.659468E-2],"split_indices":[0,5,7,3,4,0,2,0,6,0,0,3,0,0,0,0,0],"split_type":[0,0,0,0,0,0,0,0,0,0,0,0,0,0,0,0,0],"sum_hessian":[1.11231064E2,7.165817E1,3.95729E1,5.1346E1,2.0312166E1,1.484533E1,2.4727568E1,4.3193466E1,8.152536E0,1.6715246E1,3.5969214E0,1.3389556E1,1.1338013E1,6.7176924E0,1.4348435E0,6.476726E0,6.91283E0],"tree_param":{"num_deleted":"0","num_feature":"8","num_nodes":"17","size_leaf_vector":"0"}},{"base_weights":[-8.793991E-2,-2.531655E-1,2.105759E-1,-3.1852448E-1,-9.091533E-2,6.129603E-1,-1.2074885E-2,-3.4718648E-1,-1.5105148E-1,5.831247E-2,-1.2883122E-1,3.3917915E-2,-6.49247E-2,-2.2131658E-1,1.2759411E-1,2.1998337E-2,4.090042E-2],"categories":[],"categories_nodes":[],"categories_segments":[],"categories_sizes":[],"default_left":[1,1,1,1,1,0,1,0,1,0,0,1,0,0,0,0,0],"id":6,"left_children":[1,3,5,7,9,-1,11,-1,13,-1,-1,15,-1,-1,-1,-1,-1],"loss_changes":[5.282937E0,6.9963884E-1,3.4407978E0,1.8073511E-1,1.2706138E-1,0E0,6.455511E-2,0E0,2.01885E-1,0E0,0E0,2.964791E-4,0E0,0E0,0E0,0E0,0E0],"parents":[2147483647,0,0,1,1,2,2,3,3,4,4,6,6,8,8,11,11],"right_children":[2,4,6,8,10,-1,12,-1,14,-1,-1,16,-1,-1,-1,-1,-1],"split_conditions":[5E-1,5E-1,5E-1,5E-1,5E-1,1.838881E-1,5E-1,-1.0415595E-1,5E-1,1.7493742E-2,-3.864937E-2,5E-1,-1.9477412E-2,-6.639498E-2,3.8278237E-2,6.5995012E-3,1.22701265E-2],"split_indices":[0,5,7,3,2,0,2,0,6,0,0,3,0,0,0,0,0],"split_type":[0,0,0,0,0,0,0,0,0,0,0,0,0,0,0,0,0],"sum_hessian":[1.05029335E2,6.770641E1,3.732292E1,4.7577625E1,2.0128788E1,1.2670756E1,2.4652164E1,3.9708645E1,7.868981E0,3.9691668E0,1.6159622E1,1.3372716E1,1.1279448E1,6.4486012E0,1.4203798E0,6.473145E0,6.8995714E0],"tree_param":{"num_deleted":"0","num_feature":"8","num_nodes":"17","size_leaf_vector":"0"}},{"base_weights":[-6.4041056E-2,-1.898299E-1,1.6379832E-1,-2.2020249E-1,2.2636484E-2,5.1835436E-1,-8.509408E-3,-2.6638022E-1,-1.2397686E-1,4.959588E-1,-1.69608E-1,2.5083434E-2,-4.724132E-2,-1.7484662E-1,-2.888249E-1,-2.1256411E-1,-9.3236275E-2,1.6289303E-2,3.0231193E-2,-2.1077888E-1,-4.550594E-1],"categories":[],"categories_nodes":[],"categories_segments":[],"categories_sizes":[],"default_left":[1,1,1,1,1,0,1,1,1,0,0,1,0,0,1,0,0,0,0,0,0],"id":7,"left_children":[1,3,5,7,9,-1,11,13,15,-1,-1,17,-1,-1,19,-1,-1,-1,-1,-1,-1],"loss_changes":[2.9343295E0,4.2915177E-1,2.2385921E0,2.2292948E-1,9.1469437E-1,0E0,3.4485787E-2,2.767706E-2,3.614235E-2,0E0,0E0,1.5761144E-4,0E0,0E0,2.8065634E-1,0E0,0E0,0E0,0E0,0E0,0E0],"parents":[2147483647,0,0,1,1,2,2,3,3,4,4,6,6,7,7,8,8,11,11,14,14],"right_children":[2,4,6,8,10,-1,12,14,16,-1,-1,18,-1,-1,20,-1,-1,-1,-1,-1,-1],"split_conditions":[5E-1,5E-1,5E-1,5E-1,5E-1,1.5550631E-1,5E-1,5E-1,5E-1,1.4878765E-1,-5.0882403E-2,5E-1,-1.4172397E-2,-5.2453987E-2,5E-1,-6.3769236E-2,-2.7970884E-2,4.886791E-3,9.069358E-3,-6.3233666E-2,-1.3651782E-1],"split_indices":[0,3,7,5,7,0,2,2,2,0,0,3,0,0,6,0,0,0,0,0,0],"split_type":[0,0,0,0,0,0,0,0,0,0,0,0,0,0,0,0,0,0,0,0,0],"sum_hessian":[1.0030046E2,6.473014E1,3.557032E1,5.660229E1,8.127848E0,1.0976261E1,2.4594059E1,3.7052753E1,1.954954E1,1.8913497E0,6.2364984E0,1.3359512E1,1.1234547E1,9.027398E0,2.8025354E1,3.5125132E0,1.6037025E1,6.4703293E0,6.8891826E0,2.0614805E1,7.4105506E0],"tree_param":{"num_deleted":"0","num_feature":"8","num_nodes":"21","size_leaf_vector":"0"}},{"base_weights":[-4.726404E-2,-1.4289354E-1,1.2636043E-1,-1.9022614E-1,-3.7067268E-2,4.312921E-1,-5.983045E-3,-1.2568034E-1,-2.2354351E-1,-1.9942042E-3,-1.6710885E-1,4.5268804E-1,1.4301136E-1,1.8546393E-2,-3.4341905E-2,-2.1872714E-1,3.6051336E-1,-1.5817438E-1,-3.6984313E-1,2.6315132E-1,5.389538E-1,1.206083E-2,2.2338817E-2,-2.6508394E-1,-1.2927268E-1],"categories":[],"categories_nodes":[],"categories_segments":[],"categories_sizes":[],"default_left":[1,1,1,1,1,1,1,1,1,0,0,1,0,1,0,1,0,0,0,0,0,0,0,0,0],"id":8,"left_children":[1,3,5,7,9,11,13,15,17,-1,-1,19,-1,21,-1,23,-1,-1,-1,-1,-1,-1,-1,-1,-1],"loss_changes":[1.639966E0,3.1081927E-1,1.4240963E0,6.567907E-2,9.477952E-2,1.1017323E-3,1.8410223E-2,8.537838E-1,2.0426643E-1,0E0,0E0,1.3099313E-2,0E0,8.3511695E-5,0E0,2.793628E-2,0E0,0E0,0E0,0E0,0E0,0E0,0E0,0E0,0E0],"parents":[2147483647,0,0,1,1,2,2,3,3,4,4,5,5,6,6,7,7,8,8,11,11,13,13,15,15],"right_children":[2,4,6,8,10,12,14,16,18,-1,-1,20,-1,22,-1,24,-1,-1,-1,-1,-1,-1,-1,-1,-1],"split_conditions":[5E-1,5E-1,5E-1,5E-1,5E-1,5E-1,5E-1,5E-1,5E-1,-5.982613E-4,-5.013266E-2,5E-1,4.290341E-2,5E-1,-1.0302572E-2,5E-1,1.08154014E-1,-4.7452316E-2,-1.1095294E-1,7.89454E-2,1.6168614E-1,3.6182492E-3,6.7016454E-3,-7.952519E-2,-3.8781807E-2],"split_indices":[0,5,7,2,4,3,2,6,6,0,0,5,0,3,0,3,0,0,0,0,0,0,0,0,0],"split_type":[0,0,0,0,0,0,0,0,0,0,0,0,0,0,0,0,0,0,0,0,0,0,0,0,0],"sum_hessian":[9.668411E1,6.2459465E1,3.4224648E1,4.2605778E1,1.9853687E1,9.674596E0,2.4550053E1,1.612977E1,2.6476006E1,1.64361E1,3.417588E0,8.4752655E0,1.1993301E0,1.3349342E1,1.1200711E1,1.4000505E1,2.1292658E0,1.9737934E1,6.7380724E0,3.9178116E0,4.557454E0,6.4681554E0,6.881187E0,7.928489E0,6.0720162E0],"tree_param":{"num_deleted":"0","num_feature":"8","num_nodes":"25","size_leaf_vector":"0"}},{"base_weights":[-3.343743E-2,-1.0757473E-1,1.0072812E-1,-1.2916778E-1,3.7946798E-2,3.6346322E-1,-4.1971263E-3,-1.519698E-1,-8.384781E-2,3.6240005E-1,-9.8069645E-2,1.3710596E-2,-2.494602E-2,-8.165366E-2,-1.7114878E-1,-1.3103212E-1,-6.680668E-2,8.929405E-3,1.6502704E-2,-1.17411695E-1,-2.9705685E-1],"categories":[],"categories_nodes":[],"categories_segments":[],"categories_sizes":[],"default_left":[1,1,1,1,1,0,1,1,1,0,0,1,0,0,1,0,0,0,0,0,0],"id":9,"left_children":[1,3,5,7,9,-1,11,13,15,-1,-1,17,-1,-1,19,-1,-1,-1,-1,-1,-1],"loss_changes":[9.556629E-1,1.986689E-1,9.4775873E-1,4.298246E-2,4.2127797E-1,0E0,9.8233E-3,3.274536E-2,7.5532943E-3,0E0,0E0,4.4095563E-5,0E0,0E0,1.431145E-1,0E0,0E0,0E0,0E0,0E0,0E0],"parents":[2147483647,0,0,1,1,2,2,3,3,4,4,6,6,7,7,8,8,11,11,14,14],"right_children":[2,4,6,8,10,-1,12,14,16,-1,-1,18,-1,-1,20,-1,-1,-1,-1,-1,-1],"split_conditions":[5E-1,5E-1,5E-1,5E-1,5E-1,1.0903897E-1,5E-1,5E-1,5E-1,1.0872002E-1,-2.9420896E-2,5E-1,-7.4838065E-3,-2.4496099E-2,5E-1,-3.930964E-2,-2.0042006E-2,2.6788218E-3,4.9508116E-3,-3.522351E-2,-8.911706E-2],"split_indices":[0,3,7,5,7,0,2,2,2,0,0,3,0,0,6,0,0,0,0,0,0],"split_type":[0,0,0,0,0,0,0,0,0,0,0,0,0,0,0,0,0,0,0,0,0],"sum_hessian":[9.398927E1,6.06651E1,3.3324173E1,5.292436E1,7.740743E0,8.807066E0,2.4517109E1,3.3643764E1,1.9280592E1,1.7948732E0,5.94587E0,1.3341601E1,1.1175507E1,8.336605E0,2.5307161E1,3.3409219E0,1.593967E1,6.466496E0,6.875106E0,1.9091501E1,6.2156606E0],"tree_param":{"num_deleted":"0","num_feature":"8","num_nodes":"21","size_leaf_vector":"0"}},{"base_weights":[-2.3995778E-2,-7.953299E-2,7.6738216E-2,-1.1302072E-1,-9.631617E-3,2.9321864E-1,-2.9371607E-3,-1.2427277E-1,-6.090954E-2,1.2851158E-1,-4.819358E-2,3.1408522E-1,6.971748E-2,1.013453E-2,-1.811009E-2,-8.647994E-2,-2.2826639E-1,1.409253E-1,4.088806E-1,6.610656E-3,1.2189292E-2],"categories":[],"categories_nodes":[],"categories_segments":[],"categories_sizes":[],"default_left":[1,1,1,1,1,1,1,1,0,0,0,1,0,1,0,0,0,0,0,0,0],"id":10,"left_children":[1,3,5,7,9,11,13,15,-1,-1,-1,17,-1,19,-1,-1,-1,-1,-1,-1,-1],"loss_changes":[5.2576834E-1,1.4022347E-1,5.790316E-1,1.6308188E-2,1.16178274E-1,2.0206869E-2,5.2396418E-3,1.0810572E-1,0E0,0E0,0E0,7.323438E-2,0E0,2.3221946E-5,0E0,0E0,0E0,0E0,0E0,0E0,0E0],"parents":[2147483647,0,0,1,1,2,2,3,3,4,4,5,5,6,6,7,7,11,11,13,13],"right_children":[2,4,6,8,10,12,14,16,-1,-1,-1,18,-1,20,-1,-1,-1,-1,-1,-1,-1],"split_conditions":[5E-1,5E-1,5E-1,5E-1,5E-1,5E-1,5E-1,5E-1,-1.8272862E-2,3.8553476E-2,-1.4458075E-2,5E-1,2.0915246E-2,5E-1,-5.4330276E-3,-2.5943983E-2,-6.847992E-2,4.2277593E-2,1.2266418E-1,1.983197E-3,3.6567878E-3],"split_indices":[0,5,7,4,2,3,2,6,0,0,0,5,0,3,0,0,0,0,0,0,0],"split_type":[0,0,0,0,0,0,0,0,0,0,0,0,0,0,0,0,0,0,0,0,0],"sum_hessian":[9.1888824E1,5.9368134E1,3.2520695E1,3.9721737E1,1.9646395E1,8.028055E0,2.449264E1,3.1529085E1,8.192652E0,3.77835E0,1.5868045E1,6.971853E0,1.0562029E0,1.333576E1,1.1156879E1,2.4468466E1,7.0606184E0,3.3461561E0,3.6256967E0,6.465241E0,6.8705196E0],"tree_param":{"num_deleted":"0","num_feature":"8","num_nodes":"21","size_leaf_vector":"0"}},{"base_weights":[-1.588221E-2,-5.8187857E-2,6.0981102E-2,-7.6825775E-2,6.209975E-2,2.4221827E-1,-2.0505947E-3,-5.071807E-2,-9.998175E-2,3.1923634E-1,-5.27695E-2,2.5956765E-1,5.960816E-2,7.4902982E-3,-1.3141876E-2,8.927672E-2,-8.0765724E-2,-1.7383456E-1,-6.310419E-2,1.1201942E-1,3.4508625E-1,4.8938706E-3,9.001686E-3,-1.8717384E-1,-3.4725294E-2],"categories":[],"categories_nodes":[],"categories_segments":[],"categories_sizes":[],"default_left":[1,1,1,1,1,1,1,1,1,0,0,1,0,1,0,0,1,0,0,0,0,0,0,0,0],"id":11,"left_children":[1,3,5,7,9,11,13,15,17,-1,-1,19,-1,21,-1,-1,23,-1,-1,-1,-1,-1,-1,-1,-1],"loss_changes":[3.013264E-1,1.3833684E-1,3.7745306E-1,2.6384473E-2,2.6926062E-1,1.1530697E-2,2.794174E-3,1.18625656E-1,6.132549E-2,0E0,0E0,5.5797935E-2,0E0,1.2186298E-5,0E0,0E0,1.0290179E-1,0E0,0E0,0E0,0E0,0E0,0E0,0E0,0E0],"parents":[2147483647,0,0,1,1,2,2,3,3,4,4,5,5,6,6,7,7,8,8,11,11,13,13,16,16],"right_children":[2,4,6,8,10,12,14,16,18,-1,-1,20,-1,22,-1,-1,24,-1,-1,-1,-1,-1,-1,-1,-1],"split_conditions":[5E-1,5E-1,5E-1,5E-1,5E-1,5E-1,5E-1,5E-1,5E-1,9.57709E-2,-1.583085E-2,5E-1,1.788245E-2,5E-1,-3.942563E-3,2.6783017E-2,5E-1,-5.2150372E-2,-1.8931258E-2,3.360583E-2,1.0352588E-1,1.4681612E-3,2.700506E-3,-5.6152154E-2,-1.0417588E-2],"split_indices":[0,3,7,7,7,3,2,2,2,0,0,5,0,3,0,0,5,0,0,0,0,0,0,0,0],"split_type":[0,0,0,0,0,0,0,0,0,0,0,0,0,0,0,0,0,0,0,0,0,0,0,0,0],"sum_hessian":[9.057464E1,5.857685E1,3.199779E1,5.1031162E1,7.545687E0,7.52322E0,2.447457E1,2.5486326E1,2.5544836E1,1.7806181E0,5.765069E0,6.485606E0,1.0376137E0,1.3331378E1,1.1143191E1,4.155288E0,2.133104E1,7.2705812E0,1.8274254E1,3.227306E0,3.2583E0,6.4642973E0,6.8670807E0,5.516332E0,1.5814707E1],"tree_param":{"num_deleted":"0","num_feature":"8","num_nodes":"25","size_leaf_vector":"0"}},{"base_weights":[-9.879305E-3,-4.209973E-2,4.849152E-2,-5.7048455E-2,5.366645E-2,1.9885223E-1,-1.4280181E-3,-6.670914E-2,1.2359786E-2,2.632577E-1,-3.9642602E-2,2.4065454E-1,1.0392557E-1,5.535554E-3,-9.53363E-3,-1.5131022E-1,-3.7126925E-2,3.6227624E-3,6.6469694E-3,-4.5870382E-2,-2.4997706E-2],"categories":[],"categories_nodes":[],"categories_segments":[],"categories_sizes":[],"default_left":[1,1,1,1,1,1,1,1,0,0,0,0,0,1,0,0,1,0,0,0,0],"id":12,"left_children":[1,3,5,7,9,11,13,15,-1,-1,-1,-1,-1,17,-1,-1,19,-1,-1,-1,-1],"loss_changes":[1.7192625E-1,8.714863E-2,2.4491653E-1,3.5216793E-2,1.7561188E-1,7.253349E-3,1.4899104E-3,1.0745554E-1,0E0,0E0,0E0,0E0,0E0,6.3798216E-6,0E0,0E0,2.5440045E-3,0E0,0E0,0E0,0E0],"parents":[2147483647,0,0,1,1,2,2,3,3,4,4,5,5,6,6,7,7,13,13,16,16],"right_children":[2,4,6,8,10,12,14,16,-1,-1,-1,-1,-1,18,-1,-1,20,-1,-1,-1,-1],"split_conditions":[5E-1,5E-1,5E-1,5E-1,5E-1,5E-1,5E-1,5E-1,3.7079358E-3,7.897732E-2,-1.1892782E-2,7.2196364E-2,3.1177672E-2,5E-1,-2.860089E-3,-4.539307E-2,5E-1,1.0868288E-3,1.9940909E-3,-1.3761115E-2,-7.499312E-3],"split_indices":[0,3,7,6,7,5,2,2,0,0,0,0,0,3,0,0,5,0,0,0,0],"split_type":[0,0,0,0,0,0,0,0,0,0,0,0,0,0,0,0,0,0,0,0,0],"sum_hessian":[8.932901E1,5.7737133E1,3.1591879E1,5.0291172E1,7.4459605E0,7.1306047E0,2.4461273E1,4.418071E1,6.1104646E0,1.7326719E0,5.713289E0,3.8847406E0,3.2458642E0,1.3328103E1,1.113317E1,1.0380108E1,3.3800602E1,6.46359E0,6.8645134E0,1.802518E1,1.5775419E1],"tree_param":{"num_deleted":"0","num_feature":"8","num_nodes":"21","size_leaf_vector":"0"}},{"base_weights":[-5.745615E-3,-2.9806448E-2,3.781477E-2,-4.1722413E-2,4.6130527E-2,1.5948793E-1,-9.915349E-4,-4.890532E-2,9.146359E-3,1.04249716E-1,-1.6521026E-1,1.9435212E-1,8.2131244E-2,4.0909396E-3,-6.914275E-3,-1.1351524E-1,-2.679918E-2,2.681939E-3,4.9080383E-3,-3.3211708E-2,-1.79828E-2],"categories":[],"categories_nodes":[],"categories_segments":[],"categories_sizes":[],"default_left":[1,1,1,1,1,1,1,1,0,0,0,0,0,1,0,0,1,0,0,0,0],"id":13,"left_children":[1,3,5,7,9,11,13,15,-1,-1,-1,-1,-1,17,-1,-1,19,-1,-1,-1,-1],"loss_changes":[9.484874E-2,5.4553602E-2,1.5247127E-1,1.9008368E-2,1.19955085E-1,5.0920993E-3,7.9443207E-4,6.0759917E-2,0E0,0E0,0E0,0E0,0E0,3.3299875E-6,0E0,0E0,1.3584308E-3,0E0,0E0,0E0,0E0],"parents":[2147483647,0,0,1,1,2,2,3,3,4,4,5,5,6,6,7,7,13,13,16,16],"right_children":[2,4,6,8,10,12,14,16,-1,-1,-1,-1,-1,18,-1,-1,20,-1,-1,-1,-1],"split_conditions":[5E-1,5E-1,5E-1,5E-1,5E-1,5E-1,5E-1,5E-1,2.7439077E-3,3.1274915E-2,-4.956308E-2,5.830564E-2,2.4639374E-2,5E-1,-2.0742826E-3,-3.4054574E-2,5E-1,8.0458174E-4,1.4724116E-3,-9.963512E-3,-5.39484E-3],"split_indices":[0,3,7,6,6,5,2,2,0,0,0,0,0,3,0,0,5,0,0,0,0],"split_type":[0,0,0,0,0,0,0,0,0,0,0,0,0,0,0,0,0,0,0,0,0],"sum_hessian":[8.842056E1,5.716235E1,3.1258211E1,4.9798565E1,7.363783E0,6.8066907E0,2.445152E1,4.3670662E1,6.1279044E0,6.1729345E0,1.1908484E0,3.649478E0,3.1572125E0,1.3325665E1,1.1125855E1,1.0078649E1,3.3592014E1,6.463063E0,6.862602E0,1.7845314E1,1.5746699E1],"tree_param":{"num_deleted":"0","num_feature":"8","num_nodes":"21","size_leaf_vector":"0"}},{"base_weights":[-3.8316837E-3,2.9903812E-2,-2.4657471E-2,2.0967291E-1,-2.537774E-2,-4.3482635E-2,-6.865887E-4,4.0019706E-1,3.4306984E-2,-1.2151619E-1,2.0947604E-2,-6.752926E-2,-2.3976076E-2,3.0228738E-3,-5.0137276E-3,-1.5074752E-1,-3.849611E-2,-1.2929623E-2,1.7768534E-1,1.985163E-3,3.6234474E-3],"categories":[],"categories_nodes":[],"categories_segments":[],"categories_sizes":[],"default_left":[1,1,1,1,1,1,1,0,0,1,1,0,0,1,0,0,0,0,0,0,0],"id":14,"left_children":[1,3,5,7,9,11,13,-1,-1,15,17,-1,-1,19,-1,-1,-1,-1,-1,-1,-1],"loss_changes":[6.321682E-2,3.471468E-1,2.5030177E-2,2.6016384E-1,1.23678155E-1,1.2964014E-2,4.2357275E-4,0E0,0E0,1.6016707E-2,1.04284965E-1,0E0,0E0,1.7338025E-6,0E0,0E0,0E0,0E0,0E0,0E0,0E0],"parents":[2147483647,0,0,1,1,2,2,3,3,4,4,5,5,6,6,9,9,10,10,13,13],"right_children":[2,4,6,8,10,12,14,-1,-1,16,18,-1,-1,20,-1,-1,-1,-1,-1,-1,-1],"split_conditions":[5E-1,5E-1,5E-1,5E-1,5E-1,5E-1,5E-1,1.20059125E-1,1.0292096E-2,5E-1,5E-1,-2.0258779E-2,-7.192823E-3,5E-1,-1.5041183E-3,-4.5224257E-2,-1.1548834E-2,-3.878887E-3,5.3305604E-2,5.955489E-4,1.0870342E-3],"split_indices":[7,2,0,5,5,2,2,0,0,0,0,0,0,3,0,0,0,0,0,0,0],"split_type":[0,0,0,0,0,0,0,0,0,0,0,0,0,0,0,0,0,0,0,0,0],"sum_hessian":[8.793011E1,3.339613E1,5.4533978E1,7.1975913E0,2.6198538E1,3.0089596E1,2.444438E1,2.835226E0,4.3623652E0,7.9912615E0,1.8207277E1,1.2373878E1,1.771572E1,1.3323853E1,1.1120527E1,5.3069057E0,2.6843555E0,1.5725814E1,2.481463E0,6.4626694E0,6.861183E0],"tree_param":{"num_deleted":"0","num_feature":"8","num_nodes":"21","size_leaf_vector":"0"}},{"base_weights":[-1.5992344E-3,2.4869887E-2,-1.787299E-2,1.6454616E-1,-1.8264757E-2,-3.1650215E-2,-4.7368283E-4,3.1896323E-1,2.5874449E-2,-9.347371E-2,1.7516712E-2,-4.9527958E-2,-1.7271414E-2,2.233859E-3,-3.635044E-3,5.0071967E-1,7.09627E-2,-1.16803214E-1,-2.9816568E-2,-9.292666E-3,1.4542854E-1],"categories":[],"categories_nodes":[],"categories_segments":[],"categories_sizes":[],"default_left":[1,1,1,1,1,1,1,1,0,1,1,0,0,0,0,0,0,0,0,0,0],"id":15,"left_children":[1,3,5,7,9,11,13,15,-1,17,19,-1,-1,-1,-1,-1,-1,-1,-1,-1,-1],"loss_changes":[3.8484227E-2,2.080984E-1,1.3233786E-2,1.6587879E-1,7.4051864E-2,7.0697404E-3,2.258671E-4,1.3391885E-1,0E0,9.634882E-3,6.676813E-2,0E0,0E0,9.0001413E-7,0E0,0E0,0E0,0E0,0E0,0E0,0E0],"parents":[2147483647,0,0,1,1,2,2,3,3,4,4,5,5,6,6,7,7,9,9,10,10],"right_children":[2,4,6,8,10,12,14,16,-1,18,20,-1,-1,-1,-1,-1,-1,-1,-1,-1,-1],"split_conditions":[5E-1,5E-1,5E-1,5E-1,5E-1,5E-1,5E-1,5E-1,7.762335E-3,5E-1,5E-1,-1.4858388E-2,-5.1814243E-3,6.701577E-4,-1.0905132E-3,1.5021591E-1,2.128881E-2,-3.5040967E-2,-8.944971E-3,-2.7877998E-3,4.3628562E-2],"split_indices":[7,2,0,5,5,2,2,3,0,0,0,0,0,0,0,0,0,0,0,0,0],"split_type":[0,0,0,0,0,0,0,0,0,0,0,0,0,0,0,0,0,0,0,0,0],"sum_hessian":[8.731004E1,3.304097E1,5.4269073E1,7.1319537E0,2.5909018E1,2.9829918E1,2.4439157E1,2.759262E0,4.3726916E0,7.832842E0,1.8076176E1,1.2207422E1,1.7622494E1,1.3322509E1,1.111665E1,1.0042404E0,1.7550216E0,5.1211343E0,2.7117078E0,1.5710683E1,2.3654926E0],"tree_param":{"num_deleted":"0","num_feature":"8","num_nodes":"21","size_leaf_vector":"0"}},{"base_weights":[5.6929345E-4,2.2525096E-2,-1.2945859E-2,1.3561429E-1,-1.3024212E-2,-2.29806E-2,-3.482446E-4,2.639814E-1,1.9523028E-2,-7.164973E-2,1.4584907E-2,-3.6195904E-2,-1.2422269E-2,1.6105189E-3,-2.6352366E-3,4.078092E-1,5.7976812E-2,-8.9959964E-2,-2.31233E-2,-6.6769375E-3,1.1857564E-1,8.891915E-4,2.0904564E-3],"categories":[],"categories_nodes":[],"categories_segments":[],"categories_sizes":[],"default_left":[1,1,1,1,1,1,1,1,0,1,1,0,0,1,0,0,0,0,0,0,0,0,0],"id":16,"left_children":[1,3,5,7,9,11,13,15,-1,17,19,-1,-1,21,-1,-1,-1,-1,-1,-1,-1,-1,-1],"loss_changes":[2.6390743E-2,1.3796103E-1,6.954466E-3,1.168949E-1,4.4241093E-2,3.8258135E-3,1.1818629E-4,8.9227736E-2,0E0,5.661968E-3,4.2743705E-2,0E0,0E0,3.0991796E-6,0E0,0E0,0E0,0E0,0E0,0E0,0E0,0E0,0E0],"parents":[2147483647,0,0,1,1,2,2,3,3,4,4,5,5,6,6,7,7,9,9,10,10,13,13],"right_children":[2,4,6,8,10,12,14,16,-1,18,20,-1,-1,22,-1,-1,-1,-1,-1,-1,-1,-1,-1],"split_conditions":[5E-1,5E-1,5E-1,5E-1,5E-1,5E-1,5E-1,5E-1,5.856909E-3,5E-1,5E-1,-1.0858771E-2,-3.726681E-3,5E-1,-7.9057104E-4,1.22342765E-1,1.7393045E-2,-2.698799E-2,-6.93699E-3,-2.0030814E-3,3.5572693E-2,2.6675747E-4,6.2713696E-4],"split_indices":[7,2,0,5,5,2,2,3,0,0,0,0,0,3,0,0,0,0,0,0,0,0,0],"split_type":[0,0,0,0,0,0,0,0,0,0,0,0,0,0,0,0,0,0,0,0,0,0,0],"sum_hessian":[8.6954056E1,3.2877247E1,5.407681E1,7.1899166E0,2.5687332E1,2.9641449E1,2.443536E1,2.8094614E0,4.3804555E0,7.71342E0,1.7973911E1,1.2085937E1,1.7555513E1,1.33215275E1,1.1113832E1,1.0775371E0,1.7319242E0,4.9803686E0,2.7330513E0,1.569975E1,2.2741625E0,6.4620476E0,6.8594804E0],"tree_param":{"num_deleted":"0","num_feature":"8","num_nodes":"23","size_leaf_vector":"0"}},{"base_weights":[1.8422012E-3,2.0017838E-2,-9.35907E-3,1.11613736E-1,-9.19266E-3,-1.6655257E-2,-2.3971628E-4,2.1811168E-1,1.4735387E-2,-5.4771926E-2,1.2097186E-2,-2.638201E-2,-8.9243855E-3,1.1899464E-3,-1.910335E-3,3.327782E-1,4.7335837E-2,-6.895376E-2,-1.7949276E-2,-4.79665E-3,9.638501E-2,6.582626E-4,1.5433603E-3],"categories":[],"categories_nodes":[],"categories_segments":[],"categories_sizes":[],"default_left":[1,1,1,1,1,1,1,1,0,1,1,0,0,1,0,0,0,0,0,0,0,0,0],"id":17,"left_children":[1,3,5,7,9,11,13,15,-1,17,19,-1,-1,21,-1,-1,-1,-1,-1,-1,-1,-1,-1],"loss_changes":[1.804078E-2,9.1340914E-2,3.651355E-3,8.178068E-2,2.6394473E-2,2.0584138E-3,6.301689E-5,5.9673384E-2,0E0,3.2656621E-3,2.7366184E-2,0E0,0E0,1.6750018E-6,0E0,0E0,0E0,0E0,0E0,0E0,0E0,0E0,0E0],"parents":[2147483647,0,0,1,1,2,2,3,3,4,4,5,5,6,6,7,7,9,9,10,10,13,13],"right_children":[2,4,6,8,10,12,14,16,-1,18,20,-1,-1,22,-1,-1,-1,-1,-1,-1,-1,-1,-1],"split_conditions":[5E-1,5E-1,5E-1,5E-1,5E-1,5E-1,5E-1,5E-1,4.420616E-3,5E-1,5E-1,-7.914604E-3,-2.6773158E-3,5E-1,-5.731005E-4,9.983346E-2,1.4200752E-2,-2.068613E-2,-5.384783E-3,-1.438995E-3,2.8915504E-2,1.9747879E-4,4.630081E-4],"split_indices":[7,2,0,5,5,2,2,3,0,0,0,0,0,3,0,0,0,0,0,0,0,0,0],"split_type":[0,0,0,0,0,0,0,0,0,0,0,0,0,0,0,0,0,0,0,0,0,0,0],"sum_hessian":[8.669297E1,3.2755486E1,5.393748E1,7.2380342E0,2.5517452E1,2.9504911E1,2.4432571E1,2.8517358E0,4.386298E0,7.6235576E0,1.7893894E1,1.1997482E1,1.7507427E1,1.33207855E1,1.1111787E1,1.138602E0,1.7131338E0,4.8738556E0,2.7497017E0,1.5691861E1,2.2020328E0,6.461915E0,6.8588705E0],"tree_param":{"num_deleted":"0","num_feature":"8","num_nodes":"23","size_leaf_vector":"0"}},{"base_weights":[2.5116685E-3,1.754071E-2,-6.7604394E-3,9.17837E-2,-6.412324E-3,-1.2054798E-2,-1.6437923E-4,1.8004827E-1,1.1124799E-2,-4.178373E-2,9.999409E-3,-7.862011E-3,-2.4175623E-2,8.7915396E-4,-1.384767E-3,2.7211538E-1,3.8626377E-2,-5.2653104E-2,-1.3943587E-2,-3.4451836E-3,7.81537E-2,-1.0745423E-2,-6.406169E-3],"categories":[],"categories_nodes":[],"categories_segments":[],"categories_sizes":[],"default_left":[1,1,1,1,1,1,1,1,0,1,1,1,0,0,0,0,0,0,0,0,0,0,0],"id":18,"left_children":[1,3,5,7,9,11,13,15,-1,17,19,21,-1,-1,-1,-1,-1,-1,-1,-1,-1,-1,-1],"loss_changes":[1.2311898E-2,6.0455E-2,1.9130192E-3,5.69238E-2,1.5735697E-2,1.3551721E-3,3.36036E-5,4.0090233E-2,0E0,1.8549198E-3,1.7524313E-2,3.2217707E-5,0E0,9.0649246E-7,0E0,0E0,0E0,0E0,0E0,0E0,0E0,0E0,0E0],"parents":[2147483647,0,0,1,1,2,2,3,3,4,4,5,5,6,6,7,7,9,9,10,10,11,11],"right_children":[2,4,6,8,10,12,14,16,-1,18,20,22,-1,-1,-1,-1,-1,-1,-1,-1,-1,-1,-1],"split_conditions":[5E-1,5E-1,5E-1,5E-1,5E-1,5E-1,5E-1,5E-1,3.3374398E-3,5E-1,5E-1,5E-1,-7.252687E-3,2.637462E-4,-4.154301E-4,8.163462E-2,1.1587913E-2,-1.5795931E-2,-4.1830763E-3,-1.0335551E-3,2.3446111E-2,-3.223627E-3,-1.9218507E-3],"split_indices":[7,2,0,5,5,4,2,3,0,0,0,2,0,0,0,0,0,0,0,0,0,0,0],"split_type":[0,0,0,0,0,0,0,0,0,0,0,0,0,0,0,0,0,0,0,0,0,0,0],"sum_hessian":[8.65008E1,3.266414E1,5.3836662E1,7.2770214E0,2.538712E1,2.9406122E1,2.4430538E1,2.8863199E0,4.3907013E0,7.5560236E0,1.7831095E1,2.3073326E1,6.332795E0,1.3320237E1,1.1110302E1,1.188473E0,1.697847E0,4.793339E0,2.7626846E0,1.5686179E1,2.1449156E0,5.6003957E0,1.747293E1],"tree_param":{"num_deleted":"0","num_feature":"8","num_nodes":"23","size_leaf_vector":"0"}},{"base_weights":[2.7313724E-3,1.5205553E-2,-4.9707154E-3,7.543944E-2,-4.410226E-3,-8.872133E-3,-1.2102083E-4,1.4855117E-1,8.400198E-3,-3.182563E-2,8.239724E-3,-5.7271793E-3,-1.8015567E-2,6.337889E-4,-1.0036323E-3,2.229262E-1,3.1505883E-2,-4.008766E-2,-1.0836553E-2,-2.4742726E-3,6.324462E-2,-8.025564E-3,-4.5957295E-3,2.5889408E-4,9.091152E-4],"categories":[],"categories_nodes":[],"categories_segments":[],"categories_sizes":[],"default_left":[1,1,1,1,1,1,1,1,0,1,1,1,0,1,0,0,0,0,0,0,0,0,0,0,0],"id":19,"left_children":[1,3,5,7,9,11,13,15,-1,17,19,21,-1,23,-1,-1,-1,-1,-1,-1,-1,-1,-1,-1,-1],"loss_changes":[8.4688915E-3,4.002657E-2,1.0351145E-3,3.9473508E-2,9.378657E-3,7.691474E-4,1.7577033E-5,2.7050294E-2,0E0,1.0405164E-3,1.122494E-2,2.5627785E-5,0E0,1.2427072E-6,0E0,0E0,0E0,0E0,0E0,0E0,0E0,0E0,0E0,0E0,0E0],"parents":[2147483647,0,0,1,1,2,2,3,3,4,4,5,5,6,6,7,7,9,9,10,10,11,11,13,13],"right_children":[2,4,6,8,10,12,14,16,-1,18,20,22,-1,24,-1,-1,-1,-1,-1,-1,-1,-1,-1,-1,-1],"split_conditions":[5E-1,5E-1,5E-1,5E-1,5E-1,5E-1,5E-1,5E-1,2.5200595E-3,5E-1,5E-1,5E-1,-5.4046703E-3,5E-1,-3.0108972E-4,6.6877864E-2,9.451766E-3,-1.2026298E-2,-3.250966E-3,-7.4228185E-4,1.8973386E-2,-2.4076693E-3,-1.3787189E-3,7.766823E-5,2.7273456E-4],"split_indices":[7,2,0,5,5,4,2,3,0,0,0,2,0,3,0,0,0,0,0,0,0,0,0,0,0],"split_type":[0,0,0,0,0,0,0,0,0,0,0,0,0,0,0,0,0,0,0,0,0,0,0,0,0],"sum_hessian":[8.636003E1,3.259518E1,5.376485E1,7.3081856E0,2.5286995E1,2.933578E1,2.4429073E1,2.914167E0,4.3940187E0,7.505325E0,1.778167E1,2.3038042E1,6.2977366E0,1.3319849E1,1.1109224E1,1.2287544E0,1.6854125E0,4.732515E0,2.77281E0,1.5682089E1,2.0995808E0,5.5898514E0,1.744819E1,6.461687E0,6.858162E0],"tree_param":{"num_deleted":"0","num_feature":"8","num_nodes":"25","size_leaf_vector":"0"}},{"base_weights":[2.7348243E-3,-5.029944E-4,2.4315178E-2,3.4289602E-3,-1.4153377E-2,-4.424695E-2,1.4312121E-1,1.950368E-2,-2.7086701E-2,-5.6917053E-2,4.5692585E-2,2.5342021E-2,-2.5023675E-1,1.23503275E-1,-2.6495669E-3,-1.8640811E-4,-1.7278871E-1,-1.3408879E-2,-1.1710149E-1,1.5820047E-1,-3.0451478E-2,-3.295455E-3,-1.7770058E-3,6.712704E-4,-7.2761235E-4],"categories":[],"categories_nodes":[],"categories_segments":[],"categories_sizes":[],"default_left":[1,1,1,1,1,1,0,1,1,1,0,1,0,0,1,1,0,0,0,0,0,0,0,0,0],"id":20,"left_children":[1,3,5,7,9,11,-1,13,15,17,-1,19,-1,-1,21,23,-1,-1,-1,-1,-1,-1,-1,-1,-1],"loss_changes":[6.109023E-3,4.173347E-3,9.9222556E-2,3.0190654E-2,4.7083624E-2,1.2094222E-1,0E0,9.2917174E-2,8.3381414E-2,2.6140992E-2,0E0,5.5845372E-2,0E0,0E0,1.3367346E-5,9.2922055E-6,0E0,0E0,0E0,0E0,0E0,0E0,0E0,0E0,0E0],"parents":[2147483647,0,0,1,1,2,2,3,3,4,4,5,5,7,7,8,8,9,9,11,11,14,14,15,15],"right_children":[2,4,6,8,10,12,-1,14,16,18,-1,20,-1,-1,22,24,-1,-1,-1,-1,-1,-1,-1,-1,-1],"split_conditions":[5E-1,5E-1,5E-1,5E-1,5E-1,5E-1,4.2936366E-2,5E-1,5E-1,5E-1,1.3707777E-2,5E-1,-7.507103E-2,3.7050985E-2,5E-1,5E-1,-5.1836614E-2,-4.022664E-3,-3.513045E-2,4.7460143E-2,-9.135444E-3,-9.886365E-4,-5.331018E-4,2.0138113E-4,-2.1828372E-4],"split_indices":[6,4,0,0,0,3,0,2,5,5,0,2,0,0,5,2,0,0,0,0,0,0,0,0,0],"split_type":[0,0,0,0,0,0,0,0,0,0,0,0,0,0,0,0,0,0,0,0,0,0,0,0,0],"sum_hessian":[8.6255E1,7.58513E1,1.0403694E1,5.946995E1,1.6381351E1,6.994682E0,3.409012E0,3.918785E1,2.02821E1,9.58279E0,6.798561E0,5.8839107E0,1.1107712E0,6.078246E0,3.3109604E1,1.7966337E1,2.315763E0,6.2716923E0,3.311098E0,1.1973213E0,4.6865897E0,1.7430454E1,1.5679149E1,6.8578954E0,1.1108442E1],"tree_param":{"num_deleted":"0","num_feature":"8","num_nodes":"25","size_leaf_vector":"0"}},{"base_weights":[1.54348E-3,1.7572956E-2,-8.284175E-3,7.4864484E-2,-1.3280859E-3,-1.5380815E-2,-1.6899979E-3,1.2145547E-1,2.6185254E-2,-3.3559006E-2,1.299274E-2,-2.4762865E-2,-5.8134603E-3,-2.3625668E-3,-5.2734994E-4,1.547714E-1,4.8185892E-2,-1.2761129E-3,8.4109776E-2,-9.971307E-3,-3.707205E-2,-1.1683684E-2,4.954248E-4],"categories":[],"categories_nodes":[],"categories_segments":[],"categories_sizes":[],"default_left":[1,1,1,1,1,1,1,1,0,0,1,1,1,0,0,0,0,0,0,0,0,0,0],"id":21,"left_children":[1,3,5,7,9,11,13,15,-1,-1,17,19,21,-1,-1,-1,-1,-1,-1,-1,-1,-1,-1],"loss_changes":[1.38967E-2,3.637284E-2,2.5381458E-3,1.5705697E-2,1.2515564E-2,2.213874E-3,2.1841981E-5,2.2574961E-3,0E0,0E0,1.9225793E-2,1.9891849E-3,5.358362E-4,0E0,0E0,0E0,0E0,0E0,0E0,0E0,0E0,0E0,0E0],"parents":[2147483647,0,0,1,1,2,2,3,3,4,4,5,5,6,6,7,7,10,10,11,11,12,12],"right_children":[2,4,6,8,10,12,14,16,-1,-1,18,20,22,-1,-1,-1,-1,-1,-1,-1,-1,-1,-1],"split_conditions":[5E-1,5E-1,5E-1,5E-1,5E-1,5E-1,5E-1,5E-1,7.855576E-3,-1.0067702E-2,5E-1,5E-1,5E-1,-7.0877007E-4,-1.5820499E-4,4.6431422E-2,1.4455768E-2,-3.8283388E-4,2.5232933E-2,-2.991392E-3,-1.1121616E-2,-3.5051054E-3,1.4862744E-4],"split_indices":[7,2,2,5,5,0,0,3,0,0,0,3,3,0,0,0,0,0,0,0,0,0,0],"split_type":[0,0,0,0,0,0,0,0,0,0,0,0,0,0,0,0,0,0,0,0,0,0,0],"sum_hessian":[8.629089E1,3.2497486E1,5.3793404E1,7.3271303E0,2.5170357E1,2.5267782E1,2.8525621E1,2.979975E0,4.347155E0,7.329953E0,1.7840405E1,1.1955538E1,1.3312245E1,1.7417744E1,1.1107877E1,1.283849E0,1.696126E0,1.5677035E1,2.163369E0,6.2523537E0,5.703184E0,6.454547E0,6.8576984E0],"tree_param":{"num_deleted":"0","num_feature":"8","num_nodes":"23","size_leaf_vector":"0"}},{"base_weights":[1.8284279E-3,1.4820659E-2,-6.14416E-3,6.050585E-2,-3.4471904E-4,-1.1461327E-2,-1.212826E-3,1.0005613E-1,1.9764194E-2,-2.4750734E-2,1.0474961E-2,-1.8513089E-2,-4.3030856E-3,-1.6931888E-3,-3.8229293E-4,1.2725326E-1,3.9351515E-2,-1.493896E-2,-3.2944575E-2,-9.164498E-4,6.810794E-2,-7.4099284E-3,-2.7790638E-2,-8.64612E-3,3.6587106E-4],"categories":[],"categories_nodes":[],"categories_segments":[],"categories_sizes":[],"default_left":[1,1,1,1,1,1,1,1,0,1,1,1,1,0,0,0,0,0,0,0,0,0,0,0,0],"id":22,"left_children":[1,3,5,7,9,11,13,15,-1,17,19,21,23,-1,-1,-1,-1,-1,-1,-1,-1,-1,-1,-1,-1],"loss_changes":[9.121498E-3,2.3193995E-2,1.4212877E-3,1.1463361E-2,7.15282E-3,1.2438134E-3,1.112837E-5,1.5739687E-3,0E0,1.7639669E-4,1.2398283E-2,1.1233981E-3,2.934141E-4,0E0,0E0,0E0,0E0,0E0,0E0,0E0,0E0,0E0,0E0,0E0,0E0],"parents":[2147483647,0,0,1,1,2,2,3,3,4,4,5,5,6,6,7,7,9,9,10,10,11,11,12,12],"right_children":[2,4,6,8,10,12,14,16,-1,18,20,22,24,-1,-1,-1,-1,-1,-1,-1,-1,-1,-1,-1,-1],"split_conditions":[5E-1,5E-1,5E-1,5E-1,5E-1,5E-1,5E-1,5E-1,5.9292587E-3,5E-1,5E-1,5E-1,5E-1,-5.0795666E-4,-1.14687886E-4,3.817598E-2,1.1805455E-2,-4.481688E-3,-9.883373E-3,-2.7493495E-4,2.0432383E-2,-2.2229785E-3,-8.337191E-3,-2.5938363E-3,1.0976132E-4],"split_indices":[7,2,2,5,5,0,0,3,0,0,0,3,3,0,0,0,0,0,0,0,0,0,0,0,0],"split_type":[0,0,0,0,0,0,0,0,0,0,0,0,0,0,0,0,0,0,0,0,0,0,0,0,0],"sum_hessian":[8.618179E1,3.2446922E1,5.373487E1,7.341417E0,2.5105505E1,2.521877E1,2.8516102E1,2.9864392E0,4.3549776E0,7.315753E0,1.7789753E1,1.1904798E1,1.3313972E1,1.7408634E1,1.1107466E1,1.3053436E0,1.6810956E0,4.6139445E0,2.7018082E0,1.5675516E1,2.114236E0,6.237998E0,5.666799E0,6.4564195E0,6.857553E0],"tree_param":{"num_deleted":"0","num_feature":"8","num_nodes":"25","size_leaf_vector":"0"}},{"base_weights":[1.83319E-3,1.2233712E-2,-4.5565595E-3,4.895987E-2,-9.384649E-7,-8.537288E-3,-8.702492E-4,2.3069222E-2,1.11823E-1,-1.9028317E-2,8.444842E-3,-1.3828019E-2,-3.1854736E-3,-1.213303E-3,-2.7695077E-4,-4.5026124E-2,1.5773247E-1,-1.1296091E-2,-2.5537767E-2,-6.5792573E-4,5.505613E-2,-5.503975E-3,-2.0806339E-2,-6.3988566E-3,2.6987077E-4,8.1597365E-2,-1.0157519E-1],"categories":[],"categories_nodes":[],"categories_segments":[],"categories_sizes":[],"default_left":[1,1,1,1,1,1,1,1,0,1,1,1,1,0,0,1,0,0,0,0,0,0,0,0,0,0,0],"id":23,"left_children":[1,3,5,7,9,11,13,15,-1,17,19,21,23,-1,-1,25,-1,-1,-1,-1,-1,-1,-1,-1,-1,-1,-1],"loss_changes":[5.845171E-3,1.5018678E-2,7.9512247E-4,1.10142995E-2,4.3504983E-3,6.972973E-4,5.6700956E-6,7.290341E-2,0E0,1.3041217E-4,7.99153E-3,6.3289097E-4,1.6067376E-4,0E0,0E0,4.7984E-2,0E0,0E0,0E0,0E0,0E0,0E0,0E0,0E0,0E0,0E0,0E0],"parents":[2147483647,0,0,1,1,2,2,3,3,4,4,5,5,6,6,7,7,9,9,10,10,11,11,12,12,15,15],"right_children":[2,4,6,8,10,12,14,16,-1,18,20,22,24,-1,-1,26,-1,-1,-1,-1,-1,-1,-1,-1,-1,-1,-1],"split_conditions":[5E-1,5E-1,5E-1,5E-1,5E-1,5E-1,5E-1,5E-1,3.3546902E-2,5E-1,5E-1,5E-1,5E-1,-3.639909E-4,-8.308524E-5,5E-1,4.7319744E-2,-3.3888274E-3,-7.66133E-3,-1.9737773E-4,1.651684E-2,-1.6511925E-3,-6.241902E-3,-1.9196571E-3,8.096123E-5,2.447921E-2,-3.0472558E-2],"split_indices":[7,2,2,0,5,0,0,3,0,0,0,3,3,0,0,5,0,0,0,0,0,0,0,0,0,0,0],"split_type":[0,0,0,0,0,0,0,0,0,0,0,0,0,0,0,0,0,0,0,0,0,0,0,0,0,0,0],"sum_hessian":[8.6115746E1,3.2424377E1,5.369137E1,7.3523235E0,2.5072054E1,2.5182095E1,2.8509275E1,6.175764E0,1.1765591E0,7.3224382E0,1.7749615E1,1.1866868E1,1.3315226E1,1.740211E1,1.1107167E1,4.543756E0,1.6320082E0,4.5971117E0,2.7253268E0,1.5674424E1,2.07519E0,6.227345E0,5.639523E0,6.4577804E0,6.8574452E0,1.2660022E0,3.277754E0],"tree_param":{"num_deleted":"0","num_feature":"8","num_nodes":"27","size_leaf_vector":"0"}},{"base_weights":[2.0973906E-3,1.1023962E-2,-3.3790031E-3,4.3809302E-2,2.132077E-4,-6.3569676E-3,-6.246088E-4,2.208291E-2,9.548329E-2,-1.4631866E-2,6.8068425E-3,-1.0321061E-2,-2.3579744E-3,-8.694914E-4,-2.009E-4,-1.0997159E-1,1.12229034E-1,-8.535898E-3,-1.9816753E-2,-4.7242548E-4,4.4441994E-2,-4.086369E-3,-1.5561939E-2,-4.7358326E-3,1.993556E-4,6.74937E-2,-2.493527E-1],"categories":[],"categories_nodes":[],"categories_segments":[],"categories_sizes":[],"default_left":[1,1,1,1,1,1,1,1,0,1,1,1,1,0,0,1,0,0,0,0,0,0,0,0,0,0,0],"id":24,"left_children":[1,3,5,7,9,11,13,15,-1,17,19,21,23,-1,-1,25,-1,-1,-1,-1,-1,-1,-1,-1,-1,-1,-1],"loss_changes":[4.288184E-3,1.1792621E-2,4.4436974E-4,7.156104E-3,2.6490404E-3,3.9027713E-4,2.8866634E-6,9.698583E-2,0E0,9.407138E-5,5.1488383E-3,3.5591098E-4,8.80001E-5,0E0,0E0,1.0067634E-1,0E0,0E0,0E0,0E0,0E0,0E0,0E0,0E0,0E0,0E0,0E0],"parents":[2147483647,0,0,1,1,2,2,3,3,4,4,5,5,6,6,7,7,9,9,10,10,11,11,12,12,15,15],"right_children":[2,4,6,8,10,12,14,16,-1,18,20,22,24,-1,-1,26,-1,-1,-1,-1,-1,-1,-1,-1,-1,-1,-1],"split_conditions":[5E-1,5E-1,5E-1,5E-1,5E-1,5E-1,5E-1,5E-1,2.8644988E-2,5E-1,5E-1,5E-1,5E-1,-2.6084745E-4,-6.0270002E-5,5E-1,3.366871E-2,-2.5607697E-3,-5.945026E-3,-1.4172765E-4,1.3332599E-2,-1.2259108E-3,-4.6685818E-3,-1.4207498E-3,5.9806684E-5,2.0248111E-2,-7.480581E-2],"split_indices":[7,2,2,0,5,0,0,5,0,0,0,3,3,0,0,3,0,0,0,0,0,0,0,0,0,0,0],"split_type":[0,0,0,0,0,0,0,0,0,0,0,0,0,0,0,0,0,0,0,0,0,0,0,0,0,0,0],"sum_hessian":[8.595709E1,3.2298023E1,5.3659065E1,7.252197E0,2.5045826E1,2.515468E1,2.8504387E1,6.1104155E0,1.1417811E0,7.328091E0,1.7717735E1,1.1838541E1,1.331614E1,1.7397434E1,1.1106952E1,2.3897538E0,3.7206616E0,4.5844145E0,2.7436767E0,1.5673639E1,2.0440967E0,6.219438E0,5.619103E0,6.458773E0,6.8573666E0,1.2781396E0,1.1116142E0],"tree_param":{"num_deleted":"0","num_feature":"8","num_nodes":"27","size_leaf_vector":"0"}},{"base_weights":[1.537372E-3,-5.256475E-4,1.53603265E-2,5.7972656E-3,-1.1719824E-2,-4.3656617E-2,1.2148955E-1,-1.1110038E-2,1.0882952E-1,1.9437343E-2,-9.0609774E-2,1.3382169E-2,-2.0515521E-1,-4.448015E-2,-5.023471E-4,-1.503234E-3,1.3035317E-1,5.5847477E-2,-6.446859E-3,-3.033182E-3,-1.0390454E-1,-3.5052754E-3,-1.455285E-4],"categories":[],"categories_nodes":[],"categories_segments":[],"categories_sizes":[],"default_left":[1,1,1,1,1,1,0,1,0,1,0,1,0,1,0,1,0,0,0,0,0,0,0],"id":25,"left_children":[1,3,5,7,9,11,-1,13,-1,15,-1,17,-1,19,-1,21,-1,-1,-1,-1,-1,-1,-1],"loss_changes":[2.488655E-3,5.493676E-3,7.626497E-2,8.770952E-2,7.0586435E-2,7.658985E-2,0E0,1.5398255E-2,0E0,4.873059E-2,0E0,6.1388793E-3,0E0,2.5536895E-2,4.5818706E-7,4.995646E-5,0E0,0E0,0E0,0E0,0E0,0E0,0E0],"parents":[2147483647,0,0,1,1,2,2,3,3,4,4,5,5,7,7,9,9,11,11,13,13,15,15],"right_children":[2,4,6,8,10,12,-1,14,-1,16,-1,18,-1,20,-1,22,-1,-1,-1,-1,-1,-1,-1],"split_conditions":[5E-1,5E-1,5E-1,5E-1,5E-1,5E-1,3.6446866E-2,5E-1,3.2648858E-2,5E-1,-2.7182933E-2,5E-1,-6.1546564E-2,5E-1,-1.5070413E-4,5E-1,3.910595E-2,1.6754244E-2,-1.9340577E-3,-9.099546E-4,-3.1171363E-2,-1.0515826E-3,-4.365855E-5],"split_indices":[6,0,0,3,3,3,0,2,0,5,0,2,0,5,0,2,0,0,0,0,0,0,0],"split_type":[0,0,0,0,0,0,0,0,0,0,0,0,0,0,0,0,0,0,0,0,0,0,0],"sum_hessian":[8.598597E1,7.565652E1,1.03294525E1,4.8655872E1,2.700064E1,7.016387E0,3.313066E0,4.256349E1,6.0923805E0,1.9896313E1,7.1043286E0,5.8628554E0,1.1535316E0,9.496334E0,3.3067158E1,1.7566296E1,2.330017E0,1.2880187E0,4.5748367E0,6.213572E0,3.2827625E0,6.459501E0,1.1106794E1],"tree_param":{"num_deleted":"0","num_feature":"8","num_nodes":"23","size_leaf_vector":"0"}},{"base_weights":[1.1164657E-3,7.857916E-3,-3.0655775E-3,-1.13345E-3,7.419422E-2,3.655471E-4,-2.2316715E-2,1.2715822E-2,-1.652818E-2,-3.5612745E-4,2.088656E-3,-4.867275E-3,-4.2700864E-2,-3.4440774E-2,7.93769E-2,3.7962828E-2,-6.647101E-2,-1.0540999E-4,1.0390166E-2,-2.251048E-3,-8.111907E-2],"categories":[],"categories_nodes":[],"categories_segments":[],"categories_sizes":[],"default_left":[1,1,1,1,0,1,1,1,1,0,1,0,0,1,0,0,0,0,0,0,0],"id":26,"left_children":[1,3,5,7,-1,9,11,13,15,-1,17,-1,-1,19,-1,-1,-1,-1,-1,-1,-1],"loss_changes":[2.474452E-3,2.0098377E-2,3.5986905E-3,6.7204316E-3,0E0,5.933801E-5,2.7226554E-3,5.5040482E-2,4.306064E-2,5.769407E-7,2.5709104E-4,0E0,0E0,1.5508532E-2,0E0,0E0,0E0,0E0,0E0,0E0,0E0],"parents":[2147483647,0,0,1,1,2,2,3,3,5,5,6,6,7,7,8,8,10,10,13,13],"right_children":[2,4,6,8,-1,10,12,14,16,-1,18,-1,-1,20,-1,-1,-1,-1,-1,-1,-1],"split_conditions":[5E-1,5E-1,5E-1,5E-1,2.2258267E-2,5E-1,5E-1,5E-1,5E-1,-1.0683824E-4,5E-1,-1.4601825E-3,-1.281026E-2,5E-1,2.381307E-2,1.1388849E-2,-1.9941304E-2,-3.1623E-5,3.11705E-3,-6.7531446E-4,-2.4335722E-2],"split_indices":[2,6,6,0,0,0,0,3,3,0,5,0,0,5,0,0,0,0,0,0,0],"split_type":[0,0,0,0,0,0,0,0,0,0,0,0,0,0,0,0,0,0,0,0,0],"sum_hessian":[8.5913765E1,3.255545E1,5.335832E1,2.953511E1,3.0203385E0,4.6119473E1,7.238848E0,1.5639582E1,1.3895529E1,3.3064625E1,1.3054845E1,4.567613E0,2.6712353E0,9.442924E0,6.196657E0,6.7598977E0,7.135631E0,1.1106682E1,1.9481626E0,6.209221E0,3.2337031E0],"tree_param":{"num_deleted":"0","num_feature":"8","num_nodes":"21","size_leaf_vector":"0"}},{"base_weights":[7.861341E-4,-3.5644849E-3,8.682411E-3,-2.0218745E-2,2.724068E-2,2.2979986E-2,-1.1110447E-1,1.2379591E-3,-9.976372E-2,1.18826054E-1,-9.719688E-5,-7.710782E-3,9.833288E-2,7.65099E-3,-1.1943916E-3,-5.8691055E-2,-1.8208331E-1,-5.054755E-3,-1.8794836E-2,-1.6703503E-3,3.345435E-2,-3.795593E-4,-3.6738224E-3,-1.2462003E-2,-7.6574834E-5],"categories":[],"categories_nodes":[],"categories_segments":[],"categories_sizes":[],"default_left":[1,1,1,1,1,1,0,1,1,0,0,1,0,1,1,0,0,1,0,0,0,0,0,0,0],"id":27,"left_children":[1,3,5,7,9,11,-1,13,15,-1,-1,17,-1,19,21,-1,-1,23,-1,-1,-1,-1,-1,-1,-1],"loss_changes":[3.018524E-3,2.9681234E-2,5.596219E-2,6.400672E-2,5.0965756E-2,6.710351E-2,0E0,4.8436254E-4,1.6239256E-2,0E0,0E0,5.3243036E-4,0E0,2.1033501E-3,4.497786E-5,0E0,0E0,6.8346283E-4,0E0,0E0,0E0,0E0,0E0,0E0,0E0],"parents":[2147483647,0,0,1,1,2,2,3,3,4,4,5,5,7,7,8,8,11,11,13,13,14,14,17,17],"right_children":[2,4,6,8,10,12,-1,14,16,-1,-1,18,-1,20,22,-1,-1,24,-1,-1,-1,-1,-1,-1,-1],"split_conditions":[5E-1,5E-1,5E-1,5E-1,5E-1,5E-1,-3.3331342E-2,5E-1,5E-1,3.5647817E-2,-2.9159064E-5,5E-1,2.9499866E-2,5E-1,5E-1,-1.7607316E-2,-5.4624993E-2,5E-1,-5.6384513E-3,-5.011051E-4,1.00363055E-2,-1.1386779E-4,-1.1021468E-3,-3.738601E-3,-2.2972452E-5],"split_indices":[0,5,5,3,2,3,0,2,6,0,0,6,0,6,6,0,0,2,0,0,0,0,0,0,0],"split_type":[0,0,0,0,0,0,0,0,0,0,0,0,0,0,0,0,0,0,0,0,0,0,0,0,0],"sum_hessian":[8.5965195E1,5.5780403E1,3.0184793E1,3.642924E1,1.935116E1,2.7688139E1,2.4966533E0,2.9465551E1,6.9636908E0,3.6791077E0,1.5672052E1,2.031261E1,7.375529E0,7.512612E0,2.195294E1,5.7885222E0,1.1751685E0,1.756066E1,2.7519507E0,6.2059927E0,1.3066188E0,1.7390774E1,4.5621657E0,6.454061E0,1.1106599E1],"tree_param":{"num_deleted":"0","num_feature":"8","num_nodes":"25","size_leaf_vector":"0"}},{"base_weights":[8.6567125E-5,7.9849E-3,-4.71522E-3,7.5425854E-4,7.103283E-2,-1.0253995E-2,2.073098E-3,-1.2897235E-2,5.859605E-2,-5.663304E-4,-4.41265E-2,-3.740257E-3,1.5514436E-2,-5.682069E-2,-7.8052626E-4,-1.4597093E-2,1.2418437E-1,-1.2393042E-3,-2.7191135E-4,-9.221849E-3,-5.5358065E-5,2.770255E-2,-8.9406006E-2,-2.7722097E-3,-6.972611E-5],"categories":[],"categories_nodes":[],"categories_segments":[],"categories_sizes":[],"default_left":[1,1,1,1,0,1,1,1,1,1,0,1,0,1,1,0,0,0,0,0,0,0,0,0,0],"id":28,"left_children":[1,3,5,7,-1,9,11,13,15,17,-1,19,-1,21,23,-1,-1,-1,-1,-1,-1,-1,-1,-1,-1],"loss_changes":[3.3387844E-3,1.5118315E-2,2.0801965E-3,2.5129382E-2,0E0,9.925645E-3,2.0456307E-3,1.36828115E-2,3.0973809E-2,4.5357674E-6,0E0,3.744376E-4,0E0,1.7798122E-2,2.9861774E-5,0E0,0E0,0E0,0E0,0E0,0E0,0E0,0E0,0E0,0E0],"parents":[2147483647,0,0,1,1,2,2,3,3,5,5,6,6,7,7,8,8,9,9,11,11,13,13,14,14],"right_children":[2,4,6,8,-1,10,12,14,16,18,-1,20,-1,22,24,-1,-1,-1,-1,-1,-1,-1,-1,-1,-1],"split_conditions":[5E-1,5E-1,5E-1,5E-1,2.1309849E-2,5E-1,5E-1,5E-1,5E-1,5E-1,-1.323795E-2,5E-1,4.654331E-3,5E-1,5E-1,-4.379128E-3,3.7255313E-2,-3.7179128E-4,-8.157341E-5,-2.7665547E-3,-1.660742E-5,8.310765E-3,-2.6821803E-2,-8.3166297E-4,-2.0917834E-5],"split_indices":[7,3,0,0,0,3,3,2,5,2,0,2,0,5,5,0,0,0,0,0,0,0,0,0,0],"split_type":[0,0,0,0,0,0,0,0,0,0,0,0,0,0,0,0,0,0,0,0,0,0,0,0,0],"sum_hessian":[8.60412E1,3.2280674E1,5.3760525E1,2.986731E1,2.4133642E0,2.9323854E1,2.4436668E1,2.4792864E1,5.0744467E0,2.3592913E1,5.7309422E0,1.7562607E1,6.8740616E0,4.5628686E0,2.0229994E1,2.765612E0,2.3088348E0,6.203598E0,1.7389315E1,6.4560676E0,1.110654E1,1.3113071E0,3.2515619E0,4.5580564E0,1.5671938E1],"tree_param":{"num_deleted":"0","num_feature":"8","num_nodes":"25","size_leaf_vector":"0"}},{"base_weights":[3.360446E-4,6.69879E-3,-3.5247176E-3,3.7869368E-2,-3.5020916E-3,-7.6503865E-3,1.5252868E-3,5.568312E-2,1.701212E-2,-1.2896818E-2,8.6674007E-4,-4.1495796E-4,-3.3110723E-2,-2.7678707E-3,1.1458656E-2,-2.0916103E-3,-2.5546994E-2,-5.000942E-5,5.7778927E-3,-9.193614E-4,-1.9484031E-4,-6.824872E-3,-4.0157385E-5],"categories":[],"categories_nodes":[],"categories_segments":[],"categories_sizes":[],"default_left":[1,1,1,1,1,1,1,0,0,1,1,1,0,1,0,0,0,0,0,0,0,0,0],"id":29,"left_children":[1,3,5,7,9,11,13,-1,-1,15,17,19,-1,21,-1,-1,-1,-1,-1,-1,-1,-1,-1],"loss_changes":[2.1572404E-3,1.06715895E-2,1.1515634E-3,2.1206057E-3,1.0737127E-3,5.563916E-3,1.1163518E-3,0E0,0E0,1.0783753E-3,8.406522E-5,2.5510622E-6,0E0,2.0516163E-4,0E0,0E0,0E0,0E0,0E0,0E0,0E0,0E0,0E0],"parents":[2147483647,0,0,1,1,2,2,3,3,4,4,5,5,6,6,9,9,10,10,11,11,13,13],"right_children":[2,4,6,8,10,12,14,-1,-1,16,18,20,-1,22,-1,-1,-1,-1,-1,-1,-1,-1,-1],"split_conditions":[5E-1,5E-1,5E-1,5E-1,5E-1,5E-1,5E-1,1.6704937E-2,5.103636E-3,5E-1,5E-1,5E-1,-9.933217E-3,5E-1,3.4375968E-3,-6.274831E-4,-7.6640984E-3,-1.5002827E-5,1.7333679E-3,-2.7580844E-4,-5.8452093E-5,-2.0474617E-3,-1.2047216E-5],"split_indices":[7,2,0,5,5,3,3,0,0,0,0,2,0,2,0,0,0,0,0,0,0,0,0],"split_type":[0,0,0,0,0,0,0,0,0,0,0,0,0,0,0,0,0,0,0,0,0,0,0],"sum_hessian":[8.585629E1,3.214481E1,5.371148E1,7.257102E0,2.4887709E1,2.9277725E1,2.4433756E1,3.013558E0,4.243544E0,7.2802553E0,1.7607452E1,2.359009E1,5.6876354E0,1.7564022E1,6.869735E0,4.5549583E0,2.7252972E0,1.5671854E1,1.9355989E0,6.2018228E0,1.7388268E1,6.457524E0,1.1106498E1],"tree_param":{"num_deleted":"0","num_feature":"8","num_nodes":"23","size_leaf_vector":"0"}},{"base_weights":[3.0812132E-4,5.1515005E-3,-2.6344464E-3,3.4503514E-4,4.7548242E-2,-5.706274E-3,1.1221563E-3,-1.11838775E-2,4.9623728E-2,-3.0412996E-4,-2.4807567E-2,-2.048368E-3,8.461994E-3,-5.0322313E-2,-4.4095665E-4,-5.9871306E-3,9.962738E-2,-6.8209216E-4,-1.3958091E-4,-5.051149E-3,-2.921037E-5,1.3381005E-2,-7.3477E-2,-1.5777979E-3,-3.587692E-5],"categories":[],"categories_nodes":[],"categories_segments":[],"categories_sizes":[],"default_left":[1,1,1,1,0,1,1,1,1,1,0,1,0,1,1,0,0,0,0,0,0,0,0,0,0],"id":30,"left_children":[1,3,5,7,-1,9,11,13,15,17,-1,19,-1,21,23,-1,-1,-1,-1,-1,-1,-1,-1,-1,-1],"loss_changes":[1.2510471E-3,6.7396024E-3,6.373294E-4,1.8044932E-2,0E0,3.1131844E-3,6.0915423E-4,1.0810759E-2,1.7338451E-2,1.4340037E-6,0E0,1.1241401E-4,0E0,9.1549205E-3,9.717478E-6,0E0,0E0,0E0,0E0,0E0,0E0,0E0,0E0,0E0,0E0],"parents":[2147483647,0,0,1,1,2,2,3,3,5,5,6,6,7,7,8,8,9,9,11,11,13,13,14,14],"right_children":[2,4,6,8,-1,10,12,14,16,18,-1,20,-1,22,24,-1,-1,-1,-1,-1,-1,-1,-1,-1,-1],"split_conditions":[5E-1,5E-1,5E-1,5E-1,1.4264473E-2,5E-1,5E-1,5E-1,5E-1,5E-1,-7.4422704E-3,5E-1,2.5385984E-3,5E-1,5E-1,-1.7961393E-3,2.9888216E-2,-2.0462765E-4,-4.1874275E-5,-1.5153448E-3,-8.7631115E-6,4.0143016E-3,-2.2043101E-2,-4.733394E-4,-1.0763077E-5],"split_indices":[7,3,0,0,0,3,3,2,5,2,0,2,0,5,5,0,0,0,0,0,0,0,0,0,0],"split_type":[0,0,0,0,0,0,0,0,0,0,0,0,0,0,0,0,0,0,0,0,0,0,0,0,0],"sum_hessian":[8.582839E1,3.215369E1,5.3674706E1,2.9785128E1,2.3685641E0,2.9243158E1,2.4431545E1,2.476445E1,5.020676E0,2.358802E1,5.655138E0,1.7565052E1,6.866494E0,4.5400357E0,2.0224415E1,2.793827E0,2.2268493E0,6.200505E0,1.7387516E1,6.4585857E0,1.1106466E1,1.3228118E0,3.217224E0,4.5526214E0,1.5671794E1],"tree_param":{"num_deleted":"0","num_feature":"8","num_nodes":"25","size_leaf_vector":"0"}},{"base_weights":[4.2060754E-4,4.7450443E-3,-2.2407717E-3,3.2186035E-2,-4.03351E-3,-2.2982266E-4,-6.746507E-3,-9.878501E-3,1.4837825E-3,-6.6550645E-5,-1.1902172E-3,-2.0014731E-2,-2.1111462E-5,-5.0598965E-4,-1.8565122E-2,-3.738441E-3,6.248574E-3],"categories":[],"categories_nodes":[],"categories_segments":[],"categories_sizes":[],"default_left":[1,1,1,0,1,1,1,1,1,0,0,0,0,0,0,0,0],"id":31,"left_children":[1,3,5,-1,7,9,11,13,15,-1,-1,-1,-1,-1,-1,-1,-1],"loss_changes":[1.0083641E-3,8.163E-3,4.908504E-4,0E0,8.5807766E-4,5.974988E-6,1.4928633E-3,1.0351924E-3,3.797673E-4,4.4048335E-8,0E0,0E0,0E0,0E0,0E0,0E0,0E0],"parents":[2147483647,0,0,1,1,2,2,4,4,5,5,6,6,7,7,8,8],"right_children":[2,4,6,-1,8,10,12,14,16,-1,-1,-1,-1,-1,-1,-1,-1],"split_conditions":[5E-1,5E-1,5E-1,9.655811E-3,5E-1,5E-1,5E-1,5E-1,5E-1,-1.9965195E-5,-3.5706518E-4,-6.0044196E-3,-6.3334387E-6,-1.517969E-4,-5.5695367E-3,-1.1215324E-3,1.8745722E-3],"split_indices":[2,7,0,0,0,6,7,3,3,0,0,0,0,0,0,0,0],"split_type":[0,0,0,0,0,0,0,0,0,0,0,0,0,0,0,0,0],"sum_hessian":[8.569167E1,3.23476E1,5.334407E1,7.1938415E0,2.5153759E1,3.760959E1,1.5734483E1,1.1830318E1,1.3323441E1,3.305873E1,4.550859E0,4.6280403E0,1.1106442E1,6.199528E0,5.63079E0,6.4593635E0,6.8640766E0],"tree_param":{"num_deleted":"0","num_feature":"8","num_nodes":"17","size_leaf_vector":"0"}},{"base_weights":[2.7489412E-4,3.4616634E-3,-1.6839291E-3,2.3693254E-2,-3.0175985E-3,-1.7070139E-4,-5.069416E-3,1.6465578E-2,3.7597883E-2,-7.3756888E-3,1.0914538E-3,-4.7230507E-5,-8.9770317E-4,-1.4996886E-2,-1.5166499E-5,-1.1190415E-1,1.09086454E-1,-3.7522812E-4,-1.3881365E-2,-2.7669743E-3,4.6136095E-3,5.563047E-3,-1.8636894E-1],"categories":[],"categories_nodes":[],"categories_segments":[],"categories_sizes":[],"default_left":[1,1,1,1,1,1,1,1,0,1,1,0,0,0,0,1,0,0,0,0,0,0,0],"id":32,"left_children":[1,3,5,7,9,11,13,15,-1,17,19,-1,-1,-1,-1,21,-1,-1,-1,-1,-1,-1,-1],"loss_changes":[5.470331E-4,4.440833E-3,2.77659E-4,2.0484347E-4,4.7604053E-4,3.4231848E-6,8.406895E-4,9.749791E-2,0E0,5.782563E-4,2.0740439E-4,4.5972925E-8,0E0,0E0,0E0,3.16532E-2,0E0,0E0,0E0,0E0,0E0,0E0,0E0],"parents":[2147483647,0,0,1,1,2,2,3,3,4,4,5,5,6,6,7,7,9,9,10,10,15,15],"right_children":[2,4,6,8,10,12,14,16,-1,18,20,-1,-1,-1,-1,22,-1,-1,-1,-1,-1,-1,-1],"split_conditions":[5E-1,5E-1,5E-1,5E-1,5E-1,5E-1,5E-1,5E-1,1.1279365E-2,5E-1,5E-1,-1.4169153E-5,-2.6931096E-4,-4.499066E-3,-4.54995E-6,5E-1,3.2725938E-2,-1.1256844E-4,-4.16441E-3,-8.300923E-4,1.384083E-3,1.6689141E-3,-5.5910684E-2],"split_indices":[2,7,0,0,0,6,7,5,0,3,3,0,0,0,0,3,0,0,0,0,0,0,0],"split_type":[0,0,0,0,0,0,0,0,0,0,0,0,0,0,0,0,0,0,0,0,0,0,0],"sum_hessian":[8.569919E1,3.2331886E1,5.3367302E1,7.198302E0,2.5133585E1,3.7607925E1,1.5759377E1,6.173483E0,1.0248187E0,1.1811374E1,1.3322212E1,3.3058395E1,4.54953E0,4.65295E0,1.1106426E1,2.500152E0,3.6733308E0,6.1988025E0,5.612571E0,6.459934E0,6.862278E0,1.3289866E0,1.1711655E0],"tree_param":{"num_deleted":"0","num_feature":"8","num_nodes":"23","size_leaf_vector":"0"}},{"base_weights":[-2.2389379E-5,-1.7334401E-3,1.151725E-2,6.398135E-3,-1.614237E-2,-4.10068E-2,1.0853213E-1,-8.706317E-3,9.8423995E-2,1.2258828E-2,-8.678701E-2,1.0150297E-3,-1.5367162E-1,-3.6145337E-2,-3.3515425E-5,-8.3011744E-4,8.4840566E-2,4.609012E-3,-6.769608E-4,-2.7833175E-4,-8.839637E-2,-2.0480813E-3,-1.1001323E-5],"categories":[],"categories_nodes":[],"categories_segments":[],"categories_sizes":[],"default_left":[1,1,1,1,1,1,0,1,0,1,0,1,0,1,0,1,0,0,0,0,0,0,0],"id":33,"left_children":[1,3,5,7,9,11,-1,13,-1,15,-1,17,-1,19,-1,21,-1,-1,-1,-1,-1,-1,-1],"loss_changes":[1.7332411E-3,9.058978E-3,6.221154E-2,6.976896E-2,5.695823E-2,3.8408607E-2,0E0,1.0352002E-2,0E0,1.9779595E-2,0E0,4.494673E-5,0E0,1.9555222E-2,4.686548E-8,1.8500677E-5,0E0,0E0,0E0,0E0,0E0,0E0,0E0],"parents":[2147483647,0,0,1,1,2,2,3,3,4,4,5,5,7,7,9,9,11,11,13,13,15,15],"right_children":[2,4,6,8,10,12,-1,14,-1,16,-1,18,-1,20,-1,22,-1,-1,-1,-1,-1,-1,-1],"split_conditions":[5E-1,5E-1,5E-1,5E-1,5E-1,5E-1,3.255964E-2,5E-1,2.95272E-2,5E-1,-2.6036104E-2,5E-1,-4.610149E-2,5E-1,-1.0054628E-5,5E-1,2.545217E-2,1.3827037E-3,-2.0308825E-4,-8.349953E-5,-2.6518913E-2,-6.144244E-4,-3.300397E-6],"split_indices":[6,0,0,3,3,3,0,2,0,5,0,2,0,5,0,2,0,0,0,0,0,0,0],"split_type":[0,0,0,0,0,0,0,0,0,0,0,0,0,0,0,0,0,0,0,0,0,0,0],"sum_hessian":[8.577055E1,7.543513E1,1.033543E1,4.8577007E1,2.685812E1,7.079752E0,3.2556775E0,4.250581E1,6.0712E0,1.974609E1,7.11203E0,5.878263E0,1.2014893E0,9.447652E0,3.3058155E1,1.7566769E1,2.1793203E0,1.329735E0,4.5485277E0,6.198265E0,3.2493868E0,6.4603543E0,1.1106415E1],"tree_param":{"num_deleted":"0","num_feature":"8","num_nodes":"23","size_leaf_vector":"0"}},{"base_weights":[-1.2489638E-4,5.7809586E-3,-3.76558E-3,-6.4851786E-4,5.298731E-2,-9.4370494E-5,-1.2048694E-2,1.3508432E-2,-1.6372684E-2,-2.3818327E-5,-5.1048247E-4,-3.614361E-2,-8.153145E-6,-1.8356659E-2,9.847769E-2,3.5536524E-2,-6.367821E-2,-2.0650643E-4,-3.512687E-2],"categories":[],"categories_nodes":[],"categories_segments":[],"categories_sizes":[],"default_left":[1,1,1,1,0,1,1,1,1,0,0,0,0,1,0,0,0,0,0],"id":34,"left_children":[1,3,5,7,-1,9,11,13,15,-1,-1,-1,-1,17,-1,-1,-1,-1,-1],"loss_changes":[1.8866427E-3,1.019323E-2,1.648914E-3,6.998791E-3,0E0,1.1212136E-6,4.831899E-3,4.667109E-2,3.879468E-2,4.739732E-8,0E0,0E0,0E0,3.9172675E-3,0E0,0E0,0E0,0E0,0E0],"parents":[2147483647,0,0,1,1,2,2,3,3,5,5,6,6,7,7,8,8,13,13],"right_children":[2,4,6,8,-1,10,12,14,16,-1,-1,-1,-1,18,-1,-1,-1,-1,-1],"split_conditions":[5E-1,5E-1,5E-1,5E-1,1.5896194E-2,5E-1,5E-1,5E-1,5E-1,-7.1454983E-6,-1.5314475E-4,-1.0843083E-2,-2.4459437E-6,5E-1,2.9543309E-2,1.0660958E-2,-1.9103464E-2,-6.1951934E-5,-1.0538061E-2],"split_indices":[2,6,0,0,0,6,7,5,3,0,0,0,0,3,0,0,0,0,0],"split_type":[0,0,0,0,0,0,0,0,0,0,0,0,0,0,0,0,0,0,0],"sum_hessian":[8.573288E1,3.247104E1,5.3261845E1,2.944668E1,3.024358E0,3.760576E1,1.5656084E1,1.5569708E1,1.3876972E1,3.3057987E1,4.547772E0,4.5496774E0,1.1106406E1,1.1893413E1,3.6762953E0,6.7351537E0,7.141819E0,6.197867E0,5.695546E0],"tree_param":{"num_deleted":"0","num_feature":"8","num_nodes":"19","size_leaf_vector":"0"}},{"base_weights":[8.68458E-5,-4.192811E-3,1.9400695E-2,-8.1301015E-3,4.2705196E-3,1.2565599E-2,4.913903E-2,-3.3833925E-2,-7.0127004E-5,-6.1866953E-3,7.3839374E-2,7.877335E-2,-4.677886E-2,-1.5709195E-3,-9.060908E-2,-4.322253E-3,-1.3728884E-2,-1.5319424E-4,-5.264434E-3,-1.0751922E-2,-5.8391524E-6],"categories":[],"categories_nodes":[],"categories_segments":[],"categories_sizes":[],"default_left":[1,1,1,1,1,1,0,1,0,1,0,0,0,1,0,1,0,0,0,0,0],"id":35,"left_children":[1,3,5,7,9,11,-1,13,-1,15,-1,-1,-1,17,-1,19,-1,-1,-1,-1,-1],"loss_changes":[7.2550466E-3,2.42957E-3,2.6186123E-3,1.0230731E-2,1.753441E-2,5.9826322E-2,0E0,2.1452256E-2,6.4244045E-7,2.405977E-4,0E0,0E0,0E0,4.3885993E-5,0E0,5.1507726E-4,0E0,0E0,0E0,0E0,0E0],"parents":[2147483647,0,0,1,1,2,2,3,3,4,4,5,5,7,7,9,9,13,13,15,15],"right_children":[2,4,6,8,10,12,-1,14,-1,16,-1,-1,-1,18,-1,20,-1,-1,-1,-1,-1],"split_conditions":[5E-1,5E-1,5E-1,5E-1,5E-1,5E-1,1.4741709E-2,5E-1,-2.1038102E-5,5E-1,2.2151813E-2,2.3632007E-2,-1.4033659E-2,5E-1,-2.7182726E-2,5E-1,-4.1186656E-3,-4.5958273E-5,-1.5793303E-3,-3.2255766E-3,-1.7517458E-6],"split_indices":[3,0,6,2,5,0,0,5,0,6,0,0,0,6,0,2,0,0,0,0,0],"split_type":[0,0,0,0,0,0,0,0,0,0,0,0,0,0,0,0,0,0,0,0,0],"sum_hessian":[8.578918E1,7.086867E1,1.4920512E1,4.8394203E1,2.2474464E1,1.3288748E1,1.6317643E0,1.0789133E1,3.760507E1,2.0329687E1,2.144778E0,6.126413E0,7.162335E0,7.5349803E0,3.2541528E0,1.7561525E1,2.7681623E0,6.1975703E0,1.3374099E0,6.4551253E0,1.11064E1],"tree_param":{"num_deleted":"0","num_feature":"8","num_nodes":"21","size_leaf_vector":"0"}},{"base_weights":[1.7093692E-4,-3.134491E-3,1.4995734E-2,-6.292203E-3,3.6465703E-3,9.355138E-3,4.024123E-2,-2.6274718E-2,-4.9652732E-5,-4.6714223E-3,5.9708823E-2,5.7731625E-2,-3.4391664E-2,-1.2902257E-3,-7.066735E-2,-3.1990334E-3,-1.0669241E-2,-1.1357E-4,-4.3623084E-3,-7.956901E-3,-4.219355E-6],"categories":[],"categories_nodes":[],"categories_segments":[],"categories_sizes":[],"default_left":[1,1,1,1,1,1,0,1,0,1,0,0,0,1,0,1,0,0,0,0,0],"id":36,"left_children":[1,3,5,7,9,11,-1,13,-1,15,-1,-1,-1,17,-1,19,-1,-1,-1,-1,-1],"loss_changes":[4.2998395E-3,1.5602156E-3,1.9013346E-3,6.1546895E-3,1.1210905E-2,3.2412726E-2,0E0,1.2935775E-2,6.5613756E-7,1.5433738E-4,0E0,0E0,0E0,3.0353378E-5,0E0,2.8213684E-4,0E0,0E0,0E0,0E0,0E0],"parents":[2147483647,0,0,1,1,2,2,3,3,4,4,5,5,7,7,9,9,13,13,15,15],"right_children":[2,4,6,8,10,12,-1,14,-1,16,-1,-1,-1,18,-1,20,-1,-1,-1,-1,-1],"split_conditions":[5E-1,5E-1,5E-1,5E-1,5E-1,5E-1,1.2072369E-2,5E-1,-1.489582E-5,5E-1,1.7912647E-2,1.7319487E-2,-1.03175E-2,5E-1,-2.1200206E-2,5E-1,-3.2007725E-3,-3.4071003E-5,-1.3086926E-3,-2.3870703E-3,-1.2658065E-6],"split_indices":[3,0,6,2,5,0,0,5,0,6,0,0,0,6,0,2,0,0,0,0,0],"split_type":[0,0,0,0,0,0,0,0,0,0,0,0,0,0,0,0,0,0,0,0,0],"sum_hessian":[8.578849E1,7.079268E1,1.4995806E1,4.8349865E1,2.2442816E1,1.3377452E1,1.6183546E0,1.0745228E1,3.7604637E1,2.0341421E1,2.1013954E0,6.2007766E0,7.1766753E0,7.5340652E0,3.2111626E0,1.7563234E1,2.7781866E0,6.1973515E0,1.3367139E0,6.456839E0,1.1106395E1],"tree_param":{"num_deleted":"0","num_feature":"8","num_nodes":"21","size_leaf_vector":"0"}},{"base_weights":[2.1701575E-4,-4.6969927E-3,9.2071565E-3,-2.0165876E-2,2.4070172E-2,2.9658895E-2,-1.694826E-1,-3.7253424E-4,-9.303905E-2,1.0520619E-1,5.6271056E-5,-3.5296902E-3,1.11219E-1,-3.7881717E-5,-1.513608E-3,-6.032767E-2,-1.5169424E-1,6.178011E-4,-5.388844E-3,-3.6148003E-3,-3.5582896E-4,-2.9909675E-6,-2.1387896E-2],"categories":[],"categories_nodes":[],"categories_segments":[],"categories_sizes":[],"default_left":[1,1,1,1,1,1,0,1,1,0,0,1,0,0,1,0,0,0,1,0,0,0,0],"id":37,"left_children":[1,3,5,7,9,11,-1,13,15,-1,-1,17,-1,-1,19,-1,-1,-1,21,-1,-1,-1,-1],"loss_changes":[3.877062E-3,2.57494E-2,1.18346915E-1,5.400437E-2,3.956396E-2,7.801138E-2,0E0,1.1576603E-5,6.1949566E-3,0E0,0E0,1.6795896E-4,0E0,2.1517241E-8,1.5458636E-5,0E0,0E0,0E0,1.279109E-3,0E0,0E0,0E0,0E0],"parents":[2147483647,0,0,1,1,2,2,3,3,4,4,5,5,7,7,8,8,11,11,14,14,18,18],"right_children":[2,4,6,8,10,12,-1,14,16,-1,-1,18,-1,-1,20,-1,-1,-1,22,-1,-1,-1,-1],"split_conditions":[5E-1,5E-1,5E-1,5E-1,5E-1,5E-1,-5.0844785E-2,5E-1,5E-1,3.156186E-2,1.6881317E-5,5E-1,3.33657E-2,-1.1364516E-5,5E-1,-1.8098302E-2,-4.5508273E-2,1.8534034E-4,5E-1,-1.0844402E-3,-1.06748696E-4,-8.9729025E-7,-6.4163688E-3],"split_indices":[0,5,5,3,2,3,0,6,6,0,0,2,0,0,2,0,0,0,6,0,0,0,0],"split_type":[0,0,0,0,0,0,0,0,0,0,0,0,0,0,0,0,0,0,0,0,0,0,0],"sum_hessian":[8.578184E1,5.5773567E1,3.0008274E1,3.6464573E1,1.930899E1,2.7674807E1,2.333469E0,2.9466253E1,6.998321E0,3.637586E0,1.5671405E1,2.0350475E1,7.32433E0,2.3583048E1,5.8832054E0,5.7950153E0,1.2033056E0,6.5054636E0,1.3845012E1,1.3361365E0,4.547069E0,1.1106391E1,2.7386212E0],"tree_param":{"num_deleted":"0","num_feature":"8","num_nodes":"23","size_leaf_vector":"0"}},{"base_weights":[-4.7162123E-4,-3.8850368E-3,5.7766954E-3,-1.5860861E-2,1.8326702E-2,2.1749305E-2,-1.2875788E-1,-3.0020834E-4,-7.3400006E-2,4.1103043E-2,-7.828335E-2,-2.7583581E-3,8.232175E-2,-2.6925667E-5,-1.2327208E-3,-4.53667E-2,-1.252218E-1,4.5723032E-4,-4.1967942E-3,-2.9953178E-3,-2.6826092E-4,-2.1367573E-6,-1.6606169E-2],"categories":[],"categories_nodes":[],"categories_segments":[],"categories_sizes":[],"default_left":[1,1,1,1,1,1,0,1,1,0,0,1,0,0,1,0,0,0,1,0,0,0,0],"id":38,"left_children":[1,3,5,7,9,11,-1,13,15,-1,-1,17,-1,-1,19,-1,-1,-1,21,-1,-1,-1,-1],"loss_changes":[1.8754147E-3,1.5395296E-2,6.962142E-2,3.348936E-2,4.8007414E-2,4.275969E-2,0E0,7.730539E-6,5.887568E-3,0E0,0E0,1.0074464E-4,0E0,2.2880785E-8,1.0896119E-5,0E0,0E0,0E0,7.7349576E-4,0E0,0E0,0E0,0E0],"parents":[2147483647,0,0,1,1,2,2,3,3,4,4,5,5,7,7,8,8,11,11,14,14,18,18],"right_children":[2,4,6,8,10,12,-1,14,16,-1,-1,18,-1,-1,20,-1,-1,-1,22,-1,-1,-1,-1],"split_conditions":[5E-1,5E-1,5E-1,5E-1,5E-1,5E-1,-3.8627364E-2,5E-1,5E-1,1.2330913E-2,-2.3485005E-2,5E-1,2.4696525E-2,-8.077701E-6,5E-1,-1.3610011E-2,-3.7566543E-2,1.371691E-4,5E-1,-8.985954E-4,-8.0478276E-5,-6.410272E-7,-4.9818507E-3],"split_indices":[0,5,5,3,4,3,0,6,6,0,0,2,0,0,2,0,0,0,6,0,0,0,0],"split_type":[0,0,0,0,0,0,0,0,0,0,0,0,0,0,0,0,0,0,0,0,0,0,0],"sum_hessian":[8.587937E1,5.5783455E1,3.0095919E1,3.6428402E1,1.9355051E1,2.765135E1,2.4445684E0,2.9465178E1,6.963226E0,1.612746E1,3.2275894E0,2.0365793E1,7.285556E0,2.3582848E1,5.8823295E0,5.7358313E0,1.2273947E0,6.505359E0,1.3860435E1,1.3356571E0,4.5466723E0,1.1106389E1,2.754046E0],"tree_param":{"num_deleted":"0","num_feature":"8","num_nodes":"23","size_leaf_vector":"0"}},{"base_weights":[-1.2578348E-3,-3.4881644E-3,1.3940283E-2,4.2219684E-4,-1.0303643E-2,-2.9447103E-2,9.466083E-2,-1.0321803E-2,6.57583E-2,1.4157759E-2,-7.142425E-2,-1.0052369E-3,-1.0345272E-1,-1.909721E-5,-2.252385E-2,-2.4789765E-3,1.04985915E-1,-2.481881E-3,-2.0226445E-4,-6.0995087E-2,-1.1535254E-2,-6.168085E-3,-1.6025683E-6],"categories":[],"categories_nodes":[],"categories_segments":[],"categories_sizes":[],"default_left":[1,1,1,1,1,1,0,1,0,1,0,1,0,0,1,1,0,0,0,0,0,0,0],"id":39,"left_children":[1,3,5,7,9,11,-1,13,-1,15,-1,17,-1,-1,19,21,-1,-1,-1,-1,-1,-1,-1],"loss_changes":[2.9953336E-3,2.0459986E-3,4.244998E-2,3.5523634E-2,4.282638E-2,1.7005298E-2,0E0,5.4672556E-3,0E0,3.17041E-2,0E0,7.657586E-6,0E0,2.3721306E-8,7.7133896E-3,1.6965487E-4,0E0,0E0,0E0,0E0,0E0,0E0,0E0],"parents":[2147483647,0,0,1,1,2,2,3,3,4,4,5,5,7,7,9,9,11,11,14,14,15,15],"right_children":[2,4,6,8,10,12,-1,14,-1,16,-1,18,-1,-1,20,22,-1,-1,-1,-1,-1,-1,-1],"split_conditions":[5E-1,5E-1,5E-1,5E-1,5E-1,5E-1,2.8398251E-2,5E-1,1.972749E-2,5E-1,-2.1427277E-2,5E-1,-3.1035816E-2,-5.729163E-6,5E-1,5E-1,3.1495776E-2,-7.4456434E-4,-6.0679336E-5,-1.8298527E-2,-3.4605765E-3,-1.8504256E-3,-4.807705E-7],"split_indices":[6,0,0,3,3,3,0,5,0,5,0,2,0,0,2,2,0,0,0,0,0,0,0],"split_type":[0,0,0,0,0,0,0,0,0,0,0,0,0,0,0,0,0,0,0,0,0,0,0],"sum_hessian":[8.593171E1,7.5606865E1,1.0324848E1,4.8638638E1,2.6968224E1,7.1284795E0,3.1963687E0,4.249302E1,6.1456175E0,1.9808802E1,7.159422E0,5.881632E0,1.2468476E0,2.3582705E1,1.8910315E1,1.7564304E1,2.244497E0,1.3352597E0,4.5463724E0,3.190292E0,1.5720023E1,6.4579186E0,1.1106387E1],"tree_param":{"num_deleted":"0","num_feature":"8","num_nodes":"23","size_leaf_vector":"0"}},{"base_weights":[-8.2965824E-4,6.2862653E-3,-5.200884E-3,4.0633395E-2,-4.658559E-3,-1.0936015E-2,3.32109E-6,5.862192E-2,1.8848522E-2,-2.6340188E-2,1.5237047E-2,-6.5561906E-3,-2.5599228E-2,1.7812679E-2,7.324732E-2,-6.249443E-5,-5.043522E-2,-4.56519E-3,3.202402E-2,-1.5236613E-4,-8.28967E-3,-3.4118395E-2,-5.936218E-3],"categories":[],"categories_nodes":[],"categories_segments":[],"categories_sizes":[],"default_left":[1,1,1,1,1,1,0,1,0,1,1,1,1,0,0,0,0,0,0,0,0,0,0],"id":40,"left_children":[1,3,5,7,9,11,-1,13,-1,15,17,19,21,-1,-1,-1,-1,-1,-1,-1,-1,-1,-1],"loss_changes":[2.7341272E-3,1.2783167E-2,1.6221144E-3,2.1078456E-3,1.1747541E-2,1.4926265E-3,3.8217762E-10,1.0925755E-3,0E0,8.198135E-3,4.916363E-3,2.3466023E-4,7.359113E-4,0E0,0E0,0E0,0E0,0E0,0E0,0E0,0E0,0E0,0E0],"parents":[2147483647,0,0,1,1,2,2,3,3,4,4,5,5,7,7,9,9,10,10,11,11,12,12],"right_children":[2,4,6,8,10,12,-1,14,-1,16,18,20,22,-1,-1,-1,-1,-1,-1,-1,-1,-1,-1],"split_conditions":[5E-1,5E-1,5E-1,5E-1,5E-1,5E-1,9.96327E-7,5E-1,5.6545567E-3,5E-1,5E-1,5E-1,5E-1,5.3438037E-3,2.1974197E-2,-1.874833E-5,-1.5130566E-2,-1.3695571E-3,9.607206E-3,-4.5709843E-5,-2.486901E-3,-1.0235519E-2,-1.7808655E-3],"split_indices":[2,7,7,5,0,0,0,3,0,3,3,5,5,0,0,0,0,0,0,0,0,0,0],"split_type":[0,0,0,0,0,0,0,0,0,0,0,0,0,0,0,0,0,0,0,0,0,0,0],"sum_hessian":[8.5847984E1,3.250118E1,5.3346806E1,7.198433E0,2.5302744E1,2.4854881E1,2.8491924E1,3.016587E0,4.181846E0,1.1952908E1,1.3349836E1,2.0252644E1,4.6022396E0,1.3810297E0,1.6355573E0,6.1970677E0,5.75584E0,6.4588747E0,6.890962E0,4.5461464E0,1.5706496E1,2.6981056E0,1.9041337E0],"tree_param":{"num_deleted":"0","num_feature":"8","num_nodes":"23","size_leaf_vector":"0"}},{"base_weights":[-4.4890612E-4,5.184453E-3,-3.9050302E-3,-6.246275E-4,4.8084345E-2,-8.208164E-3,2.3898901E-6,1.3101356E-2,-1.5796266E-2,1.469775E-2,6.0114305E-2,-4.711273E-3,-1.9945087E-2,-1.971201E-2,1.0189386E-1,3.3800144E-2,-6.079308E-2,-1.14929666E-4,-5.955825E-3,-2.6444146E-2,-4.7632772E-3,-4.621714E-5,-3.7877228E-2],"categories":[],"categories_nodes":[],"categories_segments":[],"categories_sizes":[],"default_left":[1,1,1,1,1,1,0,1,1,0,0,1,1,1,0,0,0,0,0,0,0,0,0],"id":41,"left_children":[1,3,5,7,9,11,-1,13,15,-1,-1,17,19,21,-1,-1,-1,-1,-1,-1,-1,-1,-1],"loss_changes":[1.7101493E-3,8.361778E-3,9.1410946E-4,6.544435E-3,7.2303135E-4,9.67907E-4,3.9176357E-10,5.0153166E-2,3.5325833E-2,0E0,0E0,1.2083203E-4,4.2950665E-4,4.6077487E-3,0E0,0E0,0E0,0E0,0E0,0E0,0E0,0E0,0E0],"parents":[2147483647,0,0,1,1,2,2,3,3,4,4,5,5,7,7,8,8,11,11,12,12,13,13],"right_children":[2,4,6,8,10,12,-1,14,16,-1,-1,18,20,22,-1,-1,-1,-1,-1,-1,-1,-1,-1],"split_conditions":[5E-1,5E-1,5E-1,5E-1,5E-1,5E-1,7.1696707E-7,5E-1,5E-1,4.4093253E-3,1.8034292E-2,5E-1,5E-1,5E-1,3.0568158E-2,1.0140044E-2,-1.8237924E-2,-3.44789E-5,-1.7867476E-3,-7.933244E-3,-1.4289832E-3,-1.3865143E-5,-1.1363169E-2],"split_indices":[2,6,7,0,3,0,0,5,3,0,0,5,5,3,0,0,0,0,0,0,0,0,0],"split_type":[0,0,0,0,0,0,0,0,0,0,0,0,0,0,0,0,0,0,0,0,0,0,0],"sum_hessian":[8.57971E1,3.2432766E1,5.336433E1,2.9432718E1,3.0000486E0,2.4872393E1,2.8491938E1,1.5524214E1,1.3908505E1,1.3831557E0,1.6168928E0,2.0242702E1,4.62969E0,1.1903326E1,3.6208882E0,6.7344685E0,7.174037E0,4.545976E0,1.5696727E1,2.7224343E0,1.9072559E0,6.196977E0,5.7063484E0],"tree_param":{"num_deleted":"0","num_feature":"8","num_nodes":"23","size_leaf_vector":"0"}},{"base_weights":[-6.1882136E-5,-3.4890678E-3,1.5429974E-2,-8.160149E-3,6.4612045E-3,8.191639E-3,4.931308E-2,-2.8168203E-2,-1.859104E-3,-5.6541194E-3,8.570847E-2,6.7896105E-2,-4.4652898E-2,-2.1191058E-3,-7.419822E-2,-1.7216187E-5,-4.2784414E-3,-3.426046E-5,-7.6274793E-3],"categories":[],"categories_nodes":[],"categories_segments":[],"categories_sizes":[],"default_left":[1,1,1,1,1,1,0,1,1,0,0,0,0,1,0,0,0,0,0],"id":42,"left_children":[1,3,5,7,9,11,-1,13,15,-1,-1,-1,-1,17,-1,-1,-1,-1,-1],"loss_changes":[4.6632634E-3,3.3948023E-3,3.4984234E-3,6.172546E-3,2.307576E-2,4.817996E-2,0E0,1.39373895E-2,1.7202762E-4,0E0,0E0,0E0,0E0,9.7768614E-5,0E0,3.515016E-8,0E0,0E0,0E0],"parents":[2147483647,0,0,1,1,2,2,3,3,4,4,5,5,7,7,8,8,13,13],"right_children":[2,4,6,8,10,12,-1,14,16,-1,-1,-1,-1,18,-1,-1,-1,-1,-1],"split_conditions":[5E-1,5E-1,5E-1,5E-1,5E-1,5E-1,1.4793924E-2,5E-1,5E-1,-1.6962358E-3,2.5712542E-2,2.0368833E-2,-1.339587E-2,5E-1,-2.2259468E-2,-5.1648562E-6,-1.2835325E-3,-1.0278139E-5,-2.288244E-3],"split_indices":[3,0,6,2,5,0,0,5,5,0,0,0,0,6,0,0,0,0,0],"split_type":[0,0,0,0,0,0,0,0,0,0,0,0,0,0,0,0,0,0,0],"sum_hessian":[8.581722E1,7.090585E1,1.4911366E1,4.8376007E1,2.2529846E1,1.33098E1,1.6015664E0,1.0754919E1,3.7621086E1,2.0347736E1,2.1821103E0,6.115546E0,7.194254E0,7.536139E0,3.2187793E0,2.1931404E1,1.5689683E1,6.1969113E0,1.3392279E0],"tree_param":{"num_deleted":"0","num_feature":"8","num_nodes":"19","size_leaf_vector":"0"}},{"base_weights":[1.8412144E-4,-2.467279E-3,1.2090473E-2,-6.248848E-3,5.583549E-3,6.1492743E-3,4.0437106E-2,-2.190845E-2,-1.3349332E-3,-4.037235E-3,6.939786E-2,4.9852967E-2,-3.28235E-2,-1.7530137E-3,-5.7793282E-2,-1.2292588E-5,-3.0727598E-3,-3.283197E-3,-6.6631655E-3,-2.5448615E-5,-6.3205985E-3,-1.0694497E-2,1.553669E-3],"categories":[],"categories_nodes":[],"categories_segments":[],"categories_sizes":[],"default_left":[1,1,1,1,1,1,0,1,1,1,0,0,0,1,0,0,0,1,0,0,0,0,0],"id":43,"left_children":[1,3,5,7,9,11,-1,13,15,17,-1,-1,-1,19,-1,-1,-1,21,-1,-1,-1,-1,-1],"loss_changes":[2.7696744E-3,2.221245E-3,2.4420088E-3,3.7670336E-3,1.4695213E-2,2.614211E-2,0E0,8.374356E-3,8.8721725E-5,2.0394422E-5,0E0,0E0,0E0,6.718781E-5,0E0,3.5741795E-8,0E0,6.8184204E-4,0E0,0E0,0E0,0E0,0E0],"parents":[2147483647,0,0,1,1,2,2,3,3,4,4,5,5,7,7,8,8,9,9,13,13,17,17],"right_children":[2,4,6,8,10,12,-1,14,16,18,-1,-1,-1,20,-1,-1,-1,22,-1,-1,-1,-1,-1],"split_conditions":[5E-1,5E-1,5E-1,5E-1,5E-1,5E-1,1.2131132E-2,5E-1,5E-1,5E-1,2.0819359E-2,1.495589E-2,-9.8470505E-3,5E-1,-1.7337985E-2,-3.6877764E-6,-9.21828E-4,5E-1,-1.9989498E-3,-7.634585E-6,-1.8961796E-3,-3.2083492E-3,4.6610073E-4],"split_indices":[3,0,6,2,5,0,0,5,5,6,0,0,0,6,0,0,0,2,0,0,0,0,0],"split_type":[0,0,0,0,0,0,0,0,0,0,0,0,0,0,0,0,0,0,0,0,0,0,0],"sum_hessian":[8.579041E1,7.081381E1,1.4976603E1,4.83344E1,2.2479414E1,1.3387611E1,1.5889914E0,1.0718468E1,3.7615932E1,2.0348383E1,2.1310315E0,6.179172E0,7.208439E0,7.5350857E0,3.1833818E0,2.193132E1,1.5684611E1,1.7557137E1,2.7912462E0,6.196862E0,1.3382233E0,6.4551606E0,1.1101975E1],"tree_param":{"num_deleted":"0","num_feature":"8","num_nodes":"23","size_leaf_vector":"0"}},{"base_weights":[2.7986369E-4,-4.368537E-3,8.777068E-3,-1.8174142E-2,2.1363176E-2,2.690252E-2,-1.467487E-1,-4.1291252E-4,-8.343448E-2,1.02247685E-1,-2.2069493E-3,-3.0467852E-3,1.01015575E-1,4.1826083E-6,-1.8425132E-3,-5.7731226E-2,-1.2425311E-1,-2.4454806E-3,-5.184079E-3,-5.2376543E-3,-7.933132E-5,-7.914268E-3,1.1259329E-3],"categories":[],"categories_nodes":[],"categories_segments":[],"categories_sizes":[],"default_left":[1,1,1,1,1,1,0,1,1,0,0,1,0,0,1,0,0,1,0,0,0,0,0],"id":44,"left_children":[1,3,5,7,9,11,-1,13,15,-1,-1,17,-1,-1,19,-1,-1,21,-1,-1,-1,-1,-1],"loss_changes":[3.4656907E-3,2.0550441E-2,9.138006E-2,4.340697E-2,3.8884334E-2,6.3841045E-2,0E0,1.8173641E-5,1.2337118E-3,0E0,0E0,1.4768681E-5,0E0,5.209081E-9,4.078908E-5,0E0,0E0,3.7141296E-4,0E0,0E0,0E0,0E0,0E0],"parents":[2147483647,0,0,1,1,2,2,3,3,4,4,5,5,7,7,8,8,11,11,14,14,17,17],"right_children":[2,4,6,8,10,12,-1,14,16,-1,-1,18,-1,-1,20,-1,-1,22,-1,-1,-1,-1,-1],"split_conditions":[5E-1,5E-1,5E-1,5E-1,5E-1,5E-1,-4.4024613E-2,5E-1,5E-1,3.0674307E-2,-6.620848E-4,5E-1,3.0304674E-2,1.2547825E-6,5E-1,-1.7319368E-2,-3.7275933E-2,5E-1,-1.5552238E-3,-1.5712964E-3,-2.3799397E-5,-2.3742807E-3,3.3777987E-4],"split_indices":[0,5,5,3,2,3,0,6,6,0,0,6,0,0,2,0,0,2,0,0,0,0,0],"split_type":[0,0,0,0,0,0,0,0,0,0,0,0,0,0,0,0,0,0,0,0,0,0,0],"sum_hessian":[8.57718E1,5.575621E1,3.0015585E1,3.647846E1,1.9277752E1,2.7623302E1,2.3922822E0,2.9465475E1,7.0129848E0,3.596791E0,1.5680961E1,2.0356194E1,7.2671084E0,2.3582272E1,5.8832035E0,5.7847176E0,1.2282676E0,1.7560055E1,2.7961392E0,1.3373891E0,4.545814E0,6.456865E0,1.110319E1],"tree_param":{"num_deleted":"0","num_feature":"8","num_nodes":"23","size_leaf_vector":"0"}},{"base_weights":[-2.8380318E-4,-3.5332604E-3,5.6586387E-3,-1.42391E-2,1.6367149E-2,1.9802557E-2,-1.118448E-1,-3.413892E-4,-6.553921E-2,3.604716E-2,-6.763236E-2,-2.3001712E-3,7.474762E-2,2.9672244E-6,-1.5217413E-3,-4.3399144E-2,-1.0265552E-1,4.428246E-4,-3.5306963E-3,-4.340098E-3,-5.9825237E-5,8.1585854E-4,-1.6604654E-2],"categories":[],"categories_nodes":[],"categories_segments":[],"categories_sizes":[],"default_left":[1,1,1,1,1,1,0,1,1,0,0,1,0,0,1,0,0,0,1,0,0,0,0],"id":45,"left_children":[1,3,5,7,9,11,-1,13,15,-1,-1,17,-1,-1,19,-1,-1,-1,21,-1,-1,-1,-1],"loss_changes":[1.6969435E-3,1.2325741E-2,5.387716E-2,2.6670877E-2,3.6028124E-2,3.489879E-2,0E0,1.238726E-5,2.0988695E-3,0E0,0E0,7.36676E-5,0E0,5.1710662E-9,2.8097316E-5,0E0,0E0,0E0,8.578846E-4,0E0,0E0,0E0,0E0],"parents":[2147483647,0,0,1,1,2,2,3,3,4,4,5,5,7,7,8,8,11,11,14,14,18,18],"right_children":[2,4,6,8,10,12,-1,14,16,-1,-1,18,-1,-1,20,-1,-1,-1,22,-1,-1,-1,-1],"split_conditions":[5E-1,5E-1,5E-1,5E-1,5E-1,5E-1,-3.355344E-2,5E-1,5E-1,1.0814149E-2,-2.028971E-2,5E-1,2.2424288E-2,8.9016737E-7,5E-1,-1.3019743E-2,-3.0796658E-2,1.3284739E-4,5E-1,-1.3020294E-3,-1.7947572E-5,2.4475757E-4,-4.9813967E-3],"split_indices":[0,5,5,3,4,3,0,6,6,0,0,2,0,0,2,0,0,0,6,0,0,0,0],"split_type":[0,0,0,0,0,0,0,0,0,0,0,0,0,0,0,0,0,0,0,0,0,0,0],"sum_hessian":[8.584491E1,5.5759705E1,3.0085207E1,3.6440346E1,1.931936E1,2.7595057E1,2.4901514E0,2.9464716E1,6.9756293E0,1.6114746E1,3.2046142E0,2.0362127E1,7.2329283E0,2.3582294E1,5.8824224E0,5.728076E0,1.2475531E0,6.5040073E0,1.385812E1,1.3366966E0,4.545726E0,1.110407E1,2.754051E0],"tree_param":{"num_deleted":"0","num_feature":"8","num_nodes":"23","size_leaf_vector":"0"}},{"base_weights":[-9.963166E-4,-2.9842653E-3,1.2578763E-2,1.03545426E-4,-8.34662E-3,-2.4642779E-2,8.267589E-2,-9.56478E-3,5.9123117E-2,1.4613121E-2,-6.563114E-2,-1.2571897E-3,-8.486452E-2,2.1404012E-6,-2.0905988E-2,-2.013978E-3,1.05216235E-1,-3.5963503E-3,-4.5114655E-5,-5.2650932E-2,-1.1734513E-2,-5.9724557E-3,5.9132645E-4],"categories":[],"categories_nodes":[],"categories_segments":[],"categories_sizes":[],"default_left":[1,1,1,1,1,1,0,1,0,1,0,1,0,0,1,1,0,0,0,0,0,0,0],"id":46,"left_children":[1,3,5,7,9,11,-1,13,-1,15,-1,17,-1,-1,19,21,-1,-1,-1,-1,-1,-1,-1],"loss_changes":[2.3823548E-3,1.2691664E-3,3.1495564E-2,2.8865783E-2,3.7788615E-2,1.1364006E-2,0E0,4.7171474E-3,0E0,3.1558484E-2,0E0,1.9349241E-5,0E0,5.196153E-9,5.174013E-3,1.9496997E-4,0E0,0E0,0E0,0E0,0E0,0E0,0E0],"parents":[2147483647,0,0,1,1,2,2,3,3,4,4,5,5,7,7,9,9,11,11,14,14,15,15],"right_children":[2,4,6,8,10,12,-1,14,-1,16,-1,18,-1,-1,20,22,-1,-1,-1,-1,-1,-1,-1],"split_conditions":[5E-1,5E-1,5E-1,5E-1,5E-1,5E-1,2.4802769E-2,5E-1,1.7736936E-2,5E-1,-1.9689342E-2,5E-1,-2.5459357E-2,6.4212037E-7,5E-1,5E-1,3.1564873E-2,-1.0789052E-3,-1.3534397E-5,-1.5795281E-2,-3.520354E-3,-1.7917368E-3,1.7739795E-4],"split_indices":[6,0,0,3,3,3,0,5,0,5,0,2,0,0,2,2,0,0,0,0,0,0,0],"split_type":[0,0,0,0,0,0,0,0,0,0,0,0,0,0,0,0,0,0,0,0,0,0,0],"sum_hessian":[8.58883E1,7.559784E1,1.029046E1,4.8595642E1,2.7002195E1,7.1449456E0,3.1455145E0,4.247544E1,6.1202E0,1.980801E1,7.194185E0,5.881781E0,1.2631645E0,2.3582308E1,1.8893135E1,1.7562742E1,2.2452683E0,1.336122E0,4.545659E0,3.1722832E0,1.5720851E1,6.458036E0,1.1104706E1],"tree_param":{"num_deleted":"0","num_feature":"8","num_nodes":"23","size_leaf_vector":"0"}},{"base_weights":[-6.002624E-4,6.3423095E-3,-4.861328E-3,3.917126E-2,-4.089343E-3,-1.0423471E-2,1.8243844E-4,5.4069992E-2,2.0149287E-2,-2.4667237E-2,1.4753499E-2,-6.6380305E-3,-2.2893857E-2,1.0373401E-5,4.2870184E-4,1.6347986E-2,6.7801796E-2,-2.140705E-5,-4.731196E-2,-4.420324E-3,3.1010024E-2,-3.401767E-5,-8.432792E-3,-3.141653E-2,-4.163353E-3],"categories":[],"categories_nodes":[],"categories_segments":[],"categories_sizes":[],"default_left":[1,1,1,1,1,1,1,1,0,1,1,1,1,0,0,0,0,0,0,0,0,0,0,0,0],"id":47,"left_children":[1,3,5,7,9,11,13,15,-1,17,19,21,23,-1,-1,-1,-1,-1,-1,-1,-1,-1,-1,-1,-1],"loss_changes":[2.5988673E-3,1.1615372E-2,1.5268929E-3,1.2232177E-3,1.0557484E-2,1.0691613E-3,1.2451695E-6,9.543076E-4,0E0,7.2209695E-3,4.609628E-3,2.5161338E-4,7.656254E-4,0E0,0E0,0E0,0E0,0E0,0E0,0E0,0E0,0E0,0E0,0E0,0E0],"parents":[2147483647,0,0,1,1,2,2,3,3,4,4,5,5,6,6,7,7,9,9,10,10,11,11,12,12],"right_children":[2,4,6,8,10,12,14,16,-1,18,20,22,24,-1,-1,-1,-1,-1,-1,-1,-1,-1,-1,-1,-1],"split_conditions":[5E-1,5E-1,5E-1,5E-1,5E-1,5E-1,5E-1,5E-1,6.0447864E-3,5E-1,5E-1,5E-1,5E-1,3.1120205E-6,1.2861055E-4,4.904396E-3,2.034054E-2,-6.4221153E-6,-1.4193589E-2,-1.3260973E-3,9.303007E-3,-1.0205302E-5,-2.5298377E-3,-9.42496E-3,-1.2490059E-3],"split_indices":[2,7,7,5,0,0,0,3,0,3,3,5,5,0,0,0,0,0,0,0,0,0,0,0,0],"split_type":[0,0,0,0,0,0,0,0,0,0,0,0,0,0,0,0,0,0,0,0,0,0,0,0,0],"sum_hessian":[8.580853E1,3.2449688E1,5.3358845E1,7.1604238E0,2.5289263E1,2.4868196E1,2.849065E1,2.9821718E0,4.1782517E0,1.1940346E1,1.3348918E1,2.0252703E1,4.615494E0,1.738548E1,1.1105169E1,1.3804691E0,1.6017028E0,6.1968393E0,5.743506E0,6.4589605E0,6.8899574E0,4.545609E0,1.5707093E1,2.7066383E0,1.9088553E0],"tree_param":{"num_deleted":"0","num_feature":"8","num_nodes":"25","size_leaf_vector":"0"}},{"base_weights":[-2.8297488E-4,5.194306E-3,-3.6409649E-3,3.130527E-2,-3.1167462E-3,-7.7993753E-3,1.3213471E-4,4.438844E-2,1.525205E-2,-1.8456204E-2,1.0891768E-2,-4.769043E-3,-1.7829817E-2,1.3490776E-2,5.569134E-2,-1.5849857E-5,-3.551671E-2,-3.2714948E-3,2.2914568E-2,-2.5607476E-5,-6.0588443E-3,-2.435882E-2,-3.3412017E-3],"categories":[],"categories_nodes":[],"categories_segments":[],"categories_sizes":[],"default_left":[1,1,1,1,1,1,0,1,0,1,1,1,1,0,0,0,0,0,0,0,0,0,0],"id":48,"left_children":[1,3,5,7,9,11,-1,13,-1,15,17,19,21,-1,-1,-1,-1,-1,-1,-1,-1,-1,-1],"loss_changes":[1.6146755E-3,7.34287E-3,8.541622E-4,1.0350617E-3,5.8385413E-3,7.0169347E-4,6.544583E-7,6.343862E-4,0E0,4.055876E-3,2.5170513E-3,1.2980969E-4,4.5214838E-4,0E0,0E0,0E0,0E0,0E0,0E0,0E0,0E0,0E0,0E0],"parents":[2147483647,0,0,1,1,2,2,3,3,4,4,5,5,7,7,9,9,10,10,11,11,12,12],"right_children":[2,4,6,8,10,12,-1,14,-1,16,18,20,22,-1,-1,-1,-1,-1,-1,-1,-1,-1,-1],"split_conditions":[5E-1,5E-1,5E-1,5E-1,5E-1,5E-1,3.9640414E-5,5E-1,4.5756153E-3,5E-1,5E-1,5E-1,5E-1,4.0472327E-3,1.6707402E-2,-4.7549574E-6,-1.0655013E-2,-9.814485E-4,6.874371E-3,-7.682243E-6,-1.8176533E-3,-7.3076463E-3,-1.0023606E-3],"split_indices":[2,7,7,5,0,0,0,3,0,3,3,5,5,0,0,0,0,0,0,0,0,0,0],"split_type":[0,0,0,0,0,0,0,0,0,0,0,0,0,0,0,0,0,0,0,0,0,0,0],"sum_hessian":[8.5760895E1,3.2387E1,5.3373894E1,7.151697E0,2.5235302E1,2.4882872E1,2.8491024E1,2.9678538E0,4.183843E0,1.1893886E1,1.3341417E1,2.0242727E1,4.640145E0,1.3824228E0,1.5854309E0,6.1968093E0,5.6970763E0,6.459638E0,6.8817787E0,4.5455704E0,1.5697157E1,2.7290947E0,1.9110498E0],"tree_param":{"num_deleted":"0","num_feature":"8","num_nodes":"23","size_leaf_vector":"0"}},{"base_weights":[-7.760266E-5,4.256081E-3,-2.7327118E-3,2.5056357E-2,-2.373373E-3,-5.846298E-3,9.381552E-5,3.6438234E-2,1.1547703E-2,-1.3797773E-2,8.039783E-3,-3.4257735E-3,-1.3895667E-2,1.1133489E-2,4.5726176E-2,-1.1752329E-5,-2.661892E-2,-2.4214382E-3,1.6928345E-2,-1.930647E-5,-4.3523726E-3,-1.8905444E-2,-2.6812963E-3],"categories":[],"categories_nodes":[],"categories_segments":[],"categories_sizes":[],"default_left":[1,1,1,1,1,1,0,1,0,1,1,1,1,0,0,0,0,0,0,0,0,0,0],"id":49,"left_children":[1,3,5,7,9,11,-1,13,-1,15,17,19,21,-1,-1,-1,-1,-1,-1,-1,-1,-1,-1],"loss_changes":[1.0095284E-3,4.6567093E-3,4.7918514E-4,8.3141495E-4,3.227158E-3,4.5692618E-4,6.675331E-7,4.2069936E-4,0E0,2.272549E-3,1.3739981E-3,6.694443E-5,2.6726397E-4,0E0,0E0,0E0,0E0,0E0,0E0,0E0,0E0,0E0,0E0],"parents":[2147483647,0,0,1,1,2,2,3,3,4,4,5,5,7,7,9,9,10,10,11,11,12,12],"right_children":[2,4,6,8,10,12,-1,14,-1,16,18,20,22,-1,-1,-1,-1,-1,-1,-1,-1,-1,-1],"split_conditions":[5E-1,5E-1,5E-1,5E-1,5E-1,5E-1,2.8144657E-5,5E-1,3.4643111E-3,5E-1,5E-1,5E-1,5E-1,3.3400469E-3,1.3717853E-2,-3.5256987E-6,-7.985677E-3,-7.264315E-4,5.078504E-3,-5.791941E-6,-1.3057118E-3,-5.6716334E-3,-8.0438895E-4],"split_indices":[2,7,7,5,0,0,0,3,0,3,3,5,5,0,0,0,0,0,0,0,0,0,0],"split_type":[0,0,0,0,0,0,0,0,0,0,0,0,0,0,0,0,0,0,0,0,0,0,0],"sum_hessian":[8.572543E1,3.2338837E1,5.33866E1,7.144143E0,2.5194693E1,2.4894964E1,2.8491634E1,2.9560704E0,4.188073E0,1.1859003E1,1.33356905E1,2.0235537E1,4.659428E0,1.3840276E0,1.5720428E0,6.196786E0,5.662217E0,6.4601364E0,6.8755536E0,4.5455422E0,1.5689995E1,2.746615E0,1.9128134E0],"tree_param":{"num_deleted":"0","num_feature":"8","num_nodes":"23","size_leaf_vector":"0"}},{"base_weights":[5.1130242E-5,3.4888876E-3,-2.0544091E-3,-6.0972274E-5,2.9910259E-2,-4.3898784E-3,6.665086E-5,1.6940411E-2,-1.8776966E-2,9.188476E-3,3.753154E-2,-2.4605896E-3,-1.08344145E-2,-2.0673938E-2,6.972777E-2,3.4483876E-2,-6.672391E-2,-1.4577314E-5,-3.1260934E-3,-1.4682593E-2,-2.1512827E-3,-8.607213E-6,-5.1384605E-2],"categories":[],"categories_nodes":[],"categories_segments":[],"categories_sizes":[],"default_left":[1,1,1,1,1,1,0,1,1,0,0,1,1,1,0,0,0,0,0,0,0,0,0],"id":50,"left_children":[1,3,5,7,9,11,-1,13,15,-1,-1,17,19,21,-1,-1,-1,-1,-1,-1,-1,-1,-1],"loss_changes":[6.347225E-4,3.1252785E-3,2.6975718E-4,9.977141E-3,2.7838093E-4,2.9542582E-4,6.755405E-7,3.406843E-2,4.0410787E-2,0E0,0E0,3.4513854E-5,1.5802326E-4,6.5785022E-3,0E0,0E0,0E0,0E0,0E0,0E0,0E0,0E0,0E0],"parents":[2147483647,0,0,1,1,2,2,3,3,4,4,5,5,7,7,8,8,11,11,12,12,13,13],"right_children":[2,4,6,8,10,12,-1,14,16,-1,-1,18,20,22,-1,-1,-1,-1,-1,-1,-1,-1,-1],"split_conditions":[5E-1,5E-1,5E-1,5E-1,5E-1,5E-1,1.9995257E-5,5E-1,5E-1,2.756543E-3,1.1259463E-2,5E-1,5E-1,5E-1,2.0918332E-2,1.0345163E-2,-2.0017175E-2,-4.3731943E-6,-9.3782804E-4,-4.404778E-3,-6.4538483E-4,-2.5821641E-6,-1.5415383E-2],"split_indices":[2,6,7,0,3,0,0,3,3,0,0,5,5,5,0,0,0,0,0,0,0,0,0],"split_type":[0,0,0,0,0,0,0,0,0,0,0,0,0,0,0,0,0,0,0,0,0,0,0],"sum_hessian":[8.5698814E1,3.2301876E1,5.3396942E1,2.9355494E1,2.9463832E0,2.4904871E1,2.8492071E1,1.5432063E1,1.392343E1,1.3853467E0,1.5610366E0,2.0230356E1,4.674515E0,9.36632E0,6.0657434E0,6.7292156E0,7.1942143E0,4.545521E0,1.5684835E1,2.7602832E0,1.9142315E0,6.196769E0,3.1695502E0],"tree_param":{"num_deleted":"0","num_feature":"8","num_nodes":"23","size_leaf_vector":"0"}},{"base_weights":[7.434896E-5,-1.8428246E-3,3.5675268E-3,-1.3825744E-2,2.0389127E-2,1.6709331E-2,-1.0441871E-1,-9.3887444E-4,-6.1485358E-2,9.852566E-2,-2.2449035E-3,-3.5187432E-3,6.742566E-2,-5.849078E-5,-3.944783E-3,-3.7413802E-2,-1.0599361E-1,-4.1696746E-3,5.7040574E-4,-1.157399E-2,-1.10976E-5,-1.0754834E-2,2.3012995E-4],"categories":[],"categories_nodes":[],"categories_segments":[],"categories_sizes":[],"default_left":[1,1,1,1,1,1,0,1,1,0,0,1,0,0,1,0,0,1,0,0,0,0,0],"id":51,"left_children":[1,3,5,7,9,11,-1,13,15,-1,-1,17,-1,-1,19,-1,-1,21,-1,-1,-1,-1,-1],"loss_changes":[5.875752E-4,1.5379665E-2,4.585501E-2,2.292518E-2,3.603819E-2,2.954935E-2,0E0,8.04067E-5,4.550932E-3,0E0,0E0,5.9276033E-5,0E0,2.1588463E-8,2.0657919E-4,0E0,0E0,5.402464E-4,0E0,0E0,0E0,0E0,0E0],"parents":[2147483647,0,0,1,1,2,2,3,3,4,4,5,5,7,7,8,8,11,11,14,14,17,17],"right_children":[2,4,6,8,10,12,-1,14,16,-1,-1,18,-1,-1,20,-1,-1,22,-1,-1,-1,-1,-1],"split_conditions":[5E-1,5E-1,5E-1,5E-1,5E-1,5E-1,-3.1325616E-2,5E-1,5E-1,2.95577E-2,-6.734711E-4,5E-1,2.0227699E-2,-1.7547234E-5,5E-1,-1.1224141E-2,-3.1798087E-2,5E-1,1.7112173E-4,-3.472197E-3,-3.3292802E-6,-3.2264504E-3,6.9038986E-5],"split_indices":[0,5,5,3,2,3,0,6,6,0,0,6,0,0,2,0,0,2,0,0,0,0,0],"split_type":[0,0,0,0,0,0,0,0,0,0,0,0,0,0,0,0,0,0,0,0,0,0,0],"sum_hessian":[8.5755035E1,5.5672527E1,3.0082508E1,3.642028E1,1.9252249E1,2.7572258E1,2.510249E0,2.9471157E1,6.9491224E0,3.571126E0,1.5681124E1,2.0375973E1,7.196285E0,2.3583405E1,5.887752E0,5.704527E0,1.2445953E0,1.7560854E1,2.8151188E0,1.3422472E0,4.545505E0,6.4551234E0,1.1105731E1],"tree_param":{"num_deleted":"0","num_feature":"8","num_nodes":"23","size_leaf_vector":"0"}},{"base_weights":[-3.0414003E-4,-1.5396423E-3,8.120812E-3,2.6091118E-3,-8.821272E-3,-2.7074616E-2,7.580703E-2,-6.6080773E-3,5.8738593E-2,1.3653544E-2,-6.472291E-2,-3.2670451E-3,-8.761586E-2,-2.4947261E-2,-8.21181E-4,-3.0884715E-3,1.05210155E-1,-9.591458E-3,-8.397114E-6,8.849585E-6,-6.1838843E-2,-5.9065947E-5,-1.6121049E-3,-7.95898E-3,1.6672042E-4],"categories":[],"categories_nodes":[],"categories_segments":[],"categories_sizes":[],"default_left":[1,1,1,1,1,1,0,1,0,1,0,1,0,1,1,1,0,0,0,0,0,0,0,0,0],"id":52,"left_children":[1,3,5,7,9,11,-1,13,-1,15,-1,17,-1,19,21,23,-1,-1,-1,-1,-1,-1,-1,-1,-1],"loss_changes":[9.1623754E-4,2.3358313E-3,2.8884353E-2,2.6019432E-2,3.6082283E-2,1.1456342E-2,0E0,4.5911185E-3,0E0,3.2220323E-2,0E0,1.4183794E-4,0E0,9.565193E-3,2.0438236E-5,2.956289E-4,0E0,0E0,0E0,0E0,0E0,0E0,0E0,0E0,0E0],"parents":[2147483647,0,0,1,1,2,2,3,3,4,4,5,5,7,7,9,9,11,11,13,13,14,14,15,15],"right_children":[2,4,6,8,10,12,-1,14,-1,16,-1,18,-1,20,22,24,-1,-1,-1,-1,-1,-1,-1,-1,-1],"split_conditions":[5E-1,5E-1,5E-1,5E-1,5E-1,5E-1,2.274211E-2,5E-1,1.7621579E-2,5E-1,-1.9416874E-2,5E-1,-2.628476E-2,5E-1,5E-1,5E-1,3.1563047E-2,-2.8774375E-3,-2.5191341E-6,2.6548757E-6,-1.8551653E-2,-1.7719785E-5,-4.836315E-4,-2.387694E-3,5.001613E-5],"split_indices":[6,0,0,3,3,3,0,2,0,5,0,2,0,5,5,2,0,0,0,0,0,0,0,0,0],"split_type":[0,0,0,0,0,0,0,0,0,0,0,0,0,0,0,0,0,0,0,0,0,0,0,0,0],"sum_hessian":[8.5822014E1,7.555873E1,1.0263284E1,4.854283E1,2.7015896E1,7.146993E0,3.1162903E0,4.2453663E1,6.0891714E0,1.9808E1,7.2078943E0,5.8862257E0,1.2607677E0,9.388784E0,3.3064877E1,1.7562748E1,2.245252E0,1.340733E0,4.5454926E0,6.196672E0,3.192113E0,1.7386423E1,1.5678453E1,6.4568377E0,1.1105911E1],"tree_param":{"num_deleted":"0","num_feature":"8","num_nodes":"25","size_leaf_vector":"0"}},{"base_weights":[-1.7485901E-4,3.4381482E-3,-2.3928129E-3,-1.626378E-3,4.1602608E-2,-5.12167E-4,-1.2821452E-2,6.567346E-3,-1.055953E-2,1.0748289E-2,5.4025017E-2,2.320949E-5,-1.3339026E-3,-6.2340278E-6,-2.8496012E-2,-2.2237575E-2,8.63887E-2,3.0183591E-2,-4.7512077E-2,6.5491777E-6,-4.2733792E-2],"categories":[],"categories_nodes":[],"categories_segments":[],"categories_sizes":[],"default_left":[1,1,1,1,1,1,1,1,1,0,0,0,0,0,0,1,0,0,0,0,0],"id":53,"left_children":[1,3,5,7,9,11,13,15,17,-1,-1,-1,-1,-1,-1,19,-1,-1,-1,-1,-1],"loss_changes":[7.034357E-4,6.525269E-3,1.0592807E-3,2.298746E-3,9.339787E-4,2.0744876E-5,1.6593104E-3,3.986566E-2,2.394972E-2,0E0,0E0,1.9408078E-7,0E0,0E0,0E0,5.891748E-3,0E0,0E0,0E0,0E0,0E0],"parents":[2147483647,0,0,1,1,2,2,3,3,4,4,5,5,6,6,7,7,8,8,15,15],"right_children":[2,4,6,8,10,12,14,16,18,-1,-1,-1,-1,-1,-1,20,-1,-1,-1,-1,-1],"split_conditions":[5E-1,5E-1,5E-1,5E-1,5E-1,5E-1,5E-1,5E-1,5E-1,3.2244867E-3,1.6207505E-2,6.9628472E-6,-4.001708E-4,-1.8702084E-6,-8.548804E-3,5E-1,2.5916612E-2,9.055078E-3,-1.4253624E-2,1.9647534E-6,-1.2820139E-2],"split_indices":[2,6,6,0,3,5,0,5,3,0,0,0,0,0,0,3,0,0,0,0,0],"split_type":[0,0,0,0,0,0,0,0,0,0,0,0,0,0,0,0,0,0,0,0,0],"sum_hessian":[8.575489E1,3.2409786E1,5.3345104E1,2.9458014E1,2.9517725E0,4.6083717E1,7.261384E0,1.5503044E1,1.3954969E1,1.3827021E0,1.5690703E0,2.8492237E1,1.7591482E1,4.5454826E0,2.7159014E0,1.1922141E1,3.580903E0,6.7241926E0,7.230777E0,6.1966853E0,5.7254553E0],"tree_param":{"num_deleted":"0","num_feature":"8","num_nodes":"21","size_leaf_vector":"0"}},{"base_weights":[8.489482E-5,-2.6325071E-3,1.2361282E-2,-6.4769518E-3,5.546174E-3,5.7924804E-3,4.438283E-2,-2.6033426E-2,-3.6149842E-4,-6.5383096E-3,8.490365E-2,5.226773E-2,-3.4908105E-2,-2.6800847E-3,-6.726905E-2,-4.022095E-5,-7.816473E-4,-5.442098E-3,-1.019142E-2,4.863737E-6,-9.789648E-3,-1.3737301E-2,1.14491966E-4],"categories":[],"categories_nodes":[],"categories_segments":[],"categories_sizes":[],"default_left":[1,1,1,1,1,1,0,1,1,1,0,0,0,1,0,0,0,1,0,0,0,0,0],"id":54,"left_children":[1,3,5,7,9,11,-1,13,15,17,-1,-1,-1,19,-1,-1,-1,21,-1,-1,-1,-1,-1],"loss_changes":[2.9270865E-3,2.2955807E-3,3.0875497E-3,5.892461E-3,2.3109028E-2,2.8957874E-2,0E0,1.1126566E-2,5.1798634E-6,2.99901E-5,0E0,0E0,0E0,1.6301981E-4,0E0,6.734261E-9,0E0,8.570281E-4,0E0,0E0,0E0,0E0,0E0],"parents":[2147483647,0,0,1,1,2,2,3,3,4,4,5,5,7,7,8,8,9,9,13,13,17,17],"right_children":[2,4,6,8,10,12,-1,14,16,18,-1,-1,-1,20,-1,-1,-1,22,-1,-1,-1,-1,-1],"split_conditions":[5E-1,5E-1,5E-1,5E-1,5E-1,5E-1,1.331485E-2,5E-1,5E-1,5E-1,2.5471097E-2,1.568032E-2,-1.0472432E-2,5E-1,-2.0180715E-2,-1.2066286E-5,-2.3449419E-4,5E-1,-3.057426E-3,1.4591212E-6,-2.9368943E-3,-4.1211904E-3,3.434759E-5],"split_indices":[3,0,6,2,5,0,0,5,5,6,0,0,0,6,0,0,0,2,0,0,0,0,0],"split_type":[0,0,0,0,0,0,0,0,0,0,0,0,0,0,0,0,0,0,0,0,0,0,0],"sum_hessian":[8.5767265E1,7.086641E1,1.4900853E1,4.8348118E1,2.2518291E1,1.3344332E1,1.5565218E0,1.0741409E1,3.760671E1,2.0338737E1,2.179555E0,6.0975037E0,7.2468286E0,7.5375786E0,3.2038305E0,2.193176E1,1.5674947E1,1.7559317E1,2.7794197E0,6.1966944E0,1.3408847E0,6.4532595E0,1.1106058E1],"tree_param":{"num_deleted":"0","num_feature":"8","num_nodes":"23","size_leaf_vector":"0"}},{"base_weights":[2.1583411E-4,-1.9102268E-3,9.771414E-3,-5.017449E-3,4.697729E-3,4.3771146E-3,3.6450353E-2,-2.027763E-2,-2.5950448E-4,-4.9086567E-3,6.8738736E-2,3.8479436E-2,-2.566273E-2,-2.220336E-3,-5.2366666E-2,-2.8712515E-5,-5.6134624E-4,-4.0289126E-3,-7.924551E-3,3.741492E-6,-8.112662E-3,-1.01654325E-2,8.3020095E-5],"categories":[],"categories_nodes":[],"categories_segments":[],"categories_sizes":[],"default_left":[1,1,1,1,1,1,0,1,1,1,0,0,0,1,0,0,0,1,0,0,0,0,0],"id":55,"left_children":[1,3,5,7,9,11,-1,13,15,17,-1,-1,-1,19,-1,-1,-1,21,-1,-1,-1,-1,-1],"loss_changes":[1.7808852E-3,1.4976126E-3,2.1359567E-3,3.575251E-3,1.47808455E-2,1.5743673E-2,0E0,6.6678086E-3,2.6732496E-6,2.4714915E-5,0E0,0E0,0E0,1.11898495E-4,0E0,6.9911703E-9,0E0,4.692089E-4,0E0,0E0,0E0,0E0,0E0],"parents":[2147483647,0,0,1,1,2,2,3,3,4,4,5,5,7,7,8,8,9,9,13,13,17,17],"right_children":[2,4,6,8,10,12,-1,14,16,18,-1,-1,-1,20,-1,-1,-1,22,-1,-1,-1,-1,-1],"split_conditions":[5E-1,5E-1,5E-1,5E-1,5E-1,5E-1,1.0935106E-2,5E-1,5E-1,5E-1,2.0621622E-2,1.1543831E-2,-7.698819E-3,5E-1,-1.571E-2,-8.613755E-6,-1.6840387E-4,5E-1,-2.3773655E-3,1.1224477E-6,-2.4337985E-3,-3.04963E-3,2.490603E-5],"split_indices":[3,0,6,2,5,0,0,5,5,6,0,0,0,6,0,0,0,2,0,0,0,0,0],"split_type":[0,0,0,0,0,0,0,0,0,0,0,0,0,0,0,0,0,0,0,0,0,0,0],"sum_hessian":[8.574157E1,7.079106E1,1.4950505E1,4.8313545E1,2.2477516E1,1.340431E1,1.5461943E0,1.0707971E1,3.7605576E1,2.0348516E1,2.1290004E0,6.146095E0,7.258216E0,7.5363007E0,3.1716695E0,2.1931559E1,1.5674015E1,1.7561636E1,2.7868805E0,6.1967006E0,1.3396001E0,6.4554877E0,1.1106148E1],"tree_param":{"num_deleted":"0","num_feature":"8","num_nodes":"23","size_leaf_vector":"0"}},{"base_weights":[2.8686709E-4,-3.592857E-3,7.377571E-3,-1.6063929E-2,1.9698706E-2,2.3373637E-2,-1.2752585E-1,-5.3081586E-4,-7.30249E-2,8.8943325E-2,-4.0304958E-4,-3.6875338E-3,9.101115E-2,-2.113633E-5,-2.2737877E-3,-1.5728384E-3,-4.5069945E-3,-6.7227804E-3,1.24145035E-5,5.9950704E-5,-1.8050969E-2],"categories":[],"categories_nodes":[],"categories_segments":[],"categories_sizes":[],"default_left":[1,1,1,1,1,1,0,1,0,0,0,1,0,0,1,0,1,0,0,0,0],"id":56,"left_children":[1,3,5,7,9,11,-1,13,-1,-1,-1,15,-1,-1,17,-1,19,-1,-1,-1,-1],"loss_changes":[2.4120975E-3,1.6792512E-2,6.9866315E-2,3.313418E-2,2.8193576E-2,5.2600868E-2,0E0,2.7017211E-5,0E0,0E0,0E0,2.9919262E-5,0E0,4.86117E-9,7.010197E-5,0E0,9.1996836E-4,0E0,0E0,0E0,0E0],"parents":[2147483647,0,0,1,1,2,2,3,3,4,4,5,5,7,7,11,11,14,14,16,16],"right_children":[2,4,6,8,10,12,-1,14,-1,-1,-1,16,-1,-1,18,-1,20,-1,-1,-1,-1],"split_conditions":[5E-1,5E-1,5E-1,5E-1,5E-1,5E-1,-3.8257755E-2,5E-1,-2.1907471E-2,2.6682999E-2,-1.20914876E-4,5E-1,2.7303347E-2,-6.3408993E-6,5E-1,-4.7185153E-4,5E-1,-2.0168342E-3,3.7243512E-6,1.7985212E-5,-5.4152906E-3],"split_indices":[0,5,5,3,2,3,0,6,0,0,0,2,0,0,2,0,6,0,0,0,0],"split_type":[0,0,0,0,0,0,0,0,0,0,0,0,0,0,0,0,0,0,0,0,0],"sum_hessian":[8.57173E1,5.572197E1,2.9995333E1,3.649282E1,1.9229149E1,2.7554785E1,2.4405487E0,2.9466658E1,7.0261636E0,3.5558028E0,1.56733465E1,2.0356007E1,7.1987777E0,2.3582726E1,5.8839307E0,6.5004215E0,1.3855586E1,1.3385326E0,4.545398E0,1.1106213E1,2.7493734E0],"tree_param":{"num_deleted":"0","num_feature":"8","num_nodes":"21","size_leaf_vector":"0"}},{"base_weights":[4.7482205E-5,-2.4903012E-3,4.6777027E-3,-1.1920263E-2,1.5049138E-2,1.7136946E-2,-9.747647E-2,-4.3793235E-4,-5.4339953E-2,3.2695204E-2,-6.047861E-2,-2.8524746E-3,6.7326985E-2,-1.5057786E-5,-1.8845901E-3,-3.64929E-2,-8.315301E-2,-1.1638528E-3,-3.5124756E-3,-5.570895E-3,9.203369E-6,4.3609518E-5,-1.4021214E-2],"categories":[],"categories_nodes":[],"categories_segments":[],"categories_sizes":[],"default_left":[1,1,1,1,1,1,0,1,1,0,0,1,0,0,1,0,0,0,1,0,0,0,0],"id":57,"left_children":[1,3,5,7,9,11,-1,13,15,-1,-1,17,-1,-1,19,-1,-1,-1,21,-1,-1,-1,-1],"loss_changes":[1.03116E-3,9.557005E-3,4.12093E-2,1.8208094E-2,2.8988076E-2,2.8824188E-2,0E0,1.8609142E-5,1.061622E-3,0E0,0E0,1.9728002E-5,0E0,4.942838E-9,4.81026E-5,0E0,0E0,0E0,5.5625406E-4,0E0,0E0,0E0,0E0],"parents":[2147483647,0,0,1,1,2,2,3,3,4,4,5,5,7,7,8,8,11,11,14,14,18,18],"right_children":[2,4,6,8,10,12,-1,14,16,-1,-1,18,-1,-1,20,-1,-1,-1,22,-1,-1,-1,-1],"split_conditions":[5E-1,5E-1,5E-1,5E-1,5E-1,5E-1,-2.9242942E-2,5E-1,5E-1,9.808562E-3,-1.8143583E-2,5E-1,2.0198096E-2,-4.517336E-6,5E-1,-1.094787E-2,-2.4945904E-2,-3.4915583E-4,5E-1,-1.6712686E-3,2.7610108E-6,1.3082856E-5,-4.2063645E-3],"split_indices":[0,5,5,3,4,3,0,6,6,0,0,2,0,0,2,0,0,0,6,0,0,0,0],"split_type":[0,0,0,0,0,0,0,0,0,0,0,0,0,0,0,0,0,0,0,0,0,0,0],"sum_hessian":[8.576322E1,5.569787E1,3.0065351E1,3.6431236E1,1.9266636E1,2.753882E1,2.5265307E0,2.9465673E1,6.965562E0,1.6077457E1,3.189177E0,2.036938E1,7.1694407E0,2.3582615E1,5.8830585E0,5.7009096E0,1.2646521E0,6.500688E0,1.3868692E1,1.3376459E0,4.5454125E0,1.110626E1,2.762432E0],"tree_param":{"num_deleted":"0","num_feature":"8","num_nodes":"23","size_leaf_vector":"0"}},{"base_weights":[-6.4343185E-4,-2.2254111E-3,1.018188E-2,4.47052E-4,-6.867187E-3,-2.0511262E-2,6.8959065E-2,-8.163957E-3,5.3324945E-2,1.2828229E-2,-5.5683848E-2,-1.5619416E-3,-6.87775E-2,-1.0681903E-5,-1.783921E-2,-2.7157757E-3,9.8381534E-2,-4.616235E-3,6.8386944E-6,-4.7054205E-2,-9.498894E-3,-6.811565E-3,3.15765E-5],"categories":[],"categories_nodes":[],"categories_segments":[],"categories_sizes":[],"default_left":[1,1,1,1,1,1,0,1,0,1,0,1,0,0,1,1,0,0,0,0,0,0,0],"id":58,"left_children":[1,3,5,7,9,11,-1,13,-1,15,-1,17,-1,-1,19,21,-1,-1,-1,-1,-1,-1,-1],"loss_changes":[1.5091748E-3,9.5273036E-4,2.1704538E-2,2.2984397E-2,2.7666643E-2,7.35524E-3,0E0,3.427701E-3,0E0,2.7910192E-2,0E0,3.300838E-5,0E0,4.876744E-9,4.3950332E-3,2.0910593E-4,0E0,0E0,0E0,0E0,0E0,0E0,0E0],"parents":[2147483647,0,0,1,1,2,2,3,3,4,4,5,5,7,7,9,9,11,11,14,14,15,15],"right_children":[2,4,6,8,10,12,-1,14,-1,16,-1,18,-1,-1,20,22,-1,-1,-1,-1,-1,-1,-1],"split_conditions":[5E-1,5E-1,5E-1,5E-1,5E-1,5E-1,2.068772E-2,5E-1,1.5997484E-2,5E-1,-1.6705155E-2,5E-1,-2.063325E-2,-3.2045712E-6,5E-1,5E-1,2.9514462E-2,-1.3848705E-3,2.0516084E-6,-1.4116262E-2,-2.8496683E-3,-2.0434696E-3,9.47295E-6],"split_indices":[6,0,0,3,3,3,0,5,0,5,0,2,0,0,2,2,0,0,0,0,0,0,0],"split_type":[0,0,0,0,0,0,0,0,0,0,0,0,0,0,0,0,0,0,0,0,0,0,0],"sum_hessian":[8.5801735E1,7.55548E1,1.0246931E1,4.852223E1,2.7032572E1,7.1593757E0,3.0875554E0,4.245428E1,6.0679474E0,1.9786705E1,7.245866E0,5.8823333E0,1.2770424E0,2.3582535E1,1.8871748E1,1.7563826E1,2.2228792E0,1.3369099E0,4.5454235E0,3.1602046E0,1.5711543E1,6.457532E0,1.1106295E1],"tree_param":{"num_deleted":"0","num_feature":"8","num_nodes":"23","size_leaf_vector":"0"}},{"base_weights":[-3.3963745E-4,6.073298E-3,-4.269955E-3,3.3517808E-2,-2.6308245E-3,-8.97208E-3,-5.401213E-7,4.5124616E-2,1.8223368E-2,-2.1159755E-2,1.4229474E-2,-5.36378E-3,-2.1007271E-2,1.4507803E-2,5.5975415E-2,1.480045E-5,-4.0694892E-2,-5.0411713E-3,3.0643806E-2,5.0651943E-6,-6.8253516E-3,-2.6312487E-2,-6.959703E-3],"categories":[],"categories_nodes":[],"categories_segments":[],"categories_sizes":[],"default_left":[1,1,1,1,1,1,0,1,0,1,1,1,1,0,0,0,0,0,0,0,0,0,0],"id":59,"left_children":[1,3,5,7,9,11,-1,13,-1,15,17,19,21,-1,-1,-1,-1,-1,-1,-1,-1,-1,-1],"loss_changes":[2.2120108E-3,8.059648E-3,1.0913343E-3,6.169835E-4,8.505507E-3,1.0107704E-3,1.0971918E-8,4.942734E-4,0E0,5.3424784E-3,4.6930234E-3,1.667494E-4,2.3602368E-4,0E0,0E0,0E0,0E0,0E0,0E0,0E0,0E0,0E0,0E0],"parents":[2147483647,0,0,1,1,2,2,3,3,4,4,5,5,7,7,9,9,10,10,11,11,12,12],"right_children":[2,4,6,8,10,12,-1,14,-1,16,18,20,22,-1,-1,-1,-1,-1,-1,-1,-1,-1,-1],"split_conditions":[5E-1,5E-1,5E-1,5E-1,5E-1,5E-1,-1.6203639E-7,5E-1,5.4670107E-3,5E-1,5E-1,5E-1,5E-1,4.352341E-3,1.6792625E-2,4.4401354E-6,-1.2208468E-2,-1.5123514E-3,9.193142E-3,1.5195584E-6,-2.0476056E-3,-7.893747E-3,-2.087911E-3],"split_indices":[2,7,7,5,0,0,0,3,0,3,3,5,5,0,0,0,0,0,0,0,0,0,0],"split_type":[0,0,0,0,0,0,0,0,0,0,0,0,0,0,0,0,0,0,0,0,0,0,0],"sum_hessian":[8.573235E1,3.2370125E1,5.3362225E1,7.1078725E0,2.5262253E1,2.487007E1,2.8492155E1,2.9322333E0,4.175639E0,1.1914067E1,1.3348186E1,2.0245802E1,4.6242685E0,1.3788031E0,1.5534302E0,6.196639E0,5.7174287E0,6.458592E0,6.8895936E0,4.5454316E0,1.570037E1,2.7228541E0,1.9014143E0],"tree_param":{"num_deleted":"0","num_feature":"8","num_nodes":"23","size_leaf_vector":"0"}},{"base_weights":[-1.2244578E-4,4.917454E-3,-3.2081828E-3,2.6774773E-2,-2.0253838E-3,-6.7390483E-3,-4.451327E-7,3.7090965E-2,1.379717E-2,-1.5824705E-2,1.0503839E-2,-3.8527907E-3,-1.6400872E-2,1.1974843E-2,4.6024017E-2,1.0870472E-5,-3.0521633E-2,-3.7311674E-3,2.2643698E-2,3.8828643E-6,-4.9032234E-3,-2.0415435E-2,-5.5844835E-3],"categories":[],"categories_nodes":[],"categories_segments":[],"categories_sizes":[],"default_left":[1,1,1,1,1,1,0,1,0,1,1,1,1,0,0,0,0,0,0,0,0,0,0],"id":60,"left_children":[1,3,5,7,9,11,-1,13,-1,15,17,19,21,-1,-1,-1,-1,-1,-1,-1,-1,-1,-1],"loss_changes":[1.364021E-3,5.110156E-3,6.1587273E-4,5.7294825E-4,4.69866E-3,6.586411E-4,1.1103377E-8,3.287252E-4,0E0,2.996588E-3,2.5627464E-3,8.605691E-5,1.311925E-4,0E0,0E0,0E0,0E0,0E0,0E0,0E0,0E0,0E0,0E0],"parents":[2147483647,0,0,1,1,2,2,3,3,4,4,5,5,7,7,9,9,10,10,11,11,12,12],"right_children":[2,4,6,8,10,12,-1,14,-1,16,18,20,22,-1,-1,-1,-1,-1,-1,-1,-1,-1,-1],"split_conditions":[5E-1,5E-1,5E-1,5E-1,5E-1,5E-1,-1.3353981E-7,5E-1,4.139151E-3,5E-1,5E-1,5E-1,5E-1,3.5924532E-3,1.38072055E-2,3.2611417E-6,-9.156491E-3,-1.1193503E-3,6.7931097E-3,1.1648593E-6,-1.4709671E-3,-6.1246306E-3,-1.6753451E-3],"split_indices":[2,7,7,5,0,0,0,3,0,3,3,5,5,0,0,0,0,0,0,0,0,0,0],"split_type":[0,0,0,0,0,0,0,0,0,0,0,0,0,0,0,0,0,0,0,0,0,0,0],"sum_hessian":[8.5693794E1,3.2317074E1,5.337672E1,7.1020536E0,2.521502E1,2.4884563E1,2.8492155E1,2.9215622E0,4.1804914E0,1.187415E1,1.3340868E1,2.0237745E1,4.646818E0,1.3805436E0,1.5410187E0,6.196661E0,5.6774893E0,6.4593678E0,6.8815007E0,4.545437E0,1.5692308E1,2.741749E0,1.9050694E0],"tree_param":{"num_deleted":"0","num_feature":"8","num_nodes":"23","size_leaf_vector":"0"}},{"base_weights":[1.5586167E-5,3.9874665E-3,-2.4148042E-3,2.142177E-2,-1.5570144E-3,-5.071224E-3,-3.7793336E-7,3.048629E-2,1.0448146E-2,-1.1826495E-2,7.7529093E-3,-2.7670974E-3,-1.2812394E-2,9.884369E-3,