{"learner":{"attributes":{"best_iteration":"99","best_ntree_limit":"100","scikit_learn":"{\"use_label_encoder\": null, \"n_estimators\": 100, \"objective\": \"binary:logistic\", \"max_depth\": null, \"max_leaves\": null, \"max_bin\": null, \"grow_policy\": null, \"learning_rate\": 1.0, \"verbosity\": null, \"booster\": null, \"tree_method\": null, \"gamma\": null, \"min_child_weight\": null, \"max_delta_step\": null, \"subsample\": null, \"sampling_method\": null, \"colsample_bytree\": null, \"colsample_bylevel\": null, \"colsample_bynode\": null, \"reg_alpha\": null, \"reg_lambda\": null, \"scale_pos_weight\": null, \"base_score\": null, \"missing\": NaN, \"num_parallel_tree\": null, \"random_state\": null, \"n_jobs\": null, \"monotone_constraints\": null, \"interaction_constraints\": null, \"importance_type\": null, \"gpu_id\": null, \"validate_parameters\": null, \"predictor\": null, \"enable_categorical\": false, \"feature_types\": null, \"max_cat_to_onehot\": null, \"max_cat_threshold\": null, \"eval_metric\": null, \"early_stopping_rounds\": null, \"callbacks\": null, \"classes_\": [0, 1], \"n_classes_\": 2, \"_estimator_type\": \"classifier\"}"},"feature_names":[],"feature_types":[],"gradient_booster":{"model":{"gbtree_model_param":{"num_parallel_tree":"1","num_trees":"100","size_leaf_vector":"0"},"tree_info":[0,0,0,0,0,0,0,0,0,0,0,0,0,0,0,0,0,0,0,0,0,0,0,0,0,0,0,0,0,0,0,0,0,0,0,0,0,0,0,0,0,0,0,0,0,0,0,0,0,0,0,0,0,0,0,0,0,0,0,0,0,0,0,0,0,0,0,0,0,0,0,0,0,0,0,0,0,0,0,0,0,0,0,0,0,0,0,0,0,0,0,0,0,0,0,0,0,0,0,0],"trees":[{"base_weights":[-4.0510365E-1,-1.2618454E0,1.0956522E0,-2.78481E-1,-1.4846625E0,1.7165354E0,3.17757E-1,-4.6575344E-1,1.2E0,-1.5649123E0,-8.4444445E-1,6.236559E-1,-1.3333334E0,-6E-1,1.1764706E-1,-1.6043956E0,-5E-1,-1.1578947E0,5.4545456E-1,1.0434783E0,1.9607843E-1,-7.4509805E-1,1.5384616E-1,-1.5384616E-1,5E-1,-1.6721312E0,-9.0909094E-1,1.1794872E0,1.8181819E-1,-6.0606062E-2,5.4545456E-1,-1.030303E0,-1.8181819E-1,-2.2222222E-1,-0E0,-2.2222222E-1,-1.3684211E0,3.6363637E-1,-6.666667E-1,9.3333334E-1,-1.8181819E-1],"categories":[],"categories_nodes":[],"categories_segments":[],"categories_sizes":[],"default_left":[1,1,1,1,1,0,1,1,0,1,1,1,0,1,1,1,0,0,0,1,1,1,0,1,0,0,1,0,0,1,1,0,0,0,0,0,0,0,0,0,0],"id":0,"left_children":[1,3,5,7,9,-1,11,13,-1,15,17,19,-1,21,23,25,-1,-1,-1,27,29,31,-1,33,-1,-1,35,-1,-1,37,39,-1,-1,-1,-1,-1,-1,-1,-1,-1,-1],"loss_changes":[2.0292545E2,2.1552368E1,2.7226028E1,6.027258E0,2.8657684E0,0E0,1.4342076E1,1.4999197E0,0E0,2.1936035E0,5.5328016E0,3.9689245E0,0E0,1.7553544E0,5.1809955E-1,1.6942291E0,0E0,0E0,0E0,1.1332722E0,1.1764705E0,1.8609624E0,0E0,3.4188032E-2,0E0,0E0,2.2987776E0,0E0,0E0,2.3636365E0,1.721212E0,0E0,0E0,0E0,0E0,0E0,0E0,0E0,0E0,0E0,0E0],"parents":[2147483647,0,0,1,1,2,2,3,3,4,4,6,6,7,7,9,9,10,10,11,11,13,13,14,14,15,15,19,19,20,20,21,21,23,23,26,26,29,29,30,30],"right_children":[2,4,6,8,10,-1,12,14,-1,16,18,20,-1,22,24,26,-1,-1,-1,28,30,32,-1,34,-1,-1,36,-1,-1,38,40,-1,-1,-1,-1,-1,-1,-1,-1,-1,-1],"split_conditions":[5E-1,5E-1,5E-1,5E-1,5E-1,1.7165354E0,2.480835E1,5E-1,1.2E0,5E-1,5E-1,5E-1,-1.3333334E0,5E-1,5E-1,5E-1,-5E-1,-1.1578947E0,5.4545456E-1,5E-1,1.0797899E1,5E-1,1.5384616E-1,4.8689552E1,5E-1,-1.6721312E0,1.5E0,1.1794872E0,1.8181819E-1,7.9875E0,1.77E1,-1.030303E0,-1.8181819E-1,-2.2222222E-1,-0E0,-2.2222222E-1,-1.3684211E0,3.6363637E-1,-6.666667E-1,9.3333334E-1,-1.8181819E-1],"split_indices":[3,19,10,6,20,0,2,14,0,8,0,22,0,15,1,6,0,0,0,5,2,20,0,2,0,0,1,0,0,2,2,0,0,0,0,0,0,0,0,0,0],"split_type":[0,0,0,0,0,0,0,0,0,0,0,0,0,0,0,0,0,0,0,0,0,0,0,0,0,0,0,0,0,0,0,0,0,0,0,0,0,0,0,0,0],"sum_hessian":[1.5575E2,9.925E1,5.65E1,1.875E1,8.05E1,3.075E1,2.575E1,1.725E1,1.5E0,7.025E1,1.025E1,2.225E1,3.5E0,1.4E1,3.25E0,6.725E1,3E0,8.5E0,1.75E0,1.05E1,1.175E1,1.175E1,2.25E0,2.25E0,1E0,6E1,7.25E0,8.75E0,1.75E0,7.25E0,4.5E0,7.25E0,4.5E0,1.25E0,1E0,3.5E0,3.75E0,4.5E0,2.75E0,2.75E0,1.75E0],"tree_param":{"num_deleted":"0","num_feature":"24","num_nodes":"41","size_leaf_vector":"0"}},{"base_weights":[-1.1155738E-1,-3.6792442E-1,3.3675423E-1,-5.8640784E-1,-1.1037747E-1,6.951495E-1,4.8089582E-2,-7.3498595E-1,-4.1570812E-1,1.4477246E-1,-4.001323E-1,2.722809E-1,8.924825E-1,7.4840486E-1,-7.043507E-2,-4.7188333E-1,-8.4104246E-1,1.1943092E0,-6.344239E-1,-8.266001E-2,8.27423E-1,-7.931692E-1,-1.0312063E-1,5.272453E-1,-2.4354438E-1,1.0523397E0,4.717526E-2,4.344366E-2,-5.723468E-1,-8.438884E-1,-1.8985496E-1,-6.653766E-1,-1.9919112E-1,1.307916E-1,-9.306243E-1,1.2261664E0,2.1658065E-5,-2.7263993E-1,-1.0302212E0,9.5491475E-1,-5.246888E-1,1.0750135E-1,6.12146E-1,-2.7642497E-1,6.1462563E-1,-5.75056E-1,1.3368264E-1,-7.391766E-2,1.0628849E0,3.4604143E-2,-4.5888534E-1,-6.860606E-1,1.6892171E-1,8.417153E-2,-1.7394589E0,7.2555095E-1,1.2965326E-1],"categories":[],"categories_nodes":[],"categories_segments":[],"categories_sizes":[],"default_left":[1,1,1,1,1,1,1,1,1,1,1,1,1,0,1,1,0,0,1,1,1,1,1,1,0,0,0,1,0,0,1,0,0,1,0,0,0,1,0,0,1,0,0,1,1,0,0,0,0,0,0,0,0,0,0,0,0],"id":1,"left_children":[1,3,5,7,9,11,13,15,17,19,21,23,25,-1,27,29,-1,-1,31,33,35,37,39,41,-1,-1,-1,43,-1,-1,45,-1,-1,47,-1,-1,-1,49,-1,-1,51,-1,-1,53,55,-1,-1,-1,-1,-1,-1,-1,-1,-1,-1,-1,-1],"loss_changes":[1.1966069E1,3.6506891E0,3.8986602E0,5.9460735E-1,2.389489E0,1.165679E0,1.8892684E0,9.6279144E-2,7.3843074E0,2.7860465E0,1.6730845E0,1.0240749E0,1.4463816E0,0E0,1.1587038E0,6.115118E-1,0E0,0E0,9.94544E-2,2.662775E0,1.4731307E0,4.9908376E-1,4.832825E0,1.0786891E-1,0E0,0E0,0E0,3.2937899E0,0E0,0E0,7.5909466E-1,0E0,0E0,2.3859234E0,0E0,0E0,0E0,2.0687543E-1,0E0,0E0,9.654441E-1,0E0,0E0,6.2925787E0,2.5281072E-1,0E0,0E0,0E0,0E0,0E0,0E0,0E0,0E0,0E0,0E0,0E0,0E0],"parents":[2147483647,0,0,1,1,2,2,3,3,4,4,5,5,6,6,7,7,8,8,9,9,10,10,11,11,12,12,14,14,15,15,18,18,19,19,20,20,21,21,22,22,23,23,27,27,30,30,33,33,37,37,40,40,43,43,44,44],"right_children":[2,4,6,8,10,12,14,16,18,20,22,24,26,-1,28,30,-1,-1,32,34,36,38,40,42,-1,-1,-1,44,-1,-1,46,-1,-1,48,-1,-1,-1,50,-1,-1,52,-1,-1,54,56,-1,-1,-1,-1,-1,-1,-1,-1,-1,-1,-1,-1],"split_conditions":[5E-1,1.51729E1,5E-1,7.9104004E0,3.219375E1,2.6125E1,7.74375E0,7.2396E0,7.9875E0,2.985E1,5.22771E1,5E-1,1.490354E2,7.4840486E-1,2.37E1,6.7354E0,-8.4104246E-1,1.1943092E0,5E-1,2.6775E1,5E-1,5E-1,5.90875E1,1.25E1,-2.4354438E-1,1.0523397E0,4.717526E-2,1.485205E1,-5.723468E-1,-8.438884E-1,5E-1,-6.653766E-1,-1.9919112E-1,5E-1,-9.306243E-1,1.2261664E0,2.1658065E-5,1E0,-1.0302212E0,9.5491475E-1,5E-1,1.0750135E-1,6.12146E-1,1.390835E1,1.5E0,-5.75056E-1,1.3368264E-1,-7.391766E-2,1.0628849E0,3.4604143E-2,-4.5888534E-1,-6.860606E-1,1.6892171E-1,8.417153E-2,-1.7394589E0,7.2555095E-1,1.2965326E-1],"split_indices":[3,2,10,2,2,2,2,2,2,2,2,1,2,0,2,2,0,0,20,2,19,5,2,2,0,0,0,2,0,0,5,0,0,20,0,0,0,1,0,0,14,0,0,2,1,0,0,0,0,0,0,0,0,0,0,0,0],"split_type":[0,0,0,0,0,0,0,0,0,0,0,0,0,0,0,0,0,0,0,0,0,0,0,0,0,0,0,0,0,0,0,0,0,0,0,0,0,0,0,0,0,0,0,0,0,0,0,0,0,0,0,0,0,0,0,0,0],"sum_hessian":[1.0203602E2,6.502867E1,3.7007343E1,3.4491657E1,3.0537018E1,1.5881414E1,2.1125929E1,1.6673347E1,1.781831E1,1.6504225E1,1.4032793E1,5.8102736E0,1.0071141E1,2.2886808E0,1.8837248E1,6.3556786E0,1.0317669E1,1.5975828E0,1.6220726E1,1.303904E1,3.4651852E0,5.320996E0,8.711797E0,3.8735156E0,1.9367578E0,8.2635E0,1.8076407E0,1.6098177E1,2.7390711E0,1.881588E0,4.4740906E0,1.4650066E1,1.5706592E0,1.1092553E1,1.9464862E0,2.0130854E0,1.4520999E0,2.3377619E0,2.983234E0,2.1216965E0,6.590101E0,1.0329375E0,2.840578E0,1.06500635E1,5.4481134E0,1.6875305E0,2.78656E0,9.849969E0,1.2425842E0,1.1895669E0,1.148195E0,5.355097E0,1.2350037E0,9.300276E0,1.3497874E0,4.0302324E0,1.417881E0],"tree_param":{"num_deleted":"0","num_feature":"24","num_nodes":"57","size_leaf_vector":"0"}},{"base_weights":[-4.1520197E-2,-1.3563202E-1,2.799921E-1,-2.2533248E-1,2.1565575E-2,-1.5628985E-1,5.326553E-1,-3.100666E-1,2.3261814E-1,3.0113247E-1,-5.5449516E-2,6.913561E-2,-5.757877E-1,2.552117E-1,9.127161E-1,-2.0207758E-1,-6.5642333E-1,-6.309587E-1,7.207839E-1,4.9798724E-1,-1.05552346E-1,-3.5796818E-1,6.97999E-2,3.4968328E-1,-2.6611152E-1,4.0398246E-1,-2.44506E-1,-3.4909657E-1,1.5418796E-1,1.3492937E0,-3.4254247E-1,1.3063191E-1,7.2964907E-1,7.1530486E-3,-4.7278652E-1,5.0120854E-1,-2.9400042E-1,-1.2034105E-1,7.7996725E-1,-1.2621821E-1,5.3007585E-1,-1.8786934E-1,-9.7791606E-1,5.906262E-1,-4.168152E-1,6.2422806E-1,1.6916926E-1,-4.3163085E-1,2.3280961E-2,2.7156177E-1,7.24377E-1],"categories":[],"categories_nodes":[],"categories_segments":[],"categories_sizes":[],"default_left":[1,1,1,1,1,1,1,1,1,1,1,1,0,1,0,1,0,0,1,1,0,1,1,1,0,1,0,1,1,0,0,0,0,0,0,1,1,0,0,0,1,0,0,0,0,0,0,0,0,0,0],"id":2,"left_children":[1,3,5,7,9,11,13,15,17,19,21,23,-1,25,-1,27,-1,-1,29,31,-1,33,35,37,-1,39,-1,41,43,-1,-1,-1,-1,-1,-1,45,47,-1,-1,-1,49,-1,-1,-1,-1,-1,-1,-1,-1,-1,-1],"loss_changes":[2.5082905E0,9.048873E-1,2.1570287E0,1.6524761E0,5.35639E-1,7.653648E-1,1.0471997E0,1.1688199E0,3.376393E0,4.817645E-1,7.7298105E-1,6.464136E-1,0E0,7.2368085E-1,0E0,1.5188594E0,0E0,0E0,3.7331028E0,2.2700012E-1,0E0,2.5254077E-1,2.4698145E0,8.290585E-1,0E0,5.2515066E-1,0E0,1.8546975E0,2.4552453E0,0E0,0E0,0E0,0E0,0E0,0E0,1.8603098E-1,3.881322E-1,0E0,0E0,0E0,9.108937E-2,0E0,0E0,0E0,0E0,0E0,0E0,0E0,0E0,0E0,0E0],"parents":[2147483647,0,0,1,1,2,2,3,3,4,4,5,5,6,6,7,7,8,8,9,9,10,10,11,11,13,13,15,15,18,18,19,19,21,21,22,22,23,23,25,25,27,27,28,28,35,35,36,36,40,40],"right_children":[2,4,6,8,10,12,14,16,18,20,22,24,-1,26,-1,28,-1,-1,30,32,-1,34,36,38,-1,40,-1,42,44,-1,-1,-1,-1,-1,-1,46,48,-1,-1,-1,50,-1,-1,-1,-1,-1,-1,-1,-1,-1,-1],"split_conditions":[5E-1,5E-1,1.51479E1,5E-1,5E-1,1.415835E1,5E-1,5E-1,5E-1,8.00835E0,9.1E0,5E-1,-5.757877E-1,9.99896E1,9.127161E-1,2.619375E1,-6.5642333E-1,-6.309587E-1,2.5E0,7.76875E0,-1.05552346E-1,7.7625E0,5E-1,7.8729496E0,-2.6611152E-1,5E-1,-2.44506E-1,1.325E1,3.075E1,1.3492937E0,-3.4254247E-1,1.3063191E-1,7.2964907E-1,7.1530486E-3,-4.7278652E-1,5E-1,5E-1,-1.2034105E-1,7.7996725E-1,-1.2621821E-1,6.2668747E1,-1.8786934E-1,-9.7791606E-1,5.906262E-1,-4.168152E-1,6.2422806E-1,1.6916926E-1,-4.3163085E-1,2.3280961E-2,2.7156177E-1,7.24377E-1],"split_indices":[20,3,2,6,22,2,3,1,0,2,2,5,0,2,0,2,0,0,1,2,0,2,1,2,0,5,0,2,2,0,0,0,0,0,0,9,9,0,0,0,2,0,0,0,0,0,0,0,0,0,0],"split_type":[0,0,0,0,0,0,0,0,0,0,0,0,0,0,0,0,0,0,0,0,0,0,0,0,0,0,0,0,0,0,0,0,0,0,0,0,0,0,0,0,0,0,0,0,0,0,0,0,0,0,0],"sum_hessian":[8.06414E1,6.2828606E1,1.7812801E1,3.97264E1,2.3102203E1,6.672538E0,1.1140263E1,3.3796074E1,5.9303274E0,4.3611317E0,1.8741072E1,4.8834915E0,1.789046E0,7.405653E0,3.7346096E0,2.6970497E1,6.825575E0,2.036031E0,3.8942964E0,2.7873955E0,1.5737361E0,4.9433084E0,1.3797764E1,2.6351967E0,2.248295E0,5.8543386E0,1.5513144E0,1.9106148E1,7.8643503E0,2.2785542E0,1.6157422E0,1.6828014E0,1.1045942E0,1.406943E0,3.5363653E0,6.139547E0,7.658217E0,1.6037015E0,1.0314952E0,1.1246006E0,4.729738E0,1.6240822E1,2.8653266E0,4.4379215E0,3.4264286E0,3.8377063E0,2.3018408E0,5.08991E0,2.568307E0,3.058325E0,1.671413E0],"tree_param":{"num_deleted":"0","num_feature":"24","num_nodes":"51","size_leaf_vector":"0"}},{"base_weights":[6.7695915E-3,-1.5282695E-2,5.783312E-1,1.0513773E-2,-8.3583E-1,-2.292273E-2,3.3507845E-1,-5.6193087E-2,2.6829052E-1,-1.5965407E-1,6.4086604E-1,-2.5049604E-2,-4.2768744E-1,9.230082E-1,-7.401935E-2,6.9552444E-2,-3.2576415E-1,1.9416718E-1,8.7626857E-1,-4.374832E-1,8.529943E-5,-6.1748636E-1,3.8147792E-2,-2.8713214E-1,1.3737369E-1],"categories":[],"categories_nodes":[],"categories_segments":[],"categories_sizes":[],"default_left":[1,1,0,1,0,1,1,1,1,1,1,1,1,0,1,0,0,0,0,0,0,0,0,0,0],"id":3,"left_children":[1,3,-1,5,-1,7,9,11,13,15,17,19,21,-1,23,-1,-1,-1,-1,-1,-1,-1,-1,-1,-1],"loss_changes":[8.855925E-1,1.447109E0,0E0,7.333407E-1,0E0,6.114936E-1,1.0567982E0,6.3802725E-1,1.5216879E0,1.448967E-1,2.608459E-1,5.473646E-1,4.0152425E-1,0E0,2.729947E-1,0E0,0E0,0E0,0E0,0E0,0E0,0E0,0E0,0E0,0E0],"parents":[2147483647,0,0,1,1,3,3,5,5,6,6,7,7,8,8,9,9,10,10,11,11,12,12,14,14],"right_children":[2,4,-1,6,-1,8,10,12,14,16,18,20,22,-1,24,-1,-1,-1,-1,-1,-1,-1,-1,-1,-1],"split_conditions":[1.5250626E2,1.1207915E2,5.783312E-1,1.5E0,-8.3583E-1,5.45E1,5E-1,3.6125E1,5.95771E1,2.45E1,3.133125E1,7.13335E0,5.22771E1,9.230082E-1,5E-1,6.9552444E-2,-3.2576415E-1,1.9416718E-1,8.7626857E-1,-4.374832E-1,8.529943E-5,-6.1748636E-1,3.8147792E-2,-2.8713214E-1,1.3737369E-1],"split_indices":[2,2,0,0,0,2,6,2,2,2,2,2,2,0,1,0,0,0,0,0,0,0,0,0,0],"split_type":[0,0,0,0,0,0,0,0,0,0,0,0,0,0,0,0,0,0,0,0,0,0,0,0,0],"sum_hessian":[6.856026E1,6.69504E1,1.6098537E0,6.586686E1,1.0835437E0,6.0557613E1,5.309243E0,5.5072735E1,5.4848785E0,2.2106054E0,3.098638E0,5.17978E1,3.2749352E0,1.300696E0,4.1841826E0,1.1731395E0,1.0374659E0,1.6991564E0,1.3994815E0,2.0330176E0,4.9764782E1,2.0955727E0,1.1793625E0,1.9051987E0,2.278984E0],"tree_param":{"num_deleted":"0","num_feature":"24","num_nodes":"25","size_leaf_vector":"0"}},{"base_weights":[5.8978156E-4,-8.208402E-2,1.3563195E-1,-3.9418977E-2,-5.244864E-1,4.8228562E-2,5.431441E-1,-6.0435515E-3,-2.9572886E-1,-6.440772E-1,-2.117508E-1,-5.1006466E-2,2.3198517E-1,1.8662837E-1,6.9490445E-1,6.1469533E-2,-2.7844876E-1,2.9347146E-1,-5.563203E-1,2.0577066E-1,-2.5031045E-1,6.283988E-1,-8.574638E-2,3.497136E-2,3.867178E-1,-5.6295496E-1,2.2052867E-2,-2.0529995E-2,-7.5706446E-1,-1.21651115E-2,6.39395E-1,-5.5371916E-1,-9.718225E-3,7.5696456E-1,1.6856171E-1,-2.6262596E-1,2.4791044E-1,6.276477E-3,2.8744808E-1,-1.0128776E-1,-6.9779176E-1,4.9939665E-1,-3.0100343E-1,-2.4590956E-1,1.4351477E-1,4.3344182E-1,-2.3100156E-1,-4.2906E-1,7.894007E-2],"categories":[],"categories_nodes":[],"categories_segments":[],"categories_sizes":[],"default_left":[1,1,1,1,1,1,1,1,1,0,0,1,1,0,0,1,1,0,1,1,1,1,1,1,0,1,1,0,0,1,0,0,1,0,0,1,0,0,0,0,0,0,0,0,0,0,0,0,0],"id":4,"left_children":[1,3,5,7,9,11,13,15,17,-1,-1,19,21,-1,-1,23,25,-1,27,29,31,33,35,37,-1,39,41,-1,-1,43,-1,-1,45,-1,-1,47,-1,-1,-1,-1,-1,-1,-1,-1,-1,-1,-1,-1,-1],"loss_changes":[7.846185E-1,8.0220103E-1,9.242803E-1,3.4759796E-1,3.990054E-3,4.3251726E-1,1.2001884E-1,7.004819E-1,8.8255745E-1,0E0,0E0,8.6009705E-1,1.0955253E0,0E0,0E0,2.5017434E-1,6.588353E-1,0E0,3.7096E-1,7.1213156E-1,6.769053E-1,9.7029924E-2,3.87964E-1,2.1112967E-1,0E0,1.7343712E-1,8.65759E-1,0E0,0E0,2.515033E-1,0E0,0E0,7.111462E-1,0E0,0E0,2.6472065E-1,0E0,0E0,0E0,0E0,0E0,0E0,0E0,0E0,0E0,0E0,0E0,0E0,0E0],"parents":[2147483647,0,0,1,1,2,2,3,3,4,4,5,5,6,6,7,7,8,8,11,11,12,12,15,15,16,16,18,18,19,19,20,20,21,21,22,22,23,23,25,25,26,26,29,29,32,32,35,35],"right_children":[2,4,6,8,10,12,14,16,18,-1,-1,20,22,-1,-1,24,26,-1,28,30,32,34,36,38,-1,40,42,-1,-1,44,-1,-1,46,-1,-1,48,-1,-1,-1,-1,-1,-1,-1,-1,-1,-1,-1,-1,-1],"split_conditions":[5E-1,1.5E0,5E-1,5E-1,3.133125E1,2.155E1,1.485205E1,5E-1,5E-1,-6.440772E-1,-2.117508E-1,7.9875E0,5E-1,1.8662837E-1,6.9490445E-1,5E-1,8.08125E0,2.9347146E-1,3.025E1,7.8667E0,1.081665E1,5E-1,5E-1,5E-1,3.867178E-1,7.2396E0,1.53729E1,-2.0529995E-2,-7.5706446E-1,5E-1,6.39395E-1,-5.5371916E-1,5E-1,7.5696456E-1,1.6856171E-1,2.5E0,2.4791044E-1,6.276477E-3,2.8744808E-1,-1.0128776E-1,-6.9779176E-1,4.9939665E-1,-3.0100343E-1,-2.4590956E-1,1.4351477E-1,4.3344182E-1,-2.3100156E-1,-4.2906E-1,7.894007E-2],"split_indices":[3,1,20,13,2,2,2,7,5,0,0,2,0,0,0,11,2,0,2,2,2,9,9,15,0,2,2,0,0,5,0,0,5,0,0,1,0,0,0,0,0,0,0,0,0,0,0,0,0],"split_type":[0,0,0,0,0,0,0,0,0,0,0,0,0,0,0,0,0,0,0,0,0,0,0,0,0,0,0,0,0,0,0,0,0,0,0,0,0,0,0,0,0,0,0,0,0,0,0,0,0],"sum_hessian":[6.828109E1,4.259579E1,2.5685297E1,3.9842506E1,2.7532873E0,2.2070051E1,3.6152456E0,3.615779E1,3.6847124E0,1.2252537E0,1.5280336E0,1.4799971E1,7.270081E0,1.7451925E0,1.8700529E0,2.9596838E1,6.560954E0,1.0912374E0,2.593475E0,6.453296E0,8.346674E0,2.7995245E0,4.4705563E0,2.8391304E1,1.2055345E0,2.9215407E0,3.6394136E0,1.0072834E0,1.5861915E0,4.9416246E0,1.5116715E0,3.1158366E0,5.230838E0,1.6828566E0,1.116668E0,3.0608246E0,1.4097316E0,2.6414106E1,1.977198E0,1.0562476E0,1.8652931E0,1.2486193E0,2.390794E0,1.7438096E0,3.1978152E0,1.4227529E0,3.808085E0,1.8857867E0,1.1750381E0],"tree_param":{"num_deleted":"0","num_feature":"24","num_nodes":"49","size_leaf_vector":"0"}},{"base_weights":[1.246069E-2,-1.0597018E-2,3.7249285E-1,1.5054612E-2,-3.620953E-1,-1.4681979E-1,8.972982E-1,-1.5656092E-3,2.7184004E-1,-6.407293E-1,6.51836E-2,2.884586E-2,-3.320834E-1,-6.305075E-2,4.3886235E-1,-5.293229E-3,5.2064246E-1,-6.0353E-1,-2.3583887E-2,8.331185E-2,-6.304453E-2,8.8324726E-1,-1.6580944E-1,1.3027692E-1,-1.5322809E-1],"categories":[],"categories_nodes":[],"categories_segments":[],"categories_sizes":[],"default_left":[1,1,1,1,1,0,0,1,1,0,0,1,1,0,0,1,1,0,1,0,0,0,0,0,0],"id":5,"left_children":[1,3,5,7,9,-1,-1,11,13,-1,-1,15,17,-1,-1,19,21,-1,23,-1,-1,-1,-1,-1,-1],"loss_changes":[5.4739696E-1,5.689471E-1,1.2131321E0,2.5310466E-1,5.525739E-1,0E0,0E0,5.7850295E-1,2.2930261E-1,0E0,0E0,8.884293E-1,3.918295E-1,0E0,0E0,2.6272961E-1,1.0012691E0,0E0,8.599271E-2,0E0,0E0,0E0,0E0,0E0,0E0],"parents":[2147483647,0,0,1,1,2,2,3,3,4,4,7,7,8,8,11,11,12,12,15,15,16,16,18,18],"right_children":[2,4,6,8,10,-1,-1,12,14,-1,-1,16,18,-1,-1,20,22,-1,24,-1,-1,-1,-1,-1,-1],"split_conditions":[5E-1,7.700835E1,5E-1,5E-1,5E-1,-1.4681979E-1,8.972982E-1,3.93E1,3.6710403E1,-6.407293E-1,6.51836E-2,3.133125E1,5.255E1,-6.305075E-2,4.3886235E-1,8.125E0,5E-1,-6.0353E-1,5E-1,8.331185E-2,-6.304453E-2,8.8324726E-1,-1.6580944E-1,1.3027692E-1,-1.5322809E-1],"split_indices":[12,2,1,14,3,0,0,2,2,0,0,2,2,0,0,2,5,0,1,0,0,0,0,0,0],"split_type":[0,0,0,0,0,0,0,0,0,0,0,0,0,0,0,0,0,0,0,0,0,0,0,0,0],"sum_hessian":[6.4463905E1,6.1496048E1,2.9678535E0,5.82055E1,3.290549E0,1.8537474E0,1.1141062E0,5.5600693E1,2.6048052E0,1.6893469E0,1.6012021E0,5.1751667E1,3.8490279E0,1.0739552E0,1.53085E0,4.9317432E1,2.4342358E0,1.5387514E0,2.3102765E0,1.9285702E1,3.0031729E1,1.4052532E0,1.0289825E0,1.0542363E0,1.2560402E0],"tree_param":{"num_deleted":"0","num_feature":"24","num_nodes":"25","size_leaf_vector":"0"}},{"base_weights":[6.8685515E-3,-9.204483E-3,4.7801462E-1,-1.7683248E-1,2.7723374E-2,7.383968E-2,-3.9473274E-1,4.634962E-1,-2.3027796E-3,-1.3740724E-1,1.6590644E-1,-2.0463899E-2,-6.4767116E-1,-5.811548E-1,2.3538522E-2,5.8616582E-2,2.5035858E-1,-2.74338E-1,3.0294025E-1,1.22580945E-1,-7.968069E-2,-2.0603092E-1,2.7329573E-1,1.7107545E-1,-4.3201327E-1,1.7086657E-2,-2.50071E-1],"categories":[],"categories_nodes":[],"categories_segments":[],"categories_sizes":[],"default_left":[1,1,0,1,1,1,1,0,1,0,1,1,0,0,1,1,0,0,0,1,1,0,0,0,0,0,0],"id":6,"left_children":[1,3,-1,5,7,9,11,-1,13,-1,15,17,-1,-1,19,21,-1,-1,-1,23,25,-1,-1,-1,-1,-1,-1],"loss_changes":[4.9211025E-1,3.964899E-1,0E0,6.6033375E-1,6.9067985E-1,1.4369325E-1,5.8688784E-1,0E0,7.6610947E-1,0E0,2.865687E-2,3.777959E-1,0E0,0E0,5.118567E-1,2.5016162E-1,0E0,0E0,0E0,7.585861E-1,4.1079986E-1,0E0,0E0,0E0,0E0,0E0,0E0],"parents":[2147483647,0,0,1,1,3,3,4,4,5,5,6,6,8,8,10,10,11,11,14,14,15,15,19,19,20,20],"right_children":[2,4,-1,6,8,10,12,-1,14,-1,16,18,-1,-1,20,22,-1,-1,-1,24,26,-1,-1,-1,-1,-1,-1],"split_conditions":[1.5250626E2,7.78125E0,4.7801462E-1,5E-1,7.88335E0,7.2271E0,7.5083E0,4.634962E-1,7.9104004E0,-1.3740724E-1,5E-1,7.13335E0,-6.4767116E-1,-5.811548E-1,2.07875E1,5E-1,2.5035858E-1,-2.74338E-1,3.0294025E-1,5E-1,5E-1,-2.0603092E-1,2.7329573E-1,1.7107545E-1,-4.3201327E-1,1.7086657E-2,-2.50071E-1],"split_indices":[2,2,0,22,2,2,2,0,2,0,5,2,0,0,2,3,0,0,0,21,0,0,0,0,0,0,0],"split_type":[0,0,0,0,0,0,0,0,0,0,0,0,0,0,0,0,0,0,0,0,0,0,0,0,0,0,0],"sum_hessian":[6.3403362E1,6.225985E1,1.1435161E0,1.055564E1,5.170421E1,5.2161355E0,5.3395047E0,2.4023418E0,4.9301865E1,1.4338036E0,3.782332E0,2.589205E0,2.7502997E0,1.1885543E0,4.811331E1,2.4120681E0,1.3702638E0,1.5355262E0,1.053679E0,2.445771E1,2.3655602E1,1.0983511E0,1.313717E0,2.3126984E1,1.3307258E0,1.5661123E1,7.9944787E0],"tree_param":{"num_deleted":"0","num_feature":"24","num_nodes":"27","size_leaf_vector":"0"}},{"base_weights":[-1.4731338E-2,-7.9707794E-2,9.597273E-2,-5.833475E-2,-3.5121784E-1,2.8555053E-1,-1.390111E-2,-9.063027E-2,1.4279403E-1,3.689872E-1,-1.7814103E-1,4.1683143E-1,-8.691938E-2,-3.008151E-1,-1.7062113E-2,6.336045E-1,-3.2507354E-1,1.1242745E-1,7.2637343E-1,-3.1125057E-1,7.330591E-2,7.923222E-2,-4.583684E-1,1.4214403E-2,-3.4732464E-1,-5.497375E-1,4.4952147E-2,2.846545E-1,-1.23983845E-1,-1.4348228E-1,-3.8560864E-1,5.7255083E-1,-6.258889E-2,-2.0103866E-1,3.5281545E-1,-7.782093E-1,1.6870804E-2,-6.5606825E-2,1.4608423E-1,-2.2378252E-1,2.0501009E-1],"categories":[],"categories_nodes":[],"categories_segments":[],"categories_sizes":[],"default_left":[1,1,1,1,0,1,1,1,1,1,0,0,1,1,1,0,1,1,0,1,1,1,1,1,0,0,0,0,0,0,0,0,1,0,0,0,0,0,0,0,0],"id":7,"left_children":[1,3,5,7,-1,9,11,13,15,17,-1,-1,19,21,23,-1,25,27,-1,29,31,33,35,37,-1,-1,-1,-1,-1,-1,-1,-1,39,-1,-1,-1,-1,-1,-1,-1,-1],"loss_changes":[4.6990228E-1,2.1767336E-1,5.084983E-1,2.6786187E-1,0E0,4.113691E-1,5.4850763E-1,5.272132E-1,1.5419966E0,6.4241564E-1,0E0,0E0,5.5314356E-1,5.671796E-1,2.7930295E-1,0E0,3.2727447E-1,2.7063555E-1,0E0,2.3738801E-2,6.746884E-1,3.3553472E-1,9.881971E-1,2.750961E-1,0E0,0E0,0E0,0E0,0E0,0E0,0E0,0E0,4.0403453E-1,0E0,0E0,0E0,0E0,0E0,0E0,0E0,0E0],"parents":[2147483647,0,0,1,1,2,2,3,3,5,5,6,6,7,7,8,8,9,9,12,12,13,13,14,14,16,16,17,17,19,19,20,20,21,21,22,22,23,23,32,32],"right_children":[2,4,6,8,-1,10,12,14,16,18,-1,-1,20,22,24,-1,26,28,-1,30,32,34,36,38,-1,-1,-1,-1,-1,-1,-1,-1,40,-1,-1,-1,-1,-1,-1,-1,-1],"split_conditions":[5E-1,1.5E0,5E-1,5E-1,-3.5121784E-1,1.4107706E2,7.74375E0,5E-1,5E-1,2.6125E1,-1.7814103E-1,4.1683143E-1,9.1E0,8.2854E0,5E-1,6.336045E-1,4.4779198E1,5E-1,7.2637343E-1,7.8416996E0,1.01521E1,7.8354E0,2.6275E1,2.579375E1,-3.4732464E-1,-5.497375E-1,4.4952147E-2,2.846545E-1,-1.23983845E-1,-1.4348228E-1,-3.8560864E-1,5.7255083E-1,2.023125E1,-2.0103866E-1,3.5281545E-1,-7.782093E-1,1.6870804E-2,-6.5606825E-2,1.4608423E-1,-2.2378252E-1,2.0501009E-1],"split_indices":[3,1,10,0,0,2,2,5,5,2,0,0,2,2,14,0,2,1,0,2,2,2,2,2,0,0,0,0,0,0,0,0,2,0,0,0,0,0,0,0,0],"split_type":[0,0,0,0,0,0,0,0,0,0,0,0,0,0,0,0,0,0,0,0,0,0,0,0,0,0,0,0,0,0,0,0,0,0,0,0,0,0,0,0,0],"sum_hessian":[6.3262806E1,4.004113E1,2.322168E1,3.824534E1,1.7957884E0,7.933763E0,1.5287916E1,3.342727E1,4.8180704E0,6.896963E0,1.0367999E0,1.5334648E0,1.3754451E1,7.8657703E0,2.5561499E1,2.1785018E0,2.6395686E0,4.780051E0,2.116912E0,5.3380604E0,8.416391E0,2.4508886E0,5.4148817E0,2.4224363E1,1.337135E0,1.3401886E0,1.2993801E0,2.647365E0,2.1326861E0,2.5390387E0,2.7990217E0,1.113279E0,7.303112E0,1.3416288E0,1.1092598E0,2.8555536E0,2.559328E0,1.5403229E1,8.8211355E0,4.659879E0,2.6432328E0],"tree_param":{"num_deleted":"0","num_feature":"24","num_nodes":"41","size_leaf_vector":"0"}},{"base_weights":[2.4896264E-3,2.2207532E-2,-2.0929135E-1,2.5372363E-3,4.8103365E-1,-1.9381972E-2,-4.6610528E-1,1.6334265E-2,-3.4681737E-1,-2.8764632E-1,1.6666938E-1,1.19591005E-1,-2.1866245E-2,5.2753344E-2,4.22453E-1,-7.747E-2,1.0612301E-1,1.4942424E-1,-4.5526925E-1,2.774943E-1,-1.03949174E-1,1.7433015E-1,-3.0655935E-1],"categories":[],"categories_nodes":[],"categories_segments":[],"categories_sizes":[],"default_left":[1,1,1,1,0,1,0,1,0,0,0,1,1,1,0,1,1,0,0,0,0,0,0],"id":8,"left_children":[1,3,5,7,-1,9,-1,11,-1,-1,-1,13,15,17,-1,19,21,-1,-1,-1,-1,-1,-1],"loss_changes":[2.5706598E-1,5.060187E-1,2.4674629E-1,2.7027243E-1,0E0,2.5049797E-1,0E0,2.1469486E-1,0E0,0E0,0E0,2.7475828E-1,2.9354542E-1,7.1452403E-1,0E0,2.9698288E-1,4.0710625E-1,0E0,0E0,0E0,0E0,0E0,0E0],"parents":[2147483647,0,0,1,1,2,2,3,3,5,5,7,7,11,11,12,12,13,13,15,15,16,16],"right_children":[2,4,6,8,-1,10,-1,12,-1,-1,-1,14,16,18,-1,20,22,-1,-1,-1,-1,-1,-1],"split_conditions":[5E-1,8.266455E1,5E-1,7.700835E1,4.8103365E-1,2.985E1,-4.6610528E-1,5E-1,-3.4681737E-1,-2.8764632E-1,1.6666938E-1,3.5077103E1,5E-1,2.7135399E1,4.22453E-1,7.19585E0,5.28271E1,1.4942424E-1,-4.5526925E-1,2.774943E-1,-1.03949174E-1,1.7433015E-1,-3.0655935E-1],"split_indices":[13,2,1,2,0,2,0,22,0,0,0,2,1,2,0,2,2,0,0,0,0,0,0],"split_type":[0,0,0,0,0,0,0,0,0,0,0,0,0,0,0,0,0,0,0,0,0,0,0],"sum_hessian":[5.9446735E1,5.520226E1,4.244477E0,5.3897167E1,1.305091E0,3.058351E0,1.1861259E0,5.276651E1,1.1306583E0,1.0288339E0,2.0295172E0,1.3674216E1,3.9092293E1,1.216397E1,1.5102459E0,2.7527805E1,1.15644865E1,1.081237E1,1.3515997E0,1.2528689E0,2.6274937E1,1.0419882E1,1.1446048E0],"tree_param":{"num_deleted":"0","num_feature":"24","num_nodes":"23","size_leaf_vector":"0"}},{"base_weights":[-6.708257E-3,-1.5463771E-1,1.1729963E-2,-4.3881384E-1,2.3650311E-2,1.581856E-1,-2.7497202E-2,-2.0518124E-1,1.6189109E-1,2.1761017E-2,3.6783153E-1,-2.8300205E-1,1.202205E-2,2.8292456E-1,-7.690999E-2,1.0201053E-1,-2.659347E-1,-4.822072E-2,-4.6434492E-1,2.443973E-1,-5.152063E-2,-1.7983423E-1,2.1872479E-1,2.3781112E-1,-2.917127E-1,-1.14676446E-1,3.3226836E-1,-4.8953283E-1,-6.585717E-3,2.103279E-3,4.264633E-1,4.1950682E-1,8.495034E-2,3.202068E-1,-4.020691E-2],"categories":[],"categories_nodes":[],"categories_segments":[],"categories_sizes":[],"default_left":[1,1,1,0,1,1,1,0,1,1,0,1,1,0,0,1,0,1,0,1,1,0,1,0,0,0,1,0,1,0,0,0,0,0,0],"id":9,"left_children":[1,3,5,-1,7,9,11,-1,13,15,-1,17,19,-1,-1,21,-1,23,-1,25,27,-1,29,-1,-1,-1,31,-1,33,-1,-1,-1,-1,-1,-1],"loss_changes":[1.6433473E-1,3.4852666E-1,3.1406826E-1,0E0,1.9296879E-1,3.2196915E-1,4.4135934E-1,0E0,1.2890676E-1,2.13028E-1,0E0,2.2670925E-1,5.814077E-1,0E0,0E0,2.7021292E-1,0E0,3.2466668E-1,0E0,3.0459666E-1,6.084266E-1,0E0,2.4275786E-1,0E0,0E0,0E0,1.16301775E-1,0E0,3.336857E-1,0E0,0E0,0E0,0E0,0E0,0E0],"parents":[2147483647,0,0,1,1,2,2,4,4,5,5,6,6,8,8,9,9,11,11,12,12,15,15,17,17,19,19,20,20,22,22,26,26,28,28],"right_children":[2,4,6,-1,8,10,12,-1,14,16,-1,18,20,-1,-1,22,-1,24,-1,26,28,-1,30,-1,-1,-1,32,-1,34,-1,-1,-1,-1,-1,-1],"split_conditions":[7.6000004E0,5E-1,7.9875E0,-4.3881384E-1,7.13335E0,7.9104004E0,9.2875E0,-2.0518124E-1,7.2396E0,7.8646E0,3.6783153E-1,8.125E0,1.39854E1,2.8292456E-1,-7.690999E-2,5E-1,-2.659347E-1,5E-1,-4.6434492E-1,5E-1,1.51729E1,-1.7983423E-1,7.7854004E0,2.3781112E-1,-2.917127E-1,-1.14676446E-1,1.25E1,-4.8953283E-1,1.6E1,2.103279E-3,4.264633E-1,4.1950682E-1,8.495034E-2,3.202068E-1,-4.020691E-2],"split_indices":[2,5,2,0,2,2,2,0,2,2,0,2,2,0,0,5,0,5,0,19,2,0,2,0,0,0,2,0,2,0,0,0,0,0,0],"split_type":[0,0,0,0,0,0,0,0,0,0,0,0,0,0,0,0,0,0,0,0,0,0,0,0,0,0,0,0,0,0,0,0,0,0,0],"sum_hessian":[5.8584793E1,5.674178E0,5.2910614E1,1.6241522E0,4.050026E0,1.05371895E1,4.2373425E1,1.3428915E0,2.7071347E0,7.0519896E0,3.4851997E0,4.8507333E0,3.752269E1,1.6739448E0,1.0331898E0,6.0185924E0,1.0333972E0,2.6655734E0,2.1851602E0,7.446111E0,3.007658E1,1.6041178E0,4.414475E0,1.236444E0,1.4291294E0,1.4039594E0,6.042152E0,1.877826E0,2.8198753E1,2.655524E0,1.7589508E0,3.9519312E0,2.0902207E0,1.8353631E0,2.636339E1],"tree_param":{"num_deleted":"0","num_feature":"24","num_nodes":"35","size_leaf_vector":"0"}},{"base_weights":[-1.6977955E-2,7.316855E-2,-5.113609E-2,-2.8568322E-2,2.4472219E-1,-9.259094E-2,2.7935294E-2,-2.0000486E-1,9.2548124E-2,3.8457197E-1,-1.1756819E-1,-4.5062173E-2,-4.481243E-1,8.210574E-2,-3.1476298E-1,-2.7231938E-1,-1.0543261E-1,3.60666E-1,-3.978702E-2,-9.820183E-2,2.6682413E-1,1.9164145E-1,-8.03472E-2,2.1995177E-2,-1.780413E-1,-1.5524763E-1,8.43551E-2,3.3877957E-1,-1.3644674E-1,4.7193975E-3,3.925385E-1,4.4754695E-2,4.3542314E-1,-3.625326E-1,9.245143E-2,-4.7780704E-2,-1.9251443E-1,1.8260482E-1,-7.2813325E-2,2.6949757E-1,-1.7312583E-1,1.4190419E-1,-1.429091E-1,2.65382E-1,-2.1585232E-1],"categories":[],"categories_nodes":[],"categories_segments":[],"categories_sizes":[],"default_left":[1,1,1,1,1,1,1,1,1,0,0,1,0,1,0,0,1,0,1,1,1,1,1,0,0,1,1,0,1,0,0,1,0,0,1,0,0,0,0,0,0,0,0,0,0],"id":10,"left_children":[1,3,5,7,9,11,13,15,17,-1,-1,19,-1,21,-1,-1,23,-1,25,27,29,31,33,-1,-1,35,37,-1,39,-1,-1,41,-1,-1,43,-1,-1,-1,-1,-1,-1,-1,-1,-1,-1],"loss_changes":[1.8546651E-1,2.9721695E-1,1.4480633E-1,2.5384346E-1,3.641487E-1,4.647175E-1,3.1713942E-1,5.5417717E-3,2.742619E-1,0E0,0E0,4.6414503E-1,0E0,2.7061677E-1,0E0,0E0,3.9093852E-2,0E0,9.6304916E-2,4.357626E-1,1.337646E-1,2.978447E-1,3.4952328E-1,0E0,0E0,4.2574927E-3,6.6498585E-2,0E0,3.763959E-1,0E0,0E0,1.4141874E-1,0E0,0E0,3.140591E-1,0E0,0E0,0E0,0E0,0E0,0E0,0E0,0E0,0E0,0E0],"parents":[2147483647,0,0,1,1,2,2,3,3,4,4,5,5,6,6,7,7,8,8,11,11,13,13,16,16,18,18,19,19,20,20,21,21,22,22,25,25,26,26,28,28,31,31,34,34],"right_children":[2,4,6,8,10,12,14,16,18,-1,-1,20,-1,22,-1,-1,24,-1,26,28,30,32,34,-1,-1,36,38,-1,40,-1,-1,42,-1,-1,44,-1,-1,-1,-1,-1,-1,-1,-1,-1,-1],"split_conditions":[5E-1,5E-1,2.59271E1,1.336875E1,5E-1,2.07875E1,5E-1,7.2271E0,2.7135399E1,3.8457197E-1,-1.1756819E-1,5E-1,-4.481243E-1,3.275E1,-3.1476298E-1,-2.7231938E-1,7.4771E0,3.60666E-1,6.2668747E1,5E-1,5E-1,2.875E1,5.1247902E1,2.1995177E-2,-1.780413E-1,3.2827103E1,9.99896E1,3.3877957E-1,7.19585E0,4.7193975E-3,3.925385E-1,5E-1,4.3542314E-1,-3.625326E-1,5E-1,-4.7780704E-2,-1.9251443E-1,1.8260482E-1,-7.2813325E-2,2.6949757E-1,-1.7312583E-1,1.4190419E-1,-1.429091E-1,2.65382E-1,-2.1585232E-1],"split_indices":[22,3,2,2,5,2,14,2,2,0,0,0,0,2,0,0,2,0,2,19,1,2,2,0,0,2,2,0,2,0,0,3,0,0,13,0,0,0,0,0,0,0,0,0,0],"split_type":[0,0,0,0,0,0,0,0,0,0,0,0,0,0,0,0,0,0,0,0,0,0,0,0,0,0,0,0,0,0,0,0,0,0,0,0,0,0,0,0,0,0,0,0,0],"sum_hessian":[5.801623E1,1.5628667E1,4.238756E1,1.0333838E1,5.294829E0,2.7696241E1,1.4691321E1,4.008537E0,6.3253016E0,3.7758062E0,1.5190227E0,2.5424202E1,2.272039E0,1.3342656E1,1.348665E0,1.2065022E0,2.8020344E0,1.5201006E0,4.805201E0,2.23084E1,3.1158037E0,7.861965E0,5.4806914E0,1.2700962E0,1.5319383E0,2.3598328E0,2.4453683E0,1.1629153E0,2.1145483E1,1.3463367E0,1.7694669E0,5.6445293E0,2.2174358E0,1.6645025E0,3.8161888E0,1.1952358E0,1.1645969E0,1.4051402E0,1.0402281E0,1.2262764E0,1.9919207E1,3.879852E0,1.7646773E0,2.5340402E0,1.2821487E0],"tree_param":{"num_deleted":"0","num_feature":"24","num_nodes":"45","size_leaf_vector":"0"}},{"base_weights":[2.5840849E-3,-2.6731873E-1,1.4656919E-2,7.380003E-2,-3.088368E-2,1.2094407E-1,-3.4683743E-1,7.883957E-2,-1.950207E-1,1.6267518E-2,3.3699486E-1,-1.8829001E-1,1.8667048E-1,-7.47445E-2,-2.964858E-1,1.0056354E-1,-2.1431519E-1,5.0254583E-1,1.445487E-1,-2.6163536E-1,5.421589E-2,2.4266279E-1,-1.478985E-1,1.0487378E-1,-3.095544E-1,-3.974702E-1,7.999846E-2,-8.319427E-3,5.005298E-1,-3.7809986E-1,9.408321E-2,1.8924244E-2,2.5828728E-1,-3.9916694E-1,-7.2351344E-2,1.6029955E-1,5.653532E-1,2.924384E-1,-2.1161571E-1,-4.728201E-1,-2.7656954E-2,7.749648E-3,-6.017829E-1],"categories":[],"categories_nodes":[],"categories_segments":[],"categories_sizes":[],"default_left":[1,0,1,1,1,1,0,1,1,1,1,1,1,1,1,1,1,0,1,1,0,1,0,1,1,1,0,0,0,0,0,0,0,0,0,0,0,0,0,0,0,0,0],"id":11,"left_children":[1,-1,3,5,7,9,-1,11,13,15,17,19,21,23,25,27,29,-1,31,33,-1,35,-1,37,39,41,-1,-1,-1,-1,-1,-1,-1,-1,-1,-1,-1,-1,-1,-1,-1,-1,-1],"loss_changes":[1.9107808E-1,0E0,1.5291217E-1,5.3026974E-1,5.971179E-1,5.120598E-1,0E0,6.133192E-1,1.3929236E-1,3.4161133E-1,1.6369659E-1,1.2570974E-1,3.1317735E-1,3.441782E-1,2.9180664E-1,5.5893046E-1,2.743663E-1,0E0,6.4184606E-2,1.00911915E-1,0E0,2.5644094E-1,0E0,3.5480517E-1,1.4599696E-1,4.649886E-1,0E0,0E0,0E0,0E0,0E0,0E0,0E0,0E0,0E0,0E0,0E0,0E0,0E0,0E0,0E0,0E0,0E0],"parents":[2147483647,0,0,2,2,3,3,4,4,5,5,7,7,8,8,9,9,10,10,11,11,12,12,13,13,14,14,15,15,16,16,18,18,19,19,21,21,23,23,24,24,25,25],"right_children":[2,-1,4,6,8,10,-1,12,14,16,18,20,22,24,26,28,30,-1,32,34,-1,36,-1,38,40,42,-1,-1,-1,-1,-1,-1,-1,-1,-1,-1,-1,-1,-1,-1,-1,-1,-1],"split_conditions":[7.13335E0,-2.6731873E-1,5E-1,5E-1,9.54375E0,5E-1,-3.4683743E-1,5E-1,5E-1,5.28271E1,5E-1,5E-1,5E-1,1.5E0,2.023125E1,3.525E1,5E-1,5.0254583E-1,2.6125E1,7.8667E0,5.421589E-2,8.65835E0,-1.478985E-1,5E-1,3.133125E1,5E-1,7.999846E-2,-8.319427E-3,5.005298E-1,-3.7809986E-1,9.408321E-2,1.8924244E-2,2.5828728E-1,-3.9916694E-1,-7.2351344E-2,1.6029955E-1,5.653532E-1,2.924384E-1,-2.1161571E-1,-4.728201E-1,-2.7656954E-2,7.749648E-3,-6.017829E-1],"split_indices":[2,0,10,15,2,3,0,5,5,2,1,20,20,1,2,2,12,0,2,2,0,2,0,20,2,1,0,0,0,0,0,0,0,0,0,0,0,0,0,0,0,0,0],"split_type":[0,0,0,0,0,0,0,0,0,0,0,0,0,0,0,0,0,0,0,0,0,0,0,0,0,0,0,0,0,0,0,0,0,0,0,0,0,0,0,0,0,0,0],"sum_hessian":[5.6437614E1,1.5111803E0,5.4926437E1,2.362472E1,3.1301716E1,2.188444E1,1.7402815E0,1.9072018E1,1.2229698E1,1.546631E1,6.418129E0,5.2701387E0,1.3801879E1,6.3907676E0,5.8389306E0,1.173875E1,3.7275598E0,2.583944E0,3.834185E0,3.9857697E0,1.284369E0,1.2058509E1,1.74337E0,3.934461E0,2.4563065E0,4.5600467E0,1.2788838E0,9.996577E0,1.7421725E0,2.2869773E0,1.4405825E0,2.3761294E0,1.4580554E0,1.6662594E0,2.3195102E0,1.0798953E1,1.259556E0,2.518116E0,1.4163451E0,1.1265618E0,1.3297447E0,1.8509899E0,2.7090569E0],"tree_param":{"num_deleted":"0","num_feature":"24","num_nodes":"43","size_leaf_vector":"0"}},{"base_weights":[-9.1684E-3,-2.3343999E-2,2.1718654E-1,-8.6166525E-5,-1.5957102E-1,2.9601604E-1,1.4213827E-2,-6.764731E-2,1.1162759E-1,-2.8985617E-1,1.0893179E-1,2.1477167E-2,-2.0950972E-1,3.5208157E-1,3.9889574E-2,-5.546545E-1,9.7218595E-2,2.7015796E-1,-1.0043559E-1,-1.7013138E-2,2.0032068E-1,-2.7563235E-1,6.1742496E-2,6.668615E-4,4.897135E-1,-3.4546053E-1,1.17792204E-1,-1.1087213E-1,-7.174781E-1,2.0803553E-1,-6.2364697E-2,-6.002779E-2,9.670898E-2,-1.9663078E-1,-4.6605116E-1,3.5590085E-1,6.01381E-2],"categories":[],"categories_nodes":[],"categories_segments":[],"categories_sizes":[],"default_left":[1,1,1,1,1,0,0,1,1,1,1,1,1,1,1,1,1,0,0,1,0,1,0,0,0,0,1,0,0,0,0,0,0,0,0,0,0],"id":12,"left_children":[1,3,5,7,9,-1,-1,11,13,15,17,19,21,23,25,27,29,-1,-1,31,-1,33,-1,-1,-1,-1,35,-1,-1,-1,-1,-1,-1,-1,-1,-1,-1],"loss_changes":[1.8634096E-1,1.7128862E-1,5.061677E-2,3.636635E-1,3.0737472E-1,0E0,0E0,3.8410833E-1,2.991845E-1,6.260067E-1,1.3861418E-1,1.365853E-1,2.2646636E-1,1.9530576E-1,4.9440205E-1,1.7070794E-1,6.811666E-2,0E0,0E0,8.819163E-2,0E0,5.235368E-2,0E0,0E0,0E0,0E0,1.6142315E-1,0E0,0E0,0E0,0E0,0E0,0E0,0E0,0E0,0E0,0E0],"parents":[2147483647,0,0,1,1,2,2,3,3,4,4,7,7,8,8,9,9,10,10,11,11,12,12,13,13,14,14,15,15,16,16,19,19,21,21,26,26],"right_children":[2,4,6,8,10,-1,-1,12,14,16,18,20,22,24,26,28,30,-1,-1,32,-1,34,-1,-1,-1,-1,36,-1,-1,-1,-1,-1,-1,-1,-1,-1,-1],"split_conditions":[5E-1,3.6125E1,5.28271E1,1.564585E1,7.96E1,2.9601604E-1,1.4213827E-2,8.125E0,1.9733349E1,5E-1,5E-1,5E-1,5E-1,5E-1,2.155E1,5E-1,5E-1,2.7015796E-1,-1.0043559E-1,5E-1,2.0032068E-1,5E-1,6.1742496E-2,6.668615E-4,4.897135E-1,-3.4546053E-1,2.480835E1,-1.1087213E-1,-7.174781E-1,2.0803553E-1,-6.2364697E-2,-6.002779E-2,9.670898E-2,-1.9663078E-1,-4.6605116E-1,3.5590085E-1,6.01381E-2],"split_indices":[14,2,2,2,2,0,0,2,2,1,1,21,20,3,2,8,0,0,0,3,0,1,0,0,0,0,2,0,0,0,0,0,0,0,0,0,0],"split_type":[0,0,0,0,0,0,0,0,0,0,0,0,0,0,0,0,0,0,0,0,0,0,0,0,0,0,0,0,0,0,0,0,0,0,0,0,0],"sum_hessian":[5.549329E1,5.3066822E1,2.426468E0,4.6182743E1,6.884077E0,1.4175313E0,1.0089365E0,2.9024221E1,1.7158522E1,4.5814843E0,2.3025928E0,1.8346632E1,1.0677589E1,3.0448408E0,1.4113682E1,2.4633586E0,2.1181257E0,1.1368176E0,1.1657753E0,1.5842019E1,2.504613E0,8.571889E0,2.105701E0,1.1396993E0,1.9051415E0,1.7958556E0,1.2317826E1,1.1124004E0,1.3509582E0,1.0708766E0,1.0472492E0,1.1836931E1,4.005088E0,7.494972E0,1.0769163E0,1.3927599E0,1.0925066E1],"tree_param":{"num_deleted":"0","num_feature":"24","num_nodes":"37","size_leaf_vector":"0"}},{"base_weights":[-1.8210954E-3,-2.8543454E-2,1.0055975E-1,2.9818676E-2,-1.3350269E-1,-2.9064707E-2,2.5192052E-1,-1.2033475E-2,3.7075374E-1,-6.334714E-2,-3.0072248E-1,1.0784844E-1,-2.5569457E-1,3.5974166E-1,2.8939182E-2,2.8524436E-2,-3.8086244E-1,-8.119493E-3,-3.1968307E-1,-5.547337E-1,-5.2762758E-2,2.605975E-1,-1.1000024E-1,-2.8210552E-2,2.8873432E-1,9.0906404E-2,-2.0549522E-1,-1.5380083E-1,7.73572E-2,6.475113E-3,3.7795484E-1,-4.4443104E-1,1.6704997E-2,-1.2312239E-1,2.1973714E-1,-3.422196E-1,3.2846395E-2],"categories":[],"categories_nodes":[],"categories_segments":[],"categories_sizes":[],"default_left":[1,1,1,1,1,1,1,1,0,1,1,1,0,0,0,1,0,1,0,0,1,1,0,1,0,1,1,0,0,0,0,0,0,0,0,0,0],"id":13,"left_children":[1,3,5,7,9,11,13,15,-1,17,19,21,-1,-1,-1,23,-1,25,-1,-1,27,29,-1,31,-1,33,35,-1,-1,-1,-1,-1,-1,-1,-1,-1,-1],"loss_changes":[1.5190604E-1,2.733769E-1,2.3288521E-1,4.19405E-1,1.6745648E-1,2.4755403E-1,1.1958614E-1,4.1280147E-1,0E0,1.738876E-1,2.4986291E-1,1.9913599E-1,0E0,0E0,0E0,3.792545E-1,0E0,2.3920248E-1,0E0,0E0,5.5910077E-2,9.621386E-2,0E0,4.1027716E-1,0E0,2.533349E-1,1.4407027E-1,0E0,0E0,0E0,0E0,0E0,0E0,0E0,0E0,0E0,0E0],"parents":[2147483647,0,0,1,1,2,2,3,3,4,4,5,5,6,6,7,7,9,9,10,10,11,11,15,15,17,17,20,20,21,21,23,23,25,25,26,26],"right_children":[2,4,6,8,10,12,14,16,-1,18,20,22,-1,-1,-1,24,-1,26,-1,-1,28,30,-1,32,-1,34,36,-1,-1,-1,-1,-1,-1,-1,-1,-1,-1],"split_conditions":[5E-1,2.37E1,5E-1,2.023125E1,5E-1,5E-1,7.873335E1,1.6E1,3.7075374E-1,5E-1,3.133125E1,8.5896E0,-2.5569457E-1,3.5974166E-1,2.8939182E-2,1.228125E1,-3.8086244E-1,5E-1,-3.1968307E-1,-5.547337E-1,3E0,7.2271E0,-1.1000024E-1,5E-1,2.8873432E-1,2.631875E1,3.525E1,-1.5380083E-1,7.73572E-2,6.475113E-3,3.7795484E-1,-4.4443104E-1,1.6704997E-2,-1.2312239E-1,2.1973714E-1,-3.422196E-1,3.2846395E-2],"split_indices":[20,2,8,2,10,1,2,2,0,14,2,2,0,0,0,2,0,13,0,0,1,2,0,19,0,2,2,0,0,0,0,0,0,0,0,0,0],"split_type":[0,0,0,0,0,0,0,0,0,0,0,0,0,0,0,0,0,0,0,0,0,0,0,0,0,0,0,0,0,0,0,0,0,0,0,0,0],"sum_hessian":[5.347496E1,4.2978397E1,1.0496561E1,2.8080345E1,1.4898052E1,6.0895147E0,4.4070463E0,2.5869402E1,2.2109447E0,1.1466297E1,3.4317553E0,4.1228886E0,1.9666262E0,2.557202E0,1.8498443E0,2.4137777E1,1.7316245E0,1.0282586E1,1.1837109E0,1.084053E0,2.3477023E0,2.3082087E0,1.8146796E0,2.054896E1,3.5888174E0,7.2064457E0,3.0761406E0,1.2190882E0,1.128614E0,1.0625551E0,1.2456536E0,1.1351365E0,1.9413824E1,2.724498E0,4.481948E0,1.677823E0,1.3983176E0],"tree_param":{"num_deleted":"0","num_feature":"24","num_nodes":"37","size_leaf_vector":"0"}},{"base_weights":[-1.8249901E-2,-2.9685155E-2,1.5788178E-1,-1.6047595E-2,-2.902062E-1,2.1291703E-1,4.5849517E-2,-4.163816E-2,1.894855E-1,-5.7679582E-2,1.8934707E-1,-2.1341577E-1,3.9814195E-1,1.417924E-1,-7.897894E-2,1.1132408E-2,2.696868E-1,3.7301335E-2,6.166138E-1,-8.8787615E-2,2.42183E-1,1.5272904E-2,-1.0221822E-1],"categories":[],"categories_nodes":[],"categories_segments":[],"categories_sizes":[],"default_left":[1,1,1,1,0,0,0,1,1,1,1,0,1,1,1,0,0,0,0,0,0,0,0],"id":14,"left_children":[1,3,5,7,-1,-1,-1,9,11,13,15,-1,17,19,21,-1,-1,-1,-1,-1,-1,-1,-1],"loss_changes":[1.1356042E-1,1.7867689E-1,1.15331635E-2,2.713662E-1,0E0,0E0,0E0,1.7902026E-1,5.663941E-1,1.9468491E-1,4.25212E-2,0E0,3.0192977E-1,1.2623194E-1,8.8436574E-2,0E0,0E0,0E0,0E0,0E0,0E0,0E0,0E0],"parents":[2147483647,0,0,1,1,2,2,3,3,7,7,8,8,9,9,10,10,12,12,13,13,14,14],"right_children":[2,4,6,8,-1,-1,-1,10,12,14,16,-1,18,20,22,-1,-1,-1,-1,-1,-1,-1,-1],"split_conditions":[2.5E0,1.1207915E2,3.5E0,5E-1,-2.902062E-1,2.1291703E-1,4.5849517E-2,5E-1,1.087085E1,7.2396E0,4.294165E1,-2.1341577E-1,5E-1,7.13335E0,5E-1,1.1132408E-2,2.696868E-1,3.7301335E-2,6.166138E-1,-8.8787615E-2,2.42183E-1,1.5272904E-2,-1.0221822E-1],"split_indices":[1,2,1,6,0,0,0,14,2,2,2,0,1,2,19,0,0,0,0,0,0,0,0],"split_type":[0,0,0,0,0,0,0,0,0,0,0,0,0,0,0,0,0,0,0,0,0,0,0],"sum_hessian":[5.305547E1,5.0601646E1,2.4538233E0,4.909334E1,1.5083033E0,1.0416306E0,1.4121927E0,4.4366734E1,4.7266097E0,4.2187214E1,2.1795213E0,1.6048825E0,3.1217272E0,3.5243134E0,3.86629E1,1.0310179E0,1.1485034E0,1.6187856E0,1.5029416E0,1.1040584E0,2.4202552E0,7.715172E0,3.0947727E1],"tree_param":{"num_deleted":"0","num_feature":"24","num_nodes":"23","size_leaf_vector":"0"}},{"base_weights":[1.4299443E-2,5.1685195E-2,-9.460139E-2,-6.436542E-2,8.735556E-2,-4.2015442E-1,-1.808375E-2,2.026474E-1,-1.2621994E-1,1.265621E-1,3.0018713E-2,-8.948236E-2,2.7318665E-1,-2.8551558E-1,8.373261E-2,1.9028148E-1,-1.0398087E-3,-7.4952506E-2,1.3387738E-1,1.2319823E-1,-1.6059749E-1,-3.2975703E-1,-5.4183476E-2,3.5432875E-1,-1.22509964E-1,1.02975175E-1,4.9756855E-1,-2.3765256E-1,1.656054E-1,-2.6683226E-1,5.9587494E-2,3.0590373E-1,-1.2258646E-1,-3.27937E-1,-3.0834008E-2,4.889919E-2,-2.3706011E-1,2.2158633E-1,-2.065622E-1,-2.551984E-2,-3.2967308E-1,5.6399945E-2,2.005303E-1,-4.156915E-2,-3.553709E-1,2.7801162E-1,-1.9264884E-1,8.8962026E-2,5.485515E-1,-1.5347795E-1,-4.6831284E-2,8.230479E-2,-2.3740587E-1],"categories":[],"categories_nodes":[],"categories_segments":[],"categories_sizes":[],"default_left":[1,1,1,1,1,0,1,0,1,1,1,1,0,1,1,1,1,1,1,0,1,0,0,0,1,1,0,1,1,1,1,1,1,0,1,0,0,0,0,0,0,0,0,0,0,0,0,0,0,0,0,0,0],"id":15,"left_children":[1,3,5,7,9,-1,11,-1,13,15,17,19,-1,21,23,25,27,29,31,-1,33,-1,-1,-1,35,37,-1,39,41,43,45,47,49,-1,51,-1,-1,-1,-1,-1,-1,-1,-1,-1,-1,-1,-1,-1,-1,-1,-1,-1,-1],"loss_changes":[2.211806E-1,1.7201258E-1,3.3941317E-1,1.9116396E-1,6.626849E-2,0E0,2.8074327E-1,0E0,3.1675795E-1,1.4817974E-1,1.6232502E-1,1.808828E-1,0E0,3.5408765E-2,2.9737952E-1,2.745681E-1,3.1758428E-1,2.1179536E-1,3.631184E-1,0E0,1.7264412E-1,0E0,0E0,0E0,7.688883E-2,4.392845E-1,0E0,5.6524187E-2,6.7286044E-3,5.124788E-2,3.4435213E-1,1.9879702E-1,1.4172681E-3,0E0,1.5612485E-1,0E0,0E0,0E0,0E0,0E0,0E0,0E0,0E0,0E0,0E0,0E0,0E0,0E0,0E0,0E0,0E0,0E0,0E0],"parents":[2147483647,0,0,1,1,2,2,3,3,4,4,6,6,8,8,9,9,10,10,11,11,13,13,14,14,15,15,16,16,17,17,18,18,20,20,24,24,25,25,27,27,28,28,29,29,30,30,31,31,32,32,34,34],"right_children":[2,4,6,8,10,-1,12,-1,14,16,18,20,-1,22,24,26,28,30,32,-1,34,-1,-1,-1,36,38,-1,40,42,44,46,48,50,-1,52,-1,-1,-1,-1,-1,-1,-1,-1,-1,-1,-1,-1,-1,-1,-1,-1,-1,-1],"split_conditions":[2.6775E1,7.78125E0,3.02854E1,7.1833496E0,5E-1,-4.2015442E-1,5E-1,2.026474E-1,5E-1,1.39854E1,5E-1,3.275E1,2.7318665E-1,7.6000004E0,7.74375E0,1.29375E1,2.59625E1,9.1E0,2.07625E1,1.2319823E-1,5.22771E1,-3.2975703E-1,-5.4183476E-2,3.5432875E-1,5E-1,8.6875E0,4.9756855E-1,5E-1,5E-1,7.9021E0,1.2825E1,1.675E1,2.5733349E1,-3.27937E-1,1.1207915E2,4.889919E-2,-2.3706011E-1,2.2158633E-1,-2.065622E-1,-2.551984E-2,-3.2967308E-1,5.6399945E-2,2.005303E-1,-4.156915E-2,-3.553709E-1,2.7801162E-1,-1.9264884E-1,8.8962026E-2,5.485515E-1,-1.5347795E-1,-4.6831284E-2,8.230479E-2,-2.3740587E-1],"split_indices":[2,2,2,2,3,0,12,0,3,2,1,2,0,2,2,2,2,2,2,0,2,0,0,0,21,2,0,22,19,2,2,2,2,0,2,0,0,0,0,0,0,0,0,0,0,0,0,0,0,0,0,0,0],"split_type":[0,0,0,0,0,0,0,0,0,0,0,0,0,0,0,0,0,0,0,0,0,0,0,0,0,0,0,0,0,0,0,0,0,0,0,0,0,0,0,0,0,0,0,0,0,0,0,0,0,0,0,0,0],"sum_hessian":[5.2125286E1,3.9195E1,1.2930286E1,9.025811E0,3.016919E1,1.6060815E0,1.1324205E1,1.2694918E0,7.7563195E0,1.7200357E1,1.2968831E1,9.651207E0,1.6729978E0,4.2055616E0,3.550758E0,1.1144181E1,6.056177E0,6.5882893E0,6.3805423E0,2.2349305E0,7.416277E0,3.1732235E0,1.0323383E0,1.2252178E0,2.32554E0,9.718168E0,1.4260125E0,2.326614E0,3.7295632E0,2.3102038E0,4.2780857E0,3.7035582E0,2.6769838E0,2.5721326E0,4.8441443E0,1.1611509E0,1.1643891E0,7.2313395E0,2.486829E0,1.0903602E0,1.2362536E0,1.5373548E0,2.1922085E0,1.0664378E0,1.2437658E0,2.2379472E0,2.0401382E0,2.6768887E0,1.0266695E0,1.1727755E0,1.5042084E0,3.5185907E0,1.3255535E0],"tree_param":{"num_deleted":"0","num_feature":"24","num_nodes":"53","size_leaf_vector":"0"}},{"base_weights":[-5.786037E-3,7.799508E-2,-3.6943417E-2,1.8786477E-2,1.6861738E-1,-9.948089E-2,-2.2778092E-3,-6.040742E-2,7.2367534E-2,2.4450429E-1,-3.902476E-2,7.983759E-3,-6.820498E-1,4.697746E-1,-5.8697965E-2,-2.883991E-4,-1.1763582E-1,2.5884187E-1,-3.7084848E-2,2.951998E-1,6.9737926E-2,-7.0585206E-2,1.7599615E-1,-9.6557E-2,1.6208978E-1,-1.4803836E-1,9.011729E-2,1.0584261E-1,-1.1433184E-1,3.466714E-1,2.2423115E-2,-1.31877E-1,1.6628295E-1,3.385404E-1,-5.4063052E-2,-2.5376406E-1,1.3056665E-4,-1.8339832E-1,2.397561E-2],"categories":[],"categories_nodes":[],"categories_segments":[],"categories_sizes":[],"default_left":[1,1,1,1,1,1,1,1,1,1,0,1,0,0,1,0,0,0,1,0,0,1,1,1,1,0,0,0,1,0,0,1,0,0,0,0,0,0,0],"id":16,"left_children":[1,3,5,7,9,11,13,15,17,19,-1,21,-1,-1,23,-1,-1,-1,25,-1,-1,27,29,31,33,-1,-1,-1,35,-1,-1,37,-1,-1,-1,-1,-1,-1,-1],"loss_changes":[1.4150967E-1,7.580004E-2,8.51643E-2,4.6918586E-2,9.9208266E-2,8.8341415E-1,7.2975993E-1,1.576276E-2,1.4094853E-1,1.7555505E-2,0E0,1.8176214E-1,0E0,0E0,2.199331E-1,0E0,0E0,0E0,8.291968E-2,0E0,0E0,8.507185E-2,1.0686727E-1,2.2141837E-1,1.6897805E-1,0E0,0E0,0E0,1.2861544E-1,0E0,0E0,1.6098288E-1,0E0,0E0,0E0,0E0,0E0,0E0,0E0],"parents":[2147483647,0,0,1,1,2,2,3,3,4,4,5,5,6,6,7,7,8,8,9,9,11,11,14,14,18,18,21,21,22,22,23,23,24,24,28,28,31,31],"right_children":[2,4,6,8,10,12,14,16,18,20,-1,22,-1,-1,24,-1,-1,-1,26,-1,-1,28,30,32,34,-1,-1,-1,36,-1,-1,38,-1,-1,-1,-1,-1,-1,-1],"split_conditions":[5E-1,5E-1,8.08125E0,1.336875E1,5E-1,5E-1,9.54375E0,7.4771E0,2.7135399E1,5E-1,-3.902476E-2,5E-1,-6.820498E-1,4.697746E-1,5E-1,-2.883991E-4,-1.1763582E-1,2.5884187E-1,6.2668747E1,2.951998E-1,6.9737926E-2,7.19585E0,7.7625E0,2.5E0,3.075E1,-1.4803836E-1,9.011729E-2,1.0584261E-1,7.9104004E0,3.466714E-1,2.2423115E-2,5E-1,1.6628295E-1,3.385404E-1,-5.4063052E-2,-2.5376406E-1,1.3056665E-4,-1.8339832E-1,2.397561E-2],"split_indices":[22,3,2,2,5,7,2,2,2,20,0,3,0,0,7,0,0,0,2,0,0,2,2,1,2,0,0,0,2,0,0,0,0,0,0,0,0,0,0],"split_type":[0,0,0,0,0,0,0,0,0,0,0,0,0,0,0,0,0,0,0,0,0,0,0,0,0,0,0,0,0,0,0,0,0,0,0,0,0,0,0],"sum_hessian":[5.210614E1,1.3717363E1,3.8388775E1,9.0268955E0,4.690468E0,1.3023815E1,2.5364962E1,3.5913718E0,5.4355235E0,3.3050466E0,1.3854213E0,1.18282E1,1.195615E0,1.9258153E0,2.3439146E1,2.2415938E0,1.349778E0,1.5055804E0,3.9299428E0,2.0277374E0,1.2773092E0,8.454456E0,3.3737435E0,2.0488586E1,2.9505594E0,2.0115454E0,1.9183974E0,1.3977919E0,7.0566645E0,1.0023727E0,2.3713706E0,1.8500748E1,1.9878392E0,1.3127347E0,1.6378247E0,2.6326718E0,4.423993E0,1.3771471E1,4.729276E0],"tree_param":{"num_deleted":"0","num_feature":"24","num_nodes":"39","size_leaf_vector":"0"}},{"base_weights":[6.654388E-3,2.3782682E-2,-1.7970443E-1,-1.3566221E-2,8.720485E-2,-3.91577E-1,3.5098765E-2,8.1829615E-3,-3.0694106E-1,-2.8246122E-3,3.1260732E-1,1.8464185E-1,-1.3634771E-1,-1.5524855E-2,3.367006E-1,5.9521463E-2,-1.9630058E-1,5.1162493E-1,1.0011023E-2,2.1077989E-2,-2.4783637E-1,-4.8659977E-2,2.6318997E-1,-3.030858E-1,3.877032E-2,-1.3424534E-2,1.3771805E-1,-4.333698E-2,-3.7197664E-1,6.4262524E-2,-1.6895466E-1,3.7517837E-1,1.1333653E-2],"categories":[],"categories_nodes":[],"categories_segments":[],"categories_sizes":[],"default_left":[1,1,1,1,1,0,1,1,0,1,1,0,0,1,0,1,1,0,0,1,1,1,1,0,0,0,0,0,0,0,0,0,0],"id":17,"left_children":[1,3,5,7,9,-1,11,13,-1,15,17,-1,-1,19,-1,21,23,-1,-1,25,27,29,31,-1,-1,-1,-1,-1,-1,-1,-1,-1,-1],"loss_changes":[1.7123285E-1,1.16744064E-1,2.194356E-1,2.0394644E-1,3.7054026E-1,0E0,1.0624549E-1,2.41721E-1,0E0,1.80655E-1,3.0852252E-1,0E0,0E0,2.541726E-1,0E0,2.631354E-1,1.03286445E-1,0E0,0E0,1.0734178E-1,8.703442E-2,1.23116806E-1,1.1131352E-1,0E0,0E0,0E0,0E0,0E0,0E0,0E0,0E0,0E0,0E0],"parents":[2147483647,0,0,1,1,2,2,3,3,4,4,6,6,7,7,9,9,10,10,13,13,15,15,16,16,19,19,20,20,21,21,22,22],"right_children":[2,4,6,8,10,-1,12,14,-1,16,18,-1,-1,20,-1,22,24,-1,-1,26,28,30,32,-1,-1,-1,-1,-1,-1,-1,-1,-1,-1],"split_conditions":[1.5E0,2.15125E1,5E-1,1.9733349E1,5E-1,-3.91577E-1,5E-1,1.6400002E1,-3.0694106E-1,5.90875E1,5E-1,1.8464185E-1,-1.3634771E-1,1.413125E1,3.367006E-1,3.525E1,5E-1,5.1162493E-1,1.0011023E-2,9.833349E0,5E-1,2.6775E1,5E-1,-3.030858E-1,3.877032E-2,-1.3424534E-2,1.3771805E-1,-4.333698E-2,-3.7197664E-1,6.4262524E-2,-1.6895466E-1,3.7517837E-1,1.1333653E-2],"split_indices":[1,2,3,2,3,0,6,2,0,2,0,0,0,2,0,2,0,0,0,2,5,2,19,0,0,0,0,0,0,0,0,0,0],"split_type":[0,0,0,0,0,0,0,0,0,0,0,0,0,0,0,0,0,0,0,0,0,0,0,0,0,0,0,0,0,0,0,0,0],"sum_hessian":[5.13053E1,4.7785686E1,3.5196142E0,3.0569565E1,1.7216122E1,1.3575896E0,2.1620247E0,2.9364735E1,1.2048308E0,1.3007986E1,4.2081356E0,1.113669E0,1.0483557E0,2.8276848E1,1.0878855E0,1.036145E1,2.6465366E0,2.1218262E0,2.0863094E0,2.5213495E1,3.0633526E0,7.264101E0,3.0973487E0,1.6208833E0,1.0256532E0,2.0140713E1,5.0727835E0,1.6667577E0,1.396595E0,3.9871197E0,3.2769814E0,1.8050689E0,1.2922798E0],"tree_param":{"num_deleted":"0","num_feature":"24","num_nodes":"33","size_leaf_vector":"0"}},{"base_weights":[1.2857844E-3,7.65496E-2,-2.2172894E-2,-3.5306472E-1,1.591555E-1,-5.0417245E-3,-2.0841822E-1,5.0628185E-1,7.382949E-2,-3.1003173E-2,2.4722522E-1,3.93831E-2,-3.898903E-1,-1.77635E-1,1.4032286E-1,-1.4063343E-2,-2.64323E-1,3.4532607E-1,3.603954E-2,3.1242824E-1,-1.0629346E-2,5.8728114E-2,-6.93424E-2,-2.4603719E-1,1.5860488E-1,-9.5623866E-2,9.978616E-2,-3.435618E-1,-2.3444401E-2],"categories":[],"categories_nodes":[],"categories_segments":[],"categories_sizes":[],"default_left":[1,1,1,0,1,1,1,0,1,1,1,0,0,0,1,1,0,0,0,0,1,1,1,0,0,0,0,0,0],"id":18,"left_children":[1,3,5,-1,7,9,11,-1,13,15,17,-1,-1,-1,19,21,-1,-1,-1,-1,23,25,27,-1,-1,-1,-1,-1,-1],"loss_changes":[9.193398E-2,4.951562E-1,1.257417E-1,0E0,2.9031435E-1,2.527153E-1,1.647695E-1,0E0,1.9299328E-1,1.3388148E-1,6.219527E-2,0E0,0E0,0E0,2.2435816E-1,1.3892606E-1,0E0,0E0,0E0,0E0,2.5812492E-1,1.0464675E-1,2.3745939E-1,0E0,0E0,0E0,0E0,0E0,0E0],"parents":[2147483647,0,0,1,1,2,2,4,4,5,5,6,6,8,8,9,9,10,10,14,14,15,15,20,20,21,21,22,22],"right_children":[2,4,6,-1,8,10,12,-1,14,16,18,-1,-1,-1,20,22,-1,-1,-1,-1,24,26,28,-1,-1,-1,-1,-1,-1],"split_conditions":[5E-1,1.29375E1,3.36875E1,-3.5306472E-1,2.646875E1,1.5E0,5E-1,5.0628185E-1,2.985E1,1.5E0,2.3575E1,3.93831E-2,-3.898903E-1,-1.77635E-1,3.98625E1,7.9875E0,-2.64323E-1,3.4532607E-1,3.603954E-2,3.1242824E-1,6.2668747E1,5E-1,8.08125E0,-2.4603719E-1,1.5860488E-1,-9.5623866E-2,9.978616E-2,-3.435618E-1,-2.3444401E-2],"split_indices":[19,2,2,0,2,0,1,0,2,1,2,0,0,0,2,2,0,0,0,0,2,5,2,0,0,0,0,0,0],"split_type":[0,0,0,0,0,0,0,0,0,0,0,0,0,0,0,0,0,0,0,0,0,0,0,0,0,0,0,0,0],"sum_hessian":[5.010851E1,1.1369126E1,3.8739384E1,1.3054895E0,1.0063637E1,3.6416775E1,2.3226082E0,1.0122137E0,9.051423E0,3.381399E1,2.602784E0,1.312864E0,1.0097443E0,1.543343E0,7.50808E0,3.251366E1,1.3003296E0,1.3435127E0,1.2592713E0,3.0083964E0,4.499684E0,1.4006935E1,1.8506725E1,1.6921066E0,2.8075771E0,2.6637917E0,1.1343143E1,1.7236109E0,1.6783113E1],"tree_param":{"num_deleted":"0","num_feature":"24","num_nodes":"29","size_leaf_vector":"0"}},{"base_weights":[-9.14853E-3,-3.7778724E-2,6.955353E-2,3.2225527E-2,-8.7902285E-2,-9.451084E-2,1.216219E-1,3.00539E-1,-5.6868788E-2,-1.6566402E-1,8.819354E-3,6.7000695E-2,-1.9044304E-1,3.8700595E-1,7.8974E-3,5.237329E-1,-1.2513539E-2,1.4131572E-3,-1.1459382E-1,-5.4824702E-2,-3.9309973E-1,1.4572006E-1,-1.2583941E-1,8.94988E-2,-1.7831422E-1,-1.61823E-1,5.9120335E-2,-1.6662587E-1,-6.215166E-2,-2.8226316E-1,5.52502E-2,-5.168757E-1,-6.055322E-2,4.6958815E-2,2.4625552E-1,8.216728E-2,-1.9150706E-1,1.7748745E-1,-6.793103E-3,2.4830878E-1,-2.4695221E-2,2.0432626E-1,-4.2604852E-2,1.149371E-1,-3.0402998E-2,-2.7767336E-1,-2.6881857E-2,3.1918722E-1,-1.7145926E-2,-1.3914911E-1,1.7721228E-1],"categories":[],"categories_nodes":[],"categories_segments":[],"categories_sizes":[],"default_left":[1,1,1,1,1,1,1,1,1,1,1,0,0,0,1,0,0,1,1,1,1,1,1,1,0,0,1,0,0,0,1,0,0,1,0,0,1,1,1,0,0,0,0,0,0,0,0,0,0,0,0],"id":19,"left_children":[1,3,5,7,9,11,13,15,17,19,21,-1,-1,-1,23,-1,-1,25,27,29,31,33,35,37,-1,-1,39,-1,-1,-1,41,-1,-1,43,-1,-1,45,47,49,-1,-1,-1,-1,-1,-1,-1,-1,-1,-1,-1,-1],"loss_changes":[1.1560397E-1,1.3410932E-1,1.2875223E-1,4.0775812E-1,1.6745894E-1,7.271454E-2,3.2460833E-1,3.023137E-1,4.42663E-2,2.8813735E-1,2.1716855E-1,0E0,0E0,0E0,1.4695315E-1,0E0,0E0,8.032045E-2,7.6486915E-3,2.514705E-1,1.2771648E-1,4.614027E-2,9.7335316E-2,5.763233E-2,0E0,0E0,1.0574053E-1,0E0,0E0,0E0,1.1352296E-1,0E0,0E0,2.5410086E-2,0E0,0E0,6.120211E-2,1.0246582E-1,1.2555963E-1,0E0,0E0,0E0,0E0,0E0,0E0,0E0,0E0,0E0,0E0,0E0,0E0],"parents":[2147483647,0,0,1,1,2,2,3,3,4,4,5,5,6,6,7,7,8,8,9,9,10,10,14,14,17,17,18,18,19,19,20,20,21,21,22,22,23,23,26,26,30,30,33,33,36,36,37,37,38,38],"right_children":[2,4,6,8,10,12,14,16,18,20,22,-1,-1,-1,24,-1,-1,26,28,30,32,34,36,38,-1,-1,40,-1,-1,-1,42,-1,-1,44,-1,-1,46,48,50,-1,-1,-1,-1,-1,-1,-1,-1,-1,-1,-1,-1],"split_conditions":[5E-1,8.125E0,1.564585E1,5E-1,2.6125E1,8.293751E0,2.055E1,5E-1,7.7979E0,1.415835E1,3.05979E1,6.7000695E-2,-1.9044304E-1,3.8700595E-1,5E-1,5.237329E-1,-1.2513539E-2,7.13335E0,7.9104004E0,9.49165E0,5E-1,5E-1,5E-1,5E-1,-1.7831422E-1,-1.61823E-1,7.2271E0,-1.6662587E-1,-6.215166E-2,-2.8226316E-1,5E-1,-5.168757E-1,-6.055322E-2,2.8110401E1,2.4625552E-1,8.216728E-2,6.2668747E1,5.28271E1,2.6125E1,2.4830878E-1,-2.4695221E-2,2.0432626E-1,-4.2604852E-2,1.149371E-1,-3.0402998E-2,-2.7767336E-1,-2.6881857E-2,3.1918722E-1,-1.7145926E-2,-1.3914911E-1,1.7721228E-1],"split_indices":[1,2,2,5,2,2,2,3,2,2,2,0,0,0,10,0,0,2,2,2,0,19,8,3,0,0,2,0,0,0,9,0,0,2,0,0,2,2,2,0,0,0,0,0,0,0,0,0,0,0,0],"split_type":[0,0,0,0,0,0,0,0,0,0,0,0,0,0,0,0,0,0,0,0,0,0,0,0,0,0,0,0,0,0,0,0,0,0,0,0,0,0,0,0,0,0,0,0,0,0,0,0,0,0,0],"sum_hessian":[4.9139156E1,3.6412876E1,1.2726279E1,1.5342335E1,2.1070541E1,2.8695056E0,9.856773E0,3.2329183E0,1.2109416E1,1.1284944E1,9.785599E0,1.1816545E0,1.6878513E0,2.2359695E0,7.6208043E0,1.4944488E0,1.7384694E0,6.5110593E0,5.5983567E0,8.421725E0,2.8632178E0,4.8116727E0,4.973926E0,5.6599007E0,1.9609033E0,1.2293606E0,5.2816987E0,1.7172295E0,3.881127E0,2.2364516E0,6.185274E0,1.6826342E0,1.1805836E0,3.1673276E0,1.6443452E0,1.1331948E0,3.8407311E0,2.516853E0,3.1430476E0,1.0190154E0,4.2626834E0,2.0199525E0,4.1653214E0,1.4273757E0,1.739952E0,2.0703769E0,1.7703543E0,1.0861545E0,1.4306986E0,1.96988E0,1.1731677E0],"tree_param":{"num_deleted":"0","num_feature":"24","num_nodes":"51","size_leaf_vector":"0"}},{"base_weights":[-3.2942882E-3,-1.6861614E-2,2.1570441E-1,6.260028E-2,-4.8485797E-2,-1.3046224E-1,1.2258755E-1,-3.204886E-2,-2.6649165E-1,7.906358E-2,2.57025E-1,-5.434696E-2,1.6447708E-1,-6.0737982E-2,1.781755E-1,1.2518597E-2,-1.1716847E-1,2.3602036E-1,-1.8014484E-3,1.4604343E-1,-3.0809838E-1,3.3710477E-1,-5.5609528E-2,-9.0910666E-2,9.09435E-2,-1.877006E-1,-2.1707343E-2],"categories":[],"categories_nodes":[],"categories_segments":[],"categories_sizes":[],"default_left":[1,1,0,1,1,0,1,1,0,1,0,1,1,1,1,1,1,0,0,0,0,0,0,0,0,0,0],"id":20,"left_children":[1,3,-1,5,7,-1,9,11,-1,13,-1,15,17,19,21,23,25,-1,-1,-1,-1,-1,-1,-1,-1,-1,-1],"loss_changes":[1.5085416E-1,1.2261135E-1,0E0,1.7793351E-1,1.1544899E-1,0E0,4.5117557E-2,1.5491895E-1,0E0,1.4789678E-1,0E0,1.3029703E-1,4.3761313E-2,2.9305822E-1,2.4327777E-1,1.3610427E-1,1.03045225E-1,0E0,0E0,0E0,0E0,0E0,0E0,0E0,0E0,0E0,0E0],"parents":[2147483647,0,0,1,1,3,3,4,4,6,6,7,7,9,9,11,11,12,12,13,13,14,14,15,15,16,16],"right_children":[2,4,-1,6,8,-1,10,12,-1,14,-1,16,18,20,22,24,26,-1,-1,-1,-1,-1,-1,-1,-1,-1,-1],"split_conditions":[2.5E0,5E-1,2.1570441E-1,7.73125E0,5.90875E1,-1.3046224E-1,5E-1,3.525E1,-2.6649165E-1,1.51479E1,2.57025E-1,1.000625E1,5E-1,7.8875E0,3.6252098E1,7.9104004E0,5E-1,2.3602036E-1,-1.8014484E-3,1.4604343E-1,-3.0809838E-1,3.3710477E-1,-5.5609528E-2,-9.0910666E-2,9.09435E-2,-1.877006E-1,-2.1707343E-2],"split_indices":[1,22,0,2,2,0,6,2,0,2,0,2,19,2,2,2,9,0,0,0,0,0,0,0,0,0,0],"split_type":[0,0,0,0,0,0,0,0,0,0,0,0,0,0,0,0,0,0,0,0,0,0,0,0,0,0,0],"sum_hessian":[4.8547565E1,4.6584583E1,1.9629846E0,1.2982935E1,3.3601646E1,2.7991953E0,1.018374E1,3.2312405E1,1.2892418E0,8.892809E0,1.2909298E0,2.9669523E1,2.6428828E0,3.8497508E0,5.043059E0,1.4760047E1,1.4909476E1,1.5545791E0,1.0883037E0,2.3199644E0,1.5297863E0,2.73907E0,2.3039887E0,6.296636E0,8.46341E0,8.018615E0,6.890862E0],"tree_param":{"num_deleted":"0","num_feature":"24","num_nodes":"27","size_leaf_vector":"0"}},{"base_weights":[4.0223077E-3,7.7198826E-2,-1.7981138E-2,1.3582714E-1,-3.8559135E-2,-5.6210168E-2,3.8456697E-2,-1.04361966E-1,1.9423571E-1,1.5394208E-1,-2.379233E-1,5.971221E-2,-1.008937E-1,-5.3656112E-2,1.0339925E-1,1.022606E-1,3.3464873E-1,-4.3924067E-2,3.1542686E-1,-2.5409737E-1,-2.2496428E-2,3.5688773E-2,-2.7884352E-1,2.1652624E-1,1.9505717E-2,2.8895187E-1,-1.03329204E-1,1.3648881E-1,-1.2164029E-1,4.3239117E-1,-1.0648927E-1,-5.193247E-2,1.4618443E-1,-1.5016992E-4,3.3232677E-1,-2.8884715E-1,1.340596E-1,-1.623453E-1,8.810777E-3,7.831586E-2,-1.989926E-1,2.6292554E-1,1.8116392E-2],"categories":[],"categories_nodes":[],"categories_segments":[],"categories_sizes":[],"default_left":[1,1,1,1,1,1,1,0,1,0,0,1,1,1,1,1,0,1,0,0,1,1,0,1,1,0,0,0,0,0,1,1,0,0,0,0,1,0,0,0,0,0,0],"id":21,"left_children":[1,3,5,7,9,11,13,-1,15,-1,-1,17,19,21,23,25,-1,27,-1,-1,29,31,-1,33,35,-1,-1,-1,-1,-1,37,39,-1,-1,-1,-1,41,-1,-1,-1,-1,-1,-1],"loss_changes":[8.03992E-2,8.350855E-2,8.530992E-2,1.3077475E-1,2.1532397E-1,1.2713692E-1,1.02196656E-1,0E0,5.211854E-2,0E0,0E0,2.028991E-1,2.014473E-1,1.5760899E-1,8.894963E-2,2.4017191E-1,0E0,1.0008221E-1,0E0,0E0,5.238953E-1,6.704648E-2,0E0,1.0245603E-1,2.7665997E-1,0E0,0E0,0E0,0E0,0E0,7.458976E-2,9.532052E-2,0E0,0E0,0E0,0E0,7.882391E-2,0E0,0E0,0E0,0E0,0E0,0E0],"parents":[2147483647,0,0,1,1,2,2,3,3,4,4,5,5,6,6,8,8,11,11,12,12,13,13,14,14,15,15,17,17,20,20,21,21,23,23,24,24,30,30,31,31,36,36],"right_children":[2,4,6,8,10,12,14,-1,16,-1,-1,18,20,22,24,26,-1,28,-1,-1,30,32,-1,34,36,-1,-1,-1,-1,-1,38,40,-1,-1,-1,-1,42,-1,-1,-1,-1,-1,-1],"split_conditions":[5E-1,5.28271E1,5E-1,1.29375E1,5E-1,7.8646E0,9.833349E0,-1.04361966E-1,3.525E1,1.5394208E-1,-2.379233E-1,7.7854004E0,8.08125E0,7.9875E0,1.5975E1,2.8110401E1,3.3464873E-1,7.1833496E0,3.1542686E-1,-2.5409737E-1,8.6875E0,7.78125E0,-2.7884352E-1,5E-1,2.023125E1,2.8895187E-1,-1.03329204E-1,1.3648881E-1,-1.2164029E-1,4.3239117E-1,5E-1,5E-1,1.4618443E-1,-1.5016992E-4,3.3232677E-1,-2.8884715E-1,2.4075E1,-1.623453E-1,8.810777E-3,7.831586E-2,-1.989926E-1,2.6292554E-1,1.8116392E-2],"split_indices":[19,2,3,2,22,2,2,0,2,0,0,2,2,2,2,2,0,2,0,0,2,2,0,22,2,0,0,0,0,0,9,21,0,0,0,0,2,0,0,0,0,0,0],"split_type":[0,0,0,0,0,0,0,0,0,0,0,0,0,0,0,0,0,0,0,0,0,0,0,0,0,0,0,0,0,0,0,0,0,0,0,0,0,0,0,0,0,0,0],"sum_hessian":[4.807107E1,1.0533033E1,3.7538036E1,6.8767643E0,3.656269E0,2.238157E1,1.5156466E1,1.1912638E0,5.6855006E0,1.9760641E0,1.6802051E0,6.133392E0,1.624818E1,6.3390765E0,8.817389E0,4.4795394E0,1.205961E0,4.9539003E0,1.1794914E0,4.7414007E0,1.1506779E1,5.140899E0,1.1981772E0,3.08135E0,5.7360387E0,2.1351666E0,2.3443727E0,1.2638088E0,3.6900916E0,1.1469867E0,1.0359792E1,3.1628308E0,1.9780685E0,1.421068E0,1.660282E0,1.1416044E0,4.5944343E0,6.704052E0,3.6557405E0,1.9251868E0,1.2376441E0,1.5755584E0,3.0188758E0],"tree_param":{"num_deleted":"0","num_feature":"24","num_nodes":"43","size_leaf_vector":"0"}},{"base_weights":[1.3669453E-2,-1.5021774E-1,2.1125268E-2,8.3826266E-2,-1.1285555E-2,7.7446382E-3,2.0495357E-1,-2.5633994E-1,1.1350534E-2,1.5064774E-1,-5.6557287E-2,3.268822E-1,1.1550858E-1,2.701236E-2,-1.5789719E-1,-1.5477598E-1,1.339341E-1,1.8960847E-1,-3.6491682E-3,-7.336772E-2,-2.079871E-1,-1.1543947E-2,3.9018834E-1,-2.2789328E-1,2.8154435E-2],"categories":[],"categories_nodes":[],"categories_segments":[],"categories_sizes":[],"default_left":[1,0,1,1,1,1,1,0,1,0,1,0,0,1,0,1,0,1,1,0,0,0,0,0,0],"id":22,"left_children":[1,-1,3,5,7,9,11,-1,13,-1,15,-1,-1,17,-1,19,-1,21,23,-1,-1,-1,-1,-1,-1],"loss_changes":[6.2109105E-2,0E0,9.647986E-2,1.4713466E-1,1.7970663E-1,1.0915239E-1,2.971378E-2,0E0,8.4143825E-2,0E0,1.7564566E-1,0E0,0E0,1.4245865E-1,0E0,1.0415256E-2,0E0,1.8729492E-1,1.8403773E-1,0E0,0E0,0E0,0E0,0E0,0E0],"parents":[2147483647,0,0,2,2,3,3,4,4,5,5,6,6,8,8,10,10,13,13,15,15,17,17,18,18],"right_children":[2,-1,4,6,8,10,12,-1,14,-1,16,-1,-1,18,-1,20,-1,22,24,-1,-1,-1,-1,-1,-1],"split_conditions":[7.13335E0,-1.5021774E-1,8.125E0,7.9104004E0,9.2875E0,7.2396E0,5E-1,-2.5633994E-1,5E-1,1.5064774E-1,5E-1,3.268822E-1,1.1550858E-1,1.25E1,-1.5789719E-1,7.7979E0,1.339341E-1,1.048125E1,1.364585E1,-7.336772E-2,-2.079871E-1,-1.1543947E-2,3.9018834E-1,-2.2789328E-1,2.8154435E-2],"split_indices":[2,0,2,2,2,2,5,0,15,0,21,0,0,2,0,2,0,2,2,0,0,0,0,0,0],"split_type":[0,0,0,0,0,0,0,0,0,0,0,0,0,0,0,0,0,0,0,0,0,0,0,0,0],"sum_hessian":[4.7232338E1,1.2220733E0,4.6010265E1,1.513813E1,3.0872135E1,9.951439E0,5.186691E0,1.7375313E0,2.9134604E1,2.6715128E0,7.2799263E0,1.0714971E0,4.1151934E0,2.7436121E1,1.6984829E0,4.9270144E0,2.352912E0,3.5304499E0,2.390567E1,2.8877776E0,2.0392368E0,2.233261E0,1.2971889E0,2.203483E0,2.1702188E1],"tree_param":{"num_deleted":"0","num_feature":"24","num_nodes":"25","size_leaf_vector":"0"}},{"base_weights":[-1.6892209E-3,-1.306196E-2,1.7323287E-1,4.2597326E-3,-9.775026E-2,-2.2126583E-2,2.2908157E-1,-3.3990455E-1,6.563525E-2,-6.7639216E-3,-2.4448828E-1,-1.1376792E-1,-4.233752E-1,1.3468073E-1,-1.1805356E-1,-2.6327796E-2,6.50007E-2,1.9807805E-1,1.8774481E-2,-1.1890636E-1,8.666503E-3,1.9622946E-1,-1.7912623E-1],"categories":[],"categories_nodes":[],"categories_segments":[],"categories_sizes":[],"default_left":[1,1,0,1,1,1,0,1,1,1,0,0,0,1,0,1,1,0,0,0,0,0,0],"id":23,"left_children":[1,3,-1,5,7,9,-1,11,13,15,-1,-1,-1,17,-1,19,21,-1,-1,-1,-1,-1,-1],"loss_changes":[9.773989E-2,6.7887455E-2,0E0,2.3727077E-1,3.3296084E-1,1.2112998E-1,0E0,1.4599085E-2,8.599235E-2,5.035785E-2,0E0,0E0,0E0,2.922915E-2,0E0,9.154234E-2,2.8216767E-1,0E0,0E0,0E0,0E0,0E0,0E0],"parents":[2147483647,0,0,1,1,3,3,4,4,5,5,7,7,8,8,9,9,13,13,15,15,16,16],"right_children":[2,4,-1,6,8,10,-1,12,14,16,-1,-1,-1,18,-1,20,22,-1,-1,-1,-1,-1,-1],"split_conditions":[5E-1,3.325E1,1.7323287E-1,2.985E1,5.4797897E1,1.5E0,2.2908157E-1,3.95E1,5E-1,5E-1,-2.4448828E-1,-1.1376792E-1,-4.233752E-1,5E-1,-1.1805356E-1,5E-1,5E-1,1.9807805E-1,1.8774481E-2,-1.1890636E-1,8.666503E-3,1.9622946E-1,-1.7912623E-1],"split_indices":[15,2,0,2,2,1,0,2,13,1,0,0,0,20,0,5,0,0,0,0,0,0,0],"split_type":[0,0,0,0,0,0,0,0,0,0,0,0,0,0,0,0,0,0,0,0,0,0,0],"sum_hessian":[4.6994293E1,4.4994274E1,2.000022E0,3.814251E1,6.8517637E0,3.494299E1,3.1995182E0,2.325197E0,4.526567E0,3.364867E1,1.2943214E0,1.2639374E0,1.0612595E0,3.4838474E0,1.0427195E0,2.693815E1,6.7105184E0,1.793762E0,1.6900854E0,6.7316017E0,2.020655E1,4.492048E0,2.2184706E0],"tree_param":{"num_deleted":"0","num_feature":"24","num_nodes":"23","size_leaf_vector":"0"}},{"base_weights":[-8.155105E-3,2.2795806E-2,-5.6955844E-2,-4.220963E-3,1.9504699E-1,-8.350574E-2,1.191819E-1,1.8612225E-2,-2.1699078E-1,-1.41488975E-2,3.4585387E-1,7.905158E-3,-1.20227486E-1,-3.1164382E-3,1.4372264E-1,1.8879485E-1,-1.5696847E-1,-1.4948772E-1,7.278376E-2,-2.4805108E-1,2.7939525E-2,2.3977944E-1,4.3532986E-2,-2.838805E-1,5.4956307E-3,-2.3696035E-1,-6.9497502E-3,1.8343104E-1,9.805528E-3,-1.0565751E-1,-3.2077628E-1,1.9279516E-1,-1.0454857E-1],"categories":[],"categories_nodes":[],"categories_segments":[],"categories_sizes":[],"default_left":[1,1,1,1,1,1,0,1,0,0,0,1,1,1,0,1,1,1,0,0,1,0,0,0,0,1,1,0,0,0,0,0,0],"id":24,"left_children":[1,3,5,7,9,11,-1,13,-1,-1,-1,15,17,19,-1,21,23,25,-1,-1,27,-1,-1,-1,-1,29,31,-1,-1,-1,-1,-1,-1],"loss_changes":[7.319583E-2,1.3969573E-1,9.767893E-2,1.3411438E-1,1.3320282E-1,5.7646275E-2,0E0,6.868339E-2,0E0,0E0,0E0,2.0198263E-1,7.927871E-2,1.7705442E-1,0E0,1.3332054E-2,7.515391E-2,1.3356163E-1,0E0,0E0,5.670189E-2,0E0,0E0,0E0,0E0,3.9732903E-2,1.2063844E-1,0E0,0E0,0E0,0E0,0E0,0E0],"parents":[2147483647,0,0,1,1,2,2,3,3,4,4,5,5,7,7,11,11,12,12,13,13,15,15,16,16,17,17,20,20,25,25,26,26],"right_children":[2,4,6,8,10,12,-1,14,-1,-1,-1,16,18,20,-1,22,24,26,-1,-1,28,-1,-1,-1,-1,30,32,-1,-1,-1,-1,-1,-1],"split_conditions":[2.07875E1,1.564585E1,7.96E1,1.39854E1,5E-1,5E-1,1.191819E-1,1.228125E1,-2.1699078E-1,-1.41488975E-2,3.4585387E-1,5E-1,5E-1,5E-1,1.4372264E-1,3.025E1,3.133125E1,3.02854E1,7.278376E-2,-2.4805108E-1,7.1833496E0,2.3977944E-1,4.3532986E-2,-2.838805E-1,5.4956307E-3,2.646875E1,3.6125E1,1.8343104E-1,9.805528E-3,-1.0565751E-1,-3.2077628E-1,1.9279516E-1,-1.0454857E-1],"split_indices":[2,2,2,2,0,5,0,2,0,0,0,10,13,10,0,2,2,2,0,0,2,0,0,0,0,2,2,0,0,0,0,0,0],"split_type":[0,0,0,0,0,0,0,0,0,0,0,0,0,0,0,0,0,0,0,0,0,0,0,0,0,0,0,0,0,0,0,0,0],"sum_hessian":[4.660075E1,2.8841484E1,1.7759264E1,2.5774391E1,3.0670936E0,1.5890011E1,1.8692538E0,2.4100584E1,1.6738068E0,1.6644225E0,1.402671E0,4.7788405E0,1.111117E1,2.1365076E1,2.735508E0,2.2095566E0,2.569284E0,9.844288E0,1.2668824E0,1.6178737E0,1.9747204E1,1.1538894E0,1.055667E0,1.0228903E0,1.5463938E0,5.6900086E0,4.154279E0,1.1104281E0,1.8636774E1,3.097762E0,2.5922465E0,1.0434269E0,3.1108522E0],"tree_param":{"num_deleted":"0","num_feature":"24","num_nodes":"33","size_leaf_vector":"0"}},{"base_weights":[1.3160418E-3,-9.042982E-3,1.5816237E-1,-3.61114E-2,4.043163E-2,2.634886E-3,-1.5759438E-1,-2.6817817E-2,1.8585421E-1,-7.715339E-2,7.593382E-2,-3.6409643E-1,-4.7653295E-2,3.0310132E-2,-2.7196327E-1,3.012809E-1,6.0433283E-2,-1.890319E-2,-2.8816095E-1,1.9274078E-2,2.649527E-1,1.4361092E-1,-1.3019878E-1,-7.836471E-3,1.6935769E-1,-4.445445E-2,1.19668946E-1,-1.1870455E-1,6.901073E-2,7.068685E-2,-1.5512264E-1,-1.9877611E-1,2.646635E-2,6.12109E-2,-2.3807305E-1],"categories":[],"categories_nodes":[],"categories_segments":[],"categories_sizes":[],"default_left":[1,1,0,1,1,1,1,1,1,1,1,0,1,1,0,0,1,1,0,1,0,0,1,1,0,0,0,0,0,0,0,0,0,0,0],"id":25,"left_children":[1,3,-1,5,7,9,11,13,15,17,19,-1,21,23,-1,-1,25,27,-1,29,-1,-1,31,33,-1,-1,-1,-1,-1,-1,-1,-1,-1,-1,-1],"loss_changes":[7.840106E-2,6.22385E-2,0E0,1.4098027E-1,1.6655555E-1,1.440273E-1,1.4697027E-1,1.786933E-1,5.924885E-2,1.3968548E-1,1.3216291E-1,0E0,1.11433394E-1,5.8455646E-2,0E0,0E0,2.9023228E-2,9.877009E-2,0E0,1.09053016E-1,0E0,0E0,5.4977357E-2,1.641265E-1,0E0,0E0,0E0,0E0,0E0,0E0,0E0,0E0,0E0,0E0,0E0],"parents":[2147483647,0,0,1,1,3,3,4,4,5,5,6,6,7,7,8,8,9,9,10,10,12,12,13,13,16,16,17,17,19,19,22,22,23,23],"right_children":[2,4,-1,6,8,10,12,14,16,18,20,-1,22,24,-1,-1,26,28,-1,30,-1,-1,32,34,-1,-1,-1,-1,-1,-1,-1,-1,-1,-1,-1],"split_conditions":[5E-1,5E-1,1.5816237E-1,3.05979E1,2.155E1,8.08125E0,3.525E1,1.77E1,5E-1,7.9875E0,5E-1,-3.6409643E-1,5E-1,1.485205E1,-2.7196327E-1,3.012809E-1,2.6125E1,7.74165E0,-2.8816095E-1,2.6775E1,2.649527E-1,1.4361092E-1,5E-1,1.2825E1,1.6935769E-1,-4.445445E-2,1.19668946E-1,-1.1870455E-1,6.901073E-2,7.068685E-2,-1.5512264E-1,-1.9877611E-1,2.646635E-2,6.12109E-2,-2.3807305E-1],"split_indices":[15,3,0,2,2,2,2,2,0,2,7,0,5,2,0,0,2,2,0,2,0,0,1,2,0,0,0,0,0,0,0,0,0,0,0],"split_type":[0,0,0,0,0,0,0,0,0,0,0,0,0,0,0,0,0,0,0,0,0,0,0,0,0,0,0,0,0,0,0,0,0,0,0],"sum_hessian":[4.6373207E1,4.438417E1,1.9890382E0,2.8862886E1,1.5521283E1,2.2625065E1,6.237822E0,1.1170956E1,4.3503275E0,1.0807817E1,1.1817247E1,1.3640289E0,4.873793E0,9.770441E0,1.4005152E0,1.5352536E0,2.815074E0,9.323564E0,1.4842538E0,9.939716E0,1.8775313E0,1.2462821E0,3.6275108E0,8.40754E0,1.3629007E0,1.1060823E0,1.7089918E0,4.202537E0,5.1210265E0,8.135901E0,1.8038146E0,2.3361201E0,1.2913907E0,7.032615E0,1.3749247E0],"tree_param":{"num_deleted":"0","num_feature":"24","num_nodes":"35","size_leaf_vector":"0"}},{"base_weights":[-7.2353357E-3,-3.472793E-2,1.0632432E-1,-4.844046E-2,1.5264674E-1,4.130612E-2,2.9267424E-1,9.753267E-3,-8.261487E-2,-1.4778885E-2,1.9281508E-1,-3.594276E-2,2.200781E-1,-1.6158594E-1,-5.014975E-3,-1.5409814E-1,1.2731187E-1,-1.6274692E-1,-9.951547E-4,-2.0552395E-1,3.818845E-2,-1.07072175E-1,8.7613724E-2,-6.8249375E-2,-1.9683737E-1,2.4687397E-1,-5.8464207E-2,1.2041273E-1,-4.029592E-2,-1.1589989E-1,-4.5681816E-1,-1.3749966E-1,9.47175E-3,1.402916E-1,-5.8389418E-2],"categories":[],"categories_nodes":[],"categories_segments":[],"categories_sizes":[],"default_left":[1,1,1,1,0,1,0,1,1,1,0,1,0,1,1,1,1,0,1,1,0,1,1,0,0,0,0,0,0,0,0,0,0,0,0],"id":26,"left_children":[1,3,5,7,-1,9,-1,11,13,15,-1,17,-1,19,21,23,25,-1,27,29,-1,31,33,-1,-1,-1,-1,-1,-1,-1,-1,-1,-1,-1,-1],"loss_changes":[1.4882338E-1,1.0549071E-1,1.00673035E-1,7.306574E-2,0E0,7.137114E-2,0E0,1.4570813E-1,1.4011927E-1,1.5450966E-1,0E0,5.584371E-2,0E0,1.0761437E-1,1.2878989E-1,8.498058E-4,1.0152728E-1,0E0,5.6925956E-2,1.6041514E-1,0E0,2.420973E-2,6.3348345E-2,0E0,0E0,0E0,0E0,0E0,0E0,0E0,0E0,0E0,0E0,0E0,0E0],"parents":[2147483647,0,0,1,1,2,2,3,3,5,5,7,7,8,8,9,9,11,11,13,13,14,14,15,15,16,16,18,18,19,19,21,21,22,22],"right_children":[2,4,6,8,-1,10,-1,12,14,16,-1,18,-1,20,22,24,26,-1,28,30,-1,32,34,-1,-1,-1,-1,-1,-1,-1,-1,-1,-1,-1,-1],"split_conditions":[5E-1,2.5E0,5E-1,8.125E0,1.5264674E-1,5E-1,2.9267424E-1,7.9875E0,2.15125E1,5E-1,1.9281508E-1,5E-1,2.200781E-1,5E-1,5E-1,8.5896E0,7.79646E1,-1.6274692E-1,7.7E0,1.5975E1,3.818845E-2,5E-1,3.075E1,-6.8249375E-2,-1.9683737E-1,2.4687397E-1,-5.8464207E-2,1.2041273E-1,-4.029592E-2,-1.1589989E-1,-4.5681816E-1,-1.3749966E-1,9.47175E-3,1.402916E-1,-5.8389418E-2],"split_indices":[20,1,3,2,0,7,0,2,2,8,0,5,0,0,19,2,2,0,2,2,0,15,2,0,0,0,0,0,0,0,0,0,0,0,0],"split_type":[0,0,0,0,0,0,0,0,0,0,0,0,0,0,0,0,0,0,0,0,0,0,0,0,0,0,0,0,0,0,0,0,0,0,0],"sum_hessian":[4.5485794E1,3.717901E1,8.306786E0,3.5334614E1,1.8443947E0,7.0638423E0,1.2429429E0,1.3337508E1,2.1997107E1,5.8140683E0,1.249774E0,1.163808E1,1.6994281E0,1.0365825E1,1.1631283E1,2.8929958E0,2.9210725E0,1.7243935E0,9.913686E0,8.473416E0,1.8924083E0,5.4598055E0,6.1714773E0,1.8246884E0,1.0683073E0,1.5771611E0,1.3439114E0,1.9196446E0,7.9940414E0,7.322912E0,1.1505045E0,4.1868787E0,1.2729268E0,4.563932E0,1.6075455E0],"tree_param":{"num_deleted":"0","num_feature":"24","num_nodes":"35","size_leaf_vector":"0"}},{"base_weights":[1.4083877E-3,2.9881949E-2,-5.032473E-2,-4.2908066E-3,2.0518278E-1,-3.0266505E-1,2.195015E-2,1.180665E-2,-1.5950117E-1,6.670951E-2,2.8562772E-1,5.699197E-2,-1.03028186E-1,1.0219402E-1,-2.1449642E-2,1.9340925E-1,-8.628001E-2,-1.4987924E-2,1.2442681E-1,2.9333182E-2,-2.0196569E-1,2.0610102E-1,-3.3504557E-2,9.23758E-3,-2.831085E-1,-1.4883788E-1,3.6938593E-2,1.9280715E-1,-5.0564975E-2,1.342853E-2,2.6674432E-1,2.4814317E-2,-7.820198E-2,-8.809459E-2,3.9221212E-2,1.09047845E-1,-1.0081951E-1,5.8548775E-2,2.7129692E-1],"categories":[],"categories_nodes":[],"categories_segments":[],"categories_sizes":[],"default_left":[1,1,1,1,1,0,1,1,0,1,0,1,1,1,1,0,0,1,1,0,0,1,1,1,0,0,1,1,0,0,0,0,0,0,0,0,0,0,0],"id":27,"left_children":[1,3,5,7,9,-1,11,13,-1,15,-1,17,19,21,23,-1,-1,25,27,-1,-1,29,31,33,-1,-1,35,37,-1,-1,-1,-1,-1,-1,-1,-1,-1,-1,-1],"loss_changes":[6.980442E-2,1.8379709E-1,3.1364435E-1,6.817478E-2,3.6662847E-2,0E0,6.726171E-2,7.725208E-2,0E0,7.760455E-2,0E0,5.813129E-2,5.0786834E-2,1.04051255E-1,1.5582561E-1,0E0,0E0,5.0671577E-2,8.265087E-2,0E0,0E0,4.3643534E-2,1.1971056E-2,5.6120865E-2,0E0,0E0,6.54699E-2,3.2467827E-2,0E0,0E0,0E0,0E0,0E0,0E0,0E0,0E0,0E0,0E0,0E0],"parents":[2147483647,0,0,1,1,2,2,3,3,4,4,6,6,7,7,9,9,11,11,12,12,13,13,14,14,17,17,18,18,21,21,22,22,23,23,26,26,27,27],"right_children":[2,4,6,8,10,-1,12,14,-1,16,-1,18,20,22,24,-1,-1,26,28,-1,-1,30,32,34,-1,-1,36,38,-1,-1,-1,-1,-1,-1,-1,-1,-1,-1,-1],"split_conditions":[2.4075E1,1.564585E1,2.631875E1,1.39854E1,5E-1,-3.0266505E-1,1.5E0,5E-1,-1.5950117E-1,1.7599998E1,2.8562772E-1,3.525E1,6.7275E1,5E-1,5E-1,1.9340925E-1,-8.628001E-2,5E-1,5E-1,2.9333182E-2,-2.0196569E-1,7.73125E0,7.4896E0,5E-1,-2.831085E-1,-1.4883788E-1,5E-1,5E-1,-5.0564975E-2,1.342853E-2,2.6674432E-1,2.4814317E-2,-7.820198E-2,-8.809459E-2,3.9221212E-2,1.09047845E-1,-1.0081951E-1,5.8548775E-2,2.7129692E-1],"split_indices":[2,2,2,2,0,0,0,22,0,2,0,2,2,5,7,0,0,22,19,0,0,2,2,10,0,0,13,1,0,0,0,0,0,0,0,0,0,0,0],"split_type":[0,0,0,0,0,0,0,0,0,0,0,0,0,0,0,0,0,0,0,0,0,0,0,0,0,0,0,0,0,0,0,0,0,0,0,0,0,0,0],"sum_hessian":[4.5367554E1,2.9534399E1,1.5833153E1,2.5532646E1,4.0017543E0,2.8154845E0,1.3017669E1,2.3970505E1,1.562141E0,2.1426969E0,1.8590572E0,1.0591871E1,2.425797E0,5.889767E0,1.8080738E1,1.0275348E0,1.1151621E0,5.499477E0,5.092395E0,1.3385566E0,1.0872403E0,3.041793E0,2.847974E0,1.7046257E1,1.0344806E0,1.0155072E0,4.4839697E0,3.5883808E0,1.5040139E0,1.0206084E0,2.0211847E0,1.4287081E0,1.419266E0,3.5580637E0,1.34881935E1,3.0801048E0,1.4038651E0,1.9680064E0,1.6203743E0],"tree_param":{"num_deleted":"0","num_feature":"24","num_nodes":"39","size_leaf_vector":"0"}},{"base_weights":[-3.8432083E-3,-7.3924445E-2,1.3084021E-2,6.8662637E-3,-1.359945E-1,1.3461563E-1,4.9464137E-4,-1.4698258E-1,9.766301E-2,-1.6623332E-1,-5.790657E-2,-2.0315398E-2,6.711868E-2,1.7973376E-2,1.21100314E-1,-3.9033376E-2,1.8008243E-1,4.9470984E-3,1.1227731E-1,-1.5581119E-1,-3.8399352E-3,9.640093E-2,-1.168914E-1,2.4632001E-1,7.4056624E-3,-7.190396E-2,-2.5198096E-1,2.4145508E-2,-1.2516601E-1,1.01951316E-1,-1.22882605E-1],"categories":[],"categories_nodes":[],"categories_segments":[],"categories_sizes":[],"default_left":[1,1,1,1,1,0,1,0,1,0,0,1,1,0,0,1,0,1,1,1,1,0,0,0,1,0,0,0,0,0,0],"id":28,"left_children":[1,3,5,7,9,-1,11,-1,13,-1,-1,15,17,-1,-1,19,-1,21,23,25,27,-1,-1,-1,29,-1,-1,-1,-1,-1,-1],"loss_changes":[5.498525E-2,4.6111986E-2,5.7349112E-2,8.233118E-2,2.5179684E-3,0E0,4.9899857E-2,0E0,4.661113E-3,0E0,0E0,1.0996978E-1,2.349E-2,0E0,0E0,1.0593097E-1,0E0,6.307645E-2,6.7266196E-2,3.011556E-2,7.413223E-2,0E0,0E0,0E0,5.9195597E-2,0E0,0E0,0E0,0E0,0E0,0E0],"parents":[2147483647,0,0,1,1,2,2,3,3,4,4,6,6,8,8,11,11,12,12,15,15,17,17,18,18,19,19,20,20,24,24],"right_children":[2,4,6,8,10,-1,12,-1,14,-1,-1,16,18,-1,-1,20,-1,22,24,26,28,-1,-1,-1,30,-1,-1,-1,-1,-1,-1],"split_conditions":[7.78125E0,7.2396E0,7.88335E0,7.13335E0,5E-1,1.3461563E-1,5E-1,-1.4698258E-1,5E-1,-1.6623332E-1,-5.790657E-2,5E-1,1.364585E1,1.7973376E-2,1.21100314E-1,8.08125E0,1.8008243E-1,5E-1,2.5E1,7.9875E0,1.5E0,9.640093E-2,-1.168914E-1,2.4632001E-1,5E-1,-7.190396E-2,-2.5198096E-1,2.4145508E-2,-1.2516601E-1,1.01951316E-1,-1.22882605E-1],"split_indices":[2,2,2,2,21,0,9,0,5,0,0,15,2,0,0,2,0,3,2,2,0,0,0,0,0,0,0,0,0,0,0],"split_type":[0,0,0,0,0,0,0,0,0,0,0,0,0,0,0,0,0,0,0,0,0,0,0,0,0,0,0,0,0,0,0],"sum_hessian":[4.4535595E1,8.009187E0,3.652641E1,3.8662426E0,4.142944E0,2.51876E0,3.400765E1,1.205239E0,2.6610036E0,2.172764E0,1.9701798E0,2.6443186E1,7.5644627E0,1.0063078E0,1.6546959E0,2.492071E1,1.5224757E0,3.6495452E0,3.9149177E0,4.97744E0,1.994327E1,2.2039828E0,1.4455622E0,1.12641E0,2.7885077E0,3.5915353E0,1.3859044E0,1.6856163E1,3.0871074E0,1.7419381E0,1.0465696E0],"tree_param":{"num_deleted":"0","num_feature":"24","num_nodes":"31","size_leaf_vector":"0"}},{"base_weights":[-4.0103924E-3,-1.1674181E-2,1.201833E-1,-4.466868E-4,-1.9220345E-1,-8.44802E-3,1.5549718E-1,5.2183676E-3,-1.6652402E-1,-1.3797525E-2,1.7698391E-1,1.769839E-2,-1.12897076E-1,2.0665975E-1,5.9794597E-2],"categories":[],"categories_nodes":[],"categories_segments":[],"categories_sizes":[],"default_left":[1,1,0,1,0,1,0,1,0,1,1,0,0,0,0],"id":29,"left_children":[1,3,-1,5,-1,7,-1,9,-1,11,13,-1,-1,-1,-1],"loss_changes":[4.4687085E-2,8.857963E-2,0E0,5.3951122E-2,0E0,8.9604944E-2,0E0,1.2909596E-1,0E0,1.13859855E-1,1.3355613E-3,0E0,0E0,0E0,0E0],"parents":[2147483647,0,0,1,1,3,3,5,5,7,7,9,9,10,10],"right_children":[2,4,-1,6,-1,8,-1,10,-1,12,14,-1,-1,-1,-1],"split_conditions":[7.96E1,5.95771E1,1.201833E-1,5.45E1,-1.9220345E-1,3.325E1,1.5549718E-1,2.985E1,-1.6652402E-1,1.9733349E1,3.05979E1,1.769839E-2,-1.12897076E-1,2.0665975E-1,5.9794597E-2],"split_indices":[2,2,0,2,0,2,0,2,0,2,2,0,0,0,0],"split_type":[0,0,0,0,0,0,0,0,0,0,0,0,0,0,0],"sum_hessian":[4.4476265E1,4.2744568E1,1.7316967E0,4.1185623E1,1.5589458E0,4.0075226E1,1.1103957E0,3.7776283E1,2.2989428E0,3.4838985E1,2.937297E0,2.7060122E1,7.778866E0,1.7345803E0,1.2027167E0],"tree_param":{"num_deleted":"0","num_feature":"24","num_nodes":"15","size_leaf_vector":"0"}},{"base_weights":[2.0808193E-3,-8.260619E-3,7.274274E-2,-1.53481625E-2,1.3258025E-1,-8.923768E-2,1.456068E-1,-5.9744427E-3,-1.3153984E-1,2.5205177E-1,-6.385833E-2,7.4935616E-3,-1.2563236E-1,-2.2142325E-2,6.843279E-2,4.2661153E-2,-2.0357445E-1,2.1016523E-1,-4.417505E-2,2.3585469E-1,-1.8119946E-2],"categories":[],"categories_nodes":[],"categories_segments":[],"categories_sizes":[],"default_left":[1,1,1,1,0,0,1,1,0,0,0,1,1,1,1,0,0,0,0,0,0],"id":30,"left_children":[1,3,5,7,-1,-1,9,11,-1,-1,-1,13,15,17,19,-1,-1,-1,-1,-1,-1],"loss_changes":[3.3842504E-2,4.2542886E-2,8.274122E-2,4.227075E-2,0E0,0E0,1.1544882E-1,6.158224E-2,0E0,0E0,0E0,6.4301684E-2,5.9357524E-2,1.3287224E-1,1.7265251E-1,0E0,0E0,0E0,0E0,0E0,0E0],"parents":[2147483647,0,0,1,1,2,2,3,3,6,6,7,7,11,11,12,12,13,13,14,14],"right_children":[2,4,6,8,-1,-1,10,12,-1,-1,-1,14,16,18,20,-1,-1,-1,-1,-1,-1],"split_conditions":[5E-1,1.166375E2,1.087085E1,5.95771E1,1.3258025E-1,-8.923768E-2,1.5E0,5E-1,-1.3153984E-1,2.5205177E-1,-6.385833E-2,1.675E1,1.9735401E1,5E-1,2.646875E1,4.2661153E-2,-2.0357445E-1,2.1016523E-1,-4.417505E-2,2.3585469E-1,-1.8119946E-2],"split_indices":[6,2,2,2,0,0,1,0,0,0,0,2,2,19,2,0,0,0,0,0,0],"split_type":[0,0,0,0,0,0,0,0,0,0,0,0,0,0,0,0,0,0,0,0,0],"sum_hessian":[4.4489964E1,3.958043E1,4.909536E0,3.8532387E1,1.0480428E0,1.453537E0,3.4559991E0,3.662879E1,1.9035949E0,2.1567042E0,1.2992948E0,3.3765694E1,2.8630965E0,2.3146008E1,1.0619687E1,1.0495504E0,1.8135461E0,1.2653801E0,2.1880627E1,3.0312517E0,7.588435E0],"tree_param":{"num_deleted":"0","num_feature":"24","num_nodes":"21","size_leaf_vector":"0"}},{"base_weights":[7.531161E-3,4.481385E-2,-1.3827203E-2,1.0964235E-2,2.2408034E-1,1.0124463E-2,-2.688577E-1,-7.663242E-3,8.124767E-2,-8.4617116E-2,5.088469E-2,-1.272439E-1,1.8550823E-2,-1.9722113E-1,1.0737296E-1,2.3504049E-1,-6.2630367E-3,-1.7550085E-2,9.453393E-2,-3.3899727E-1,1.5810977E-1,3.17783E-1,-1.0381891E-1,2.0798318E-2,4.7061875E-1,-1.819395E-1,5.825398E-2,-8.921169E-2,4.071591E-2,1.8469861E-1,-4.761573E-2,-4.8698542E-1,-3.8475737E-2,5.765432E-2,-2.2364432E-2,-8.170783E-2,-2.6132998E-1,8.771594E-2,-1.1811636E-1],"categories":[],"categories_nodes":[],"categories_segments":[],"categories_sizes":[],"default_left":[1,1,1,1,0,1,0,1,0,1,1,0,1,1,1,1,1,1,1,1,0,0,0,1,0,1,1,0,0,0,0,0,0,0,0,0,0,0,0],"id":31,"left_children":[1,3,5,7,-1,9,-1,11,-1,13,15,-1,17,19,21,23,25,27,29,31,-1,-1,-1,33,-1,35,37,-1,-1,-1,-1,-1,-1,-1,-1,-1,-1,-1,-1],"loss_changes":[3.6439124E-2,9.839147E-2,1.8208382E-1,2.030149E-2,0E0,1.116834E-1,0E0,4.2471576E-2,0E0,2.1012074E-1,2.1264926E-1,0E0,3.2841906E-2,3.4887788E-1,2.053389E-1,2.3137105E-1,1.952077E-1,3.9331708E-2,5.7729963E-2,1.8173796E-1,0E0,0E0,0E0,6.934626E-3,0E0,1.5390992E-2,7.619864E-2,0E0,0E0,0E0,0E0,0E0,0E0,0E0,0E0,0E0,0E0,0E0,0E0],"parents":[2147483647,0,0,1,1,2,2,3,3,5,5,7,7,9,9,10,10,12,12,13,13,14,14,15,15,16,16,17,17,18,18,19,19,23,23,25,25,26,26],"right_children":[2,4,6,8,-1,10,-1,12,-1,14,16,-1,18,20,22,24,26,28,30,32,-1,-1,-1,34,-1,36,38,-1,-1,-1,-1,-1,-1,-1,-1,-1,-1,-1,-1],"split_conditions":[8.125E0,7.9875E0,5E-1,5E-1,2.2408034E-1,5E-1,-2.688577E-1,5E-1,8.124767E-2,5E-1,1.131665E1,-1.272439E-1,5E-1,5E-1,5E-1,9.833349E0,1.6400002E1,7.7854004E0,7.8146E0,2.8275E1,1.5810977E-1,3.17783E-1,-1.0381891E-1,9.416651E0,4.7061875E-1,1.325E1,5E-1,-8.921169E-2,4.071591E-2,1.8469861E-1,-4.761573E-2,-4.8698542E-1,-3.8475737E-2,5.765432E-2,-2.2364432E-2,-8.170783E-2,-2.6132998E-1,8.771594E-2,-1.1811636E-1],"split_indices":[2,2,15,21,0,5,0,5,0,0,2,0,3,1,3,2,2,2,2,2,0,0,0,2,0,2,14,0,0,0,0,0,0,0,0,0,0,0,0],"split_type":[0,0,0,0,0,0,0,0,0,0,0,0,0,0,0,0,0,0,0,0,0,0,0,0,0,0,0,0,0,0,0,0,0,0,0,0,0,0,0],"sum_hessian":[4.398254E1,1.5619428E1,2.8363113E1,1.4031181E1,1.5882462E0,2.680589E1,1.5572244E0,1.179585E1,2.235331E0,7.739803E0,1.9066088E1,1.4279482E0,1.0367902E1,4.861336E0,2.8784666E0,3.7781909E0,1.5287896E1,7.549858E0,2.8180437E0,3.5077286E0,1.3536075E0,1.1890781E0,1.6893885E0,2.5486531E0,1.2295377E0,3.6175294E0,1.1670366E1,3.1475554E0,4.4023027E0,1.5411662E0,1.2768776E0,1.9345939E0,1.5731347E0,1.1936616E0,1.3549916E0,2.495771E0,1.1217586E0,1.0430632E1,1.2397349E0],"tree_param":{"num_deleted":"0","num_feature":"24","num_nodes":"39","size_leaf_vector":"0"}},{"base_weights":[-3.1105324E-3,-1.1896633E-2,1.3067809E-1,8.7785006E-2,-2.5649536E-2,-1.3442896E-1,-1.2156521E-2,1.3277385E-3,-1.2897857E-1,-3.0398369E-2,8.05246E-2,-2.2757605E-1,6.567773E-2,1.1711099E-1,-5.8724843E-2,-3.283021E-2,1.2955855E-1],"categories":[],"categories_nodes":[],"categories_segments":[],"categories_sizes":[],"default_left":[1,1,0,0,1,0,1,1,1,1,1,0,0,0,0,0,0],"id":32,"left_children":[1,3,-1,-1,5,-1,7,9,11,13,15,-1,-1,-1,-1,-1,-1],"loss_changes":[5.413533E-2,6.1051797E-2,0E0,0E0,5.482325E-2,0E0,5.5808928E-2,8.449601E-2,8.5289866E-2,1.0732944E-1,5.768969E-2,0E0,0E0,0E0,0E0,0E0,0E0],"parents":[2147483647,0,0,1,1,4,4,6,6,7,7,8,8,9,9,10,10],"right_children":[2,4,-1,-1,6,-1,8,10,12,14,16,-1,-1,-1,-1,-1,-1],"split_conditions":[5E-1,7.74375E0,1.3067809E-1,8.7785006E-2,7.78125E0,-1.3442896E-1,5.95771E1,2.6125E1,5E-1,5E-1,5E-1,-2.2757605E-1,6.567773E-2,1.1711099E-1,-5.8724843E-2,-3.283021E-2,1.2955855E-1],"split_indices":[14,2,0,0,2,0,2,2,12,22,8,0,0,0,0,0,0],"split_type":[0,0,0,0,0,0,0,0,0,0,0,0,0,0,0,0,0],"sum_hessian":[4.3731247E1,4.1891266E1,1.8399835E0,4.4262924E0,3.7464973E1,3.1452672E0,3.4319706E1,3.1654589E1,2.6651168E0,2.3040697E1,8.613892E0,1.6567972E0,1.0083196E0,3.206839E0,1.9833858E1,2.7007835E0,5.913108E0],"tree_param":{"num_deleted":"0","num_feature":"24","num_nodes":"17","size_leaf_vector":"0"}},{"base_weights":[1.3921304E-3,3.299311E-2,-3.4982283E-2,9.70583E-3,1.5348737E-1,-9.588566E-2,7.15948E-2,3.812649E-2,-2.0061839E-1,-1.391378E-1,-1.2676493E-2,-3.5234004E-2,2.857732E-1,1.8028881E-2,1.1809158E-1,-4.40611E-2,-2.4421187E-1,5.6827106E-2,-1.3419923E-1,8.7003306E-2,-1.072233E-1,-6.788577E-2,2.7986772E-2,-2.2143802E-1,5.1460356E-2,1.278662E-1,-6.618301E-2,-1.820174E-3,-2.1834157E-1,7.027466E-2,1.4063542E-2,1.2922296E-1,-1.4893181E-2,-4.9125683E-2,5.1828656E-2],"categories":[],"categories_nodes":[],"categories_segments":[],"categories_sizes":[],"default_left":[1,1,1,1,0,1,1,1,0,1,1,1,0,1,0,1,0,1,0,0,1,0,1,0,1,0,0,1,0,0,0,0,0,0,0],"id":33,"left_children":[1,3,5,7,-1,9,11,13,-1,15,17,19,-1,21,-1,23,-1,25,-1,-1,27,-1,29,-1,31,-1,-1,33,-1,-1,-1,-1,-1,-1,-1],"loss_changes":[5.2280698E-2,6.673934E-2,1.442312E-1,1.3583657E-1,0E0,4.8242554E-2,1.9925094E-1,2.9582882E-2,0E0,7.9571664E-2,5.705755E-2,6.5708116E-2,0E0,1.6400475E-2,0E0,1.12496585E-1,0E0,4.713576E-2,0E0,0E0,5.2075163E-2,0E0,8.371521E-3,0E0,2.6123347E-2,0E0,0E0,1.0940462E-2,0E0,0E0,0E0,0E0,0E0,0E0,0E0],"parents":[2147483647,0,0,1,1,2,2,3,3,5,5,6,6,7,7,9,9,10,10,11,11,13,13,15,15,17,17,20,20,22,22,24,24,27,27],"right_children":[2,4,6,8,-1,10,12,14,-1,16,18,20,-1,22,-1,24,-1,26,-1,-1,28,-1,30,-1,32,-1,-1,34,-1,-1,-1,-1,-1,-1,-1],"split_conditions":[1.39854E1,1.228125E1,5E-1,1.000625E1,1.5348737E-1,3.525E1,2.6125E1,8.487499E0,-2.0061839E-1,2.6775E1,7.700835E1,5E-1,2.857732E-1,7.13335E0,1.1809158E-1,5E-1,-2.4421187E-1,5E-1,-1.3419923E-1,8.7003306E-2,2.59646E1,-6.788577E-2,7.2396E0,-2.2143802E-1,5E-1,1.278662E-1,-6.618301E-2,5E-1,-2.1834157E-1,7.027466E-2,1.4063542E-2,1.2922296E-1,-1.4893181E-2,-4.9125683E-2,5.1828656E-2],"split_indices":[2,2,3,2,0,2,2,2,0,2,2,5,0,2,0,5,0,19,0,0,2,0,2,0,19,0,0,0,0,0,0,0,0,0,0],"split_type":[0,0,0,0,0,0,0,0,0,0,0,0,0,0,0,0,0,0,0,0,0,0,0,0,0,0,0,0,0,0,0,0,0,0,0],"sum_hessian":[4.3478455E1,2.3315561E1,2.0162891E1,2.0444845E1,2.870716E0,1.2894601E1,7.2682915E0,1.8732313E1,1.712532E0,8.042146E0,4.8524547E0,5.4069047E0,1.8613865E0,1.594925E1,2.7830622E0,4.9670367E0,3.0751097E0,3.4255967E0,1.4268578E0,1.9267457E0,3.480159E0,1.0523661E0,1.4896884E1,1.277186E0,3.6898506E0,2.1465018E0,1.2790948E0,2.3076136E0,1.1725456E0,2.687392E0,1.2209493E1,1.2626289E0,2.4272215E0,1.2711085E0,1.0365051E0],"tree_param":{"num_deleted":"0","num_feature":"24","num_nodes":"35","size_leaf_vector":"0"}},{"base_weights":[-4.0304833E-3,-1.0857578E-2,1.0386146E-1,3.377992E-2,-2.457275E-2,2.0423111E-1,-4.977733E-2,-3.8587954E-2,1.2698647E-1,3.679598E-1,-7.480354E-2,5.3227298E-2,-1.4255089E-1,-1.0537897E-1,1.2046408E-2,-8.3570085E-2,2.6068488E-1,-3.0146223E-1,5.403558E-2,-5.989405E-2,-2.556387E-1,-8.63899E-3,1.3447206E-1,-1.3886008E-1,1.6118014E-2,-5.906649E-3,-3.084585E-1,1.875417E-2,-2.1769764E-1],"categories":[],"categories_nodes":[],"categories_segments":[],"categories_sizes":[],"default_left":[1,1,0,1,1,1,1,1,0,0,0,1,1,1,1,1,0,0,0,1,0,1,0,0,0,0,0,0,0],"id":34,"left_children":[1,3,-1,5,7,9,11,13,-1,-1,-1,15,17,19,21,23,-1,-1,-1,25,-1,27,-1,-1,-1,-1,-1,-1,-1],"loss_changes":[3.3839367E-2,2.6954439E-2,0E0,1.5901014E-1,7.5466886E-2,1.9353786E-1,8.228728E-2,1.06705256E-1,0E0,0E0,0E0,1.475741E-1,1.5326399E-1,7.72693E-2,4.8341658E-2,2.1134108E-2,0E0,0E0,0E0,1.5524189E-1,0E0,1.00734375E-1,0E0,0E0,0E0,0E0,0E0,0E0,0E0],"parents":[2147483647,0,0,1,1,3,3,4,4,5,5,6,6,7,7,11,11,12,12,13,13,14,14,15,15,19,19,21,21],"right_children":[2,4,-1,6,8,10,12,14,-1,-1,-1,16,18,20,22,24,-1,-1,-1,26,-1,28,-1,-1,-1,-1,-1,-1,-1],"split_conditions":[2.5E0,5E-1,1.0386146E-1,5E-1,6.2668747E1,3.05979E1,8.125E0,5E-1,1.2698647E-1,3.679598E-1,-7.480354E-2,7.8667E0,1.51729E1,3.275E1,1.6400002E1,5E-1,2.6068488E-1,-3.0146223E-1,5.403558E-2,5E-1,-2.556387E-1,1.000625E1,1.3447206E-1,-1.3886008E-1,1.6118014E-2,-5.906649E-3,-3.084585E-1,1.875417E-2,-2.1769764E-1],"split_indices":[1,5,0,10,2,2,2,10,0,0,0,2,2,2,2,21,0,0,0,15,0,2,0,0,0,0,0,0,0],"split_type":[0,0,0,0,0,0,0,0,0,0,0,0,0,0,0,0,0,0,0,0,0,0,0,0,0,0,0,0,0],"sum_hessian":[4.3409706E1,4.1672176E1,1.7375306E0,9.4507475E0,3.2221428E1,2.6337888E0,6.816959E0,3.0176315E1,2.045114E0,1.4590034E0,1.1747855E0,3.4323525E0,3.3846064E0,1.2545958E1,1.7630358E1,2.4283023E0,1.0040504E0,1.5766399E0,1.8079665E0,1.0704282E1,1.8416759E0,1.5877144E1,1.7532139E0,1.3092227E0,1.1190795E0,9.63529E0,1.068991E0,1.4842596E1,1.0345476E0],"tree_param":{"num_deleted":"0","num_feature":"24","num_nodes":"29","size_leaf_vector":"0"}},{"base_weights":[-5.4580085E-3,-1.3542868E-2,1.1650812E-1,-3.0582631E-2,5.989988E-2,-1.6186759E-2,-1.7660002E-1,2.678283E-1,-5.7413504E-3,-3.0331512E-3,-1.6505773E-1,-1.0180917E-1,1.01233095E-1,-3.2584623E-2,1.3294005E-1,-2.2889373E-5,1.3847508E-1,4.2062458E-2,-6.771943E-2,-2.291427E-2,2.2836787E-1],"categories":[],"categories_nodes":[],"categories_segments":[],"categories_sizes":[],"default_left":[1,1,0,1,1,1,0,0,1,1,0,0,1,1,1,0,0,0,0,0,0],"id":35,"left_children":[1,3,-1,5,7,9,-1,-1,11,13,-1,-1,15,17,19,-1,-1,-1,-1,-1,-1],"loss_changes":[4.514145E-2,5.480319E-2,0E0,7.075255E-2,1.14948034E-1,6.407462E-2,0E0,0E0,8.5270755E-2,1.3017632E-1,0E0,0E0,1.4908921E-2,7.242986E-2,9.1320254E-2,0E0,0E0,0E0,0E0,0E0,0E0],"parents":[2147483647,0,0,1,1,3,3,4,4,5,5,8,8,9,9,12,12,13,13,14,14],"right_children":[2,4,-1,6,8,10,-1,-1,12,14,-1,-1,16,18,20,-1,-1,-1,-1,-1,-1],"split_conditions":[5E-1,5E-1,1.1650812E-1,1.5E0,1.1E1,1.5E0,-1.7660002E-1,2.678283E-1,2.2E1,5E-1,-1.6505773E-1,-1.0180917E-1,5E-1,7.7979E0,1.564585E1,-2.2889373E-5,1.3847508E-1,4.2062458E-2,-6.771943E-2,-2.291427E-2,2.2836787E-1],"split_indices":[15,9,0,1,2,0,0,0,2,1,0,0,3,2,2,0,0,0,0,0,0],"split_type":[0,0,0,0,0,0,0,0,0,0,0,0,0,0,0,0,0,0,0,0,0],"sum_hessian":[4.3178608E1,4.132803E1,1.85058E0,3.4018776E1,7.3092546E0,3.1977013E1,2.0417628E0,1.0147376E0,6.294517E0,3.0318567E1,1.6584454E0,3.3417563E0,2.9527607E0,2.553034E1,4.788227E0,1.0627285E0,1.8900322E0,8.107675E0,1.7422665E1,2.1069686E0,2.6812582E0],"tree_param":{"num_deleted":"0","num_feature":"24","num_nodes":"21","size_leaf_vector":"0"}},{"base_weights":[5.788471E-3,-3.4062709E-3,1.4559418E-1,-1.6322155E-2,1.15262754E-1,-6.623269E-3,-1.4746377E-1,-1.0767122E-2,1.6596204E-1,-2.3167435E-2,1.21663705E-1,-1.669597E-3,-1.1436661E-1,1.57854E-1,1.5515935E-2,-5.2012365E-2,5.387591E-2,-8.845072E-3,-2.0382504E-1,2.3602305E-1,1.1791668E-2],"categories":[],"categories_nodes":[],"categories_segments":[],"categories_sizes":[],"default_left":[1,1,0,1,1,1,0,0,0,1,1,1,1,1,0,0,0,0,0,0,0],"id":36,"left_children":[1,3,-1,5,7,9,-1,-1,-1,11,13,15,17,19,-1,-1,-1,-1,-1,-1,-1],"loss_changes":[5.67325E-2,6.629387E-2,0E0,4.8343625E-2,2.8936911E-2,8.167174E-2,0E0,0E0,0E0,6.5976515E-2,1.446861E-2,8.201003E-2,5.88293E-2,3.3470057E-2,0E0,0E0,0E0,0E0,0E0,0E0,0E0],"parents":[2147483647,0,0,1,1,3,3,4,4,5,5,9,9,10,10,11,11,12,12,13,13],"right_children":[2,4,-1,6,8,10,-1,-1,-1,12,14,16,18,20,-1,-1,-1,-1,-1,-1,-1],"split_conditions":[2.5E0,5E-1,1.4559418E-1,7.700835E1,1.087085E1,3.525E1,-1.4746377E-1,-1.0767122E-2,1.6596204E-1,5E-1,5E-1,8.65835E0,2.055E1,5.28271E1,1.5515935E-2,-5.2012365E-2,5.387591E-2,-8.845072E-3,-2.0382504E-1,2.3602305E-1,1.1791668E-2],"split_indices":[1,6,0,2,2,2,0,0,0,1,19,2,2,2,0,0,0,0,0,0,0],"split_type":[0,0,0,0,0,0,0,0,0,0,0,0,0,0,0,0,0,0,0,0,0],"sum_hessian":[4.2747616E1,4.1025112E1,1.7225039E0,3.777604E1,3.2490711E0,3.6152782E1,1.623259E0,1.1580306E0,2.0910404E0,3.274883E1,3.403951E0,2.7325792E1,5.423039E0,2.1752126E0,1.2287384E0,1.43675785E1,1.2958214E1,2.9923077E0,2.4307313E0,1.0157182E0,1.1594943E0],"tree_param":{"num_deleted":"0","num_feature":"24","num_nodes":"21","size_leaf_vector":"0"}},{"base_weights":[4.672037E-3,5.1505715E-2,-2.5941001E-2,-1.4997E-2,1.0460497E-1,-7.6746635E-2,1.3952802E-2,8.00321E-2,-4.100994E-2,1.221211E-1,2.2213098E-2,-2.4140539E-2,-1.9462171E-1,-2.4530716E-2,1.1110663E-1,-6.471122E-2,2.0617092E-2,6.2920265E-2,2.544421E-1,-7.312704E-2,1.945485E-1,-6.80498E-2,-2.2987868E-1,-6.0733438E-2,7.739333E-2,1.6972058E-1,-5.276097E-2,-1.6211778E-1,3.459958E-2,1.01447046E-1,-4.4559963E-2,-1.1962326E-1,-9.696125E-3,-1.4581978E-1,8.9187315E-3,1.6335766E-1,-5.834169E-2,6.285058E-2,2.2449793E-1,2.3515815E-2,1.3162495E-1,-4.119884E-2,-1.6516666E-1,8.2899086E-2,-6.2028125E-2,1.701562E-1,-7.931323E-2],"categories":[],"categories_nodes":[],"categories_segments":[],"categories_sizes":[],"default_left":[1,1,1,1,1,1,1,0,1,1,0,1,1,1,1,1,0,1,0,1,0,0,0,1,1,1,0,0,0,1,0,1,1,0,1,0,0,0,0,0,0,0,0,0,0,0,0],"id":37,"left_children":[1,3,5,7,9,11,13,-1,15,17,-1,19,21,23,25,27,-1,29,-1,31,-1,-1,-1,33,35,37,-1,-1,-1,39,-1,41,43,-1,45,-1,-1,-1,-1,-1,-1,-1,-1,-1,-1,-1,-1],"loss_changes":[6.379558E-2,6.356014E-2,5.5814467E-2,2.4710493E-2,1.155556E-2,6.992302E-2,6.2455542E-2,0E0,1.2240389E-2,4.6117537E-2,0E0,1.1559265E-1,2.9581785E-4,4.994667E-2,5.4227628E-2,6.0113356E-2,0E0,3.27113E-2,0E0,2.3783192E-2,0E0,0E0,0E0,5.8245074E-2,5.216172E-2,7.6020733E-3,0E0,0E0,0E0,9.408634E-3,0E0,1.0310553E-2,2.7749225E-2,0E0,1.0206616E-1,0E0,0E0,0E0,0E0,0E0,0E0,0E0,0E0,0E0,0E0,0E0,0E0],"parents":[2147483647,0,0,1,1,2,2,3,3,4,4,5,5,6,6,8,8,9,9,11,11,12,12,13,13,14,14,15,15,17,17,19,19,23,23,24,24,25,25,29,29,31,31,32,32,34,34],"right_children":[2,4,6,8,10,12,14,-1,16,18,-1,20,22,24,26,28,-1,30,-1,32,-1,-1,-1,34,36,38,-1,-1,-1,40,-1,42,44,-1,46,-1,-1,-1,-1,-1,-1,-1,-1,-1,-1,-1,-1],"split_conditions":[8.6875E0,7.78125E0,2.155E1,7.1833496E0,5E-1,1.6E1,5E-1,8.00321E-2,5E-1,8.08125E0,2.2213098E-2,1.447915E1,1.9733349E1,5E-1,5E-1,7.3729E0,2.0617092E-2,7.9875E0,2.544421E-1,1.228125E1,1.945485E-1,-6.80498E-2,-2.2987868E-1,2.985E1,5.28271E1,2.6125E1,-5.276097E-2,-1.6211778E-1,3.459958E-2,7.9104004E0,-4.4559963E-2,1.000625E1,5E-1,-1.4581978E-1,3.05979E1,1.6335766E-1,-5.834169E-2,6.285058E-2,2.2449793E-1,2.3515815E-2,1.3162495E-1,-4.119884E-2,-1.6516666E-1,8.2899086E-2,-6.2028125E-2,1.701562E-1,-7.931323E-2],"split_indices":[2,2,2,2,3,2,3,0,7,2,0,2,2,1,10,2,0,2,0,2,0,0,0,2,2,2,0,0,0,2,0,2,5,0,2,0,0,0,0,0,0,0,0,0,0,0,0],"split_type":[0,0,0,0,0,0,0,0,0,0,0,0,0,0,0,0,0,0,0,0,0,0,0,0,0,0,0,0,0,0,0,0,0,0,0,0,0,0,0,0,0,0,0,0,0,0,0],"sum_hessian":[4.256459E1,1.6555109E1,2.6009483E1,7.6684866E0,8.886621E0,1.1033854E1,1.497563E1,1.2017373E0,6.4667497E0,6.9309373E0,1.9556841E0,8.462119E0,2.5717351E0,1.1262111E1,3.7135186E0,4.634363E0,1.8323865E0,5.8079534E0,1.1229843E0,7.457292E0,1.004827E0,1.1986635E0,1.3730716E0,8.608545E0,2.653566E0,2.7088647E0,1.0046539E0,2.0203369E0,2.614026E0,4.3167334E0,1.4912198E0,3.7918801E0,3.665412E0,3.3827147E0,5.2258306E0,1.5000458E0,1.1535201E0,1.6456339E0,1.0632308E0,1.7016479E0,2.6150854E0,2.0927799E0,1.6991003E0,1.1126361E0,2.5527759E0,1.5198698E0,3.7059608E0],"tree_param":{"num_deleted":"0","num_feature":"24","num_nodes":"47","size_leaf_vector":"0"}},{"base_weights":[7.4646254E-3,2.2778371E-2,-3.9220955E-2,5.6544775E-3,1.7585509E-1,3.6701474E-2,-1.3148385E-1,1.2077875E-1,-1.3151793E-2,2.1562104E-1,4.9074028E-2,9.349421E-2,-1.23367175E-1,-2.0382503E-1,-5.059872E-3,-4.4601016E-2,1.8228346E-1,-4.2438526E-2,5.7785086E-2,-4.6172384E-3,2.3650366E-1,-1.6715191E-2,-3.0847412E-1,-2.0029936E-2,-2.269591E-1,1.2882352E-1,3.0460226E-4,1.04089916E-1,-1.4477763E-1,1.5692978E-1,-4.0056605E-2,-8.45658E-2,7.2035074E-2],"categories":[],"categories_nodes":[],"categories_segments":[],"categories_sizes":[],"default_left":[1,1,1,1,1,1,1,1,1,0,0,1,0,1,0,0,0,1,1,1,0,0,0,1,0,0,1,0,0,0,0,0,0],"id":38,"left_children":[1,3,5,7,9,11,13,15,17,-1,-1,19,-1,21,-1,-1,-1,23,25,27,-1,-1,-1,29,-1,-1,31,-1,-1,-1,-1,-1,-1],"loss_changes":[3.1810567E-2,8.602162E-2,8.2220845E-2,6.8465985E-2,6.0892776E-3,7.374148E-2,4.6580084E-2,5.3247742E-2,5.9487928E-2,0E0,0E0,7.994199E-2,0E0,5.918151E-2,0E0,0E0,0E0,7.818407E-2,3.4447834E-2,8.079898E-2,0E0,0E0,0E0,7.340112E-2,0E0,0E0,4.0614236E-2,0E0,0E0,0E0,0E0,0E0,0E0],"parents":[2147483647,0,0,1,1,2,2,3,3,4,4,5,5,6,6,7,7,8,8,11,11,13,13,17,17,18,18,19,19,23,23,26,26],"right_children":[2,4,6,8,10,12,14,16,18,-1,-1,20,-1,22,-1,-1,-1,24,26,28,-1,-1,-1,30,-1,-1,32,-1,-1,-1,-1,-1,-1],"split_conditions":[5E-1,5E-1,5E-1,7.2396E0,2.3575E1,2.65E1,3.133125E1,7.13335E0,2.619375E1,2.1562104E-1,4.9074028E-2,2.5075E1,-1.23367175E-1,2.0825E1,-5.059872E-3,-4.4601016E-2,1.8228346E-1,1.41604E1,2.8110401E1,1.5975E1,2.3650366E-1,-1.6715191E-2,-3.0847412E-1,5E-1,-2.269591E-1,1.2882352E-1,3.525E1,1.04089916E-1,-1.4477763E-1,1.5692978E-1,-4.0056605E-2,-8.45658E-2,7.2035074E-2],"split_indices":[1,0,0,2,2,2,2,2,2,0,0,2,0,2,0,0,0,2,2,2,0,0,0,19,0,0,2,0,0,0,0,0,0],"split_type":[0,0,0,0,0,0,0,0,0,0,0,0,0,0,0,0,0,0,0,0,0,0,0,0,0,0,0,0,0,0,0,0,0],"sum_hessian":[4.224497E1,3.2196125E1,1.0048842E1,2.9889484E1,2.3066418E0,5.84294E0,4.2059026E0,3.435641E0,2.6453844E1,1.2224686E0,1.0841732E0,4.619753E0,1.2231873E0,2.2857423E0,1.9201603E0,1.0058503E0,2.4297907E0,1.900801E1,7.445833E0,3.3139415E0,1.3058113E0,1.2358323E0,1.0499098E0,1.7938116E1,1.0698937E0,2.7750552E0,4.6707783E0,2.011326E0,1.3026153E0,1.1286951E0,1.6809422E1,2.057471E0,2.6133072E0],"tree_param":{"num_deleted":"0","num_feature":"24","num_nodes":"33","size_leaf_vector":"0"}},{"base_weights":[3.1924897E-3,1.0346344E-2,-7.752224E-2,-1.2568199E-3,1.7535451E-1,1.39578795E-2,-1.3675407E-1,2.2256686E-3,1.7667548E-1,-3.174121E-1,4.2445455E-2,1.657743E-2,-6.1506048E-2,-5.4978007E-3,2.543405E-1,-1.042087E-1,-1.0841771E-2],"categories":[],"categories_nodes":[],"categories_segments":[],"categories_sizes":[],"default_left":[1,1,0,1,0,1,1,1,0,0,0,1,1,0,0,0,0],"id":39,"left_children":[1,3,-1,5,-1,7,9,11,-1,-1,-1,13,15,-1,-1,-1,-1],"loss_changes":[2.5601566E-2,7.7445045E-2,0E0,8.164385E-2,0E0,6.772135E-2,1.4287624E-1,3.238636E-2,0E0,0E0,0E0,1.5244383E-1,1.2966279E-2,0E0,0E0,0E0,0E0],"parents":[2147483647,0,0,1,1,3,3,5,5,6,6,7,7,11,11,12,12],"right_children":[2,4,-1,6,-1,8,10,12,-1,-1,-1,14,16,-1,-1,-1,-1],"split_conditions":[5E-1,6.2668747E1,-7.752224E-2,3.275E1,1.7535451E-1,3.02854E1,5.22771E1,2.4075E1,1.7667548E-1,-3.174121E-1,4.2445455E-2,2.023125E1,2.6125E1,-5.4978007E-3,2.543405E-1,-1.042087E-1,-1.0841771E-2],"split_indices":[13,2,0,2,0,2,2,2,0,0,0,2,2,0,0,0,0],"split_type":[0,0,0,0,0,0,0,0,0,0,0,0,0,0,0,0,0],"sum_hessian":[4.19487E1,3.9334267E1,2.6144323E0,3.7677235E1,1.6570318E0,3.468007E1,2.997164E0,3.329325E1,1.3868207E0,1.1084323E0,1.8887317E0,2.777784E1,5.515411E0,2.6311785E1,1.4660537E0,2.4193778E0,3.096033E0],"tree_param":{"num_deleted":"0","num_feature":"24","num_nodes":"17","size_leaf_vector":"0"}},{"base_weights":[2.9218511E-3,1.8624188E-2,-4.4830844E-2,8.447892E-3,1.17153E-1,-1.58442E-1,6.16765E-3,2.439929E-2,-9.7801626E-2,4.497795E-2,-2.6729503E-1,1.7438458E-1,-5.415766E-2,1.726125E-4,5.8859434E-2,3.0341065E-2,-1.5242004E-1,2.7945409E-2,-2.0985678E-1,2.7990855E-2,-1.5675677E-1,1.0217619E-1,-1.7505932E-1,-2.229919E-1,-5.232953E-3,1.1899267E-1,-5.9799824E-2,8.034464E-2,7.21461E-3,1.9929683E-1,4.3723635E-2],"categories":[],"categories_nodes":[],"categories_segments":[],"categories_sizes":[],"default_left":[1,1,1,1,0,1,1,1,1,0,0,0,1,1,1,0,1,1,0,1,0,1,0,0,0,0,0,0,0,0,0],"id":40,"left_children":[1,3,5,7,-1,9,11,13,15,-1,-1,-1,17,19,21,-1,23,25,-1,27,-1,29,-1,-1,-1,-1,-1,-1,-1,-1,-1],"loss_changes":[3.2804687E-2,3.1889483E-2,6.380767E-2,5.458689E-2,0E0,8.72443E-2,9.5161594E-2,2.3014989E-2,3.4160916E-2,0E0,0E0,0E0,9.5096864E-2,7.946325E-2,1.3321984E-1,0E0,3.129267E-2,5.067803E-2,0E0,1.623256E-2,0E0,4.93917E-2,0E0,0E0,0E0,0E0,0E0,0E0,0E0,0E0,0E0],"parents":[2147483647,0,0,1,1,2,2,3,3,5,5,6,6,7,7,8,8,12,12,13,13,14,14,16,16,17,17,19,19,21,21],"right_children":[2,4,6,8,-1,10,12,14,16,-1,-1,-1,18,20,22,-1,24,26,-1,28,-1,30,-1,-1,-1,-1,-1,-1,-1,-1,-1],"split_conditions":[5E-1,5E-1,1.564585E1,3.05979E1,1.17153E-1,8.293751E0,2.055E1,9.49165E0,5E-1,4.497795E-2,-2.6729503E-1,1.7438458E-1,5E-1,8.125E0,5E-1,3.0341065E-2,6.2668747E1,5E-1,-2.0985678E-1,5E-1,-1.5675677E-1,1.131665E1,-1.7505932E-1,-2.229919E-1,-5.232953E-3,1.1899267E-1,-5.9799824E-2,8.034464E-2,7.21461E-3,1.9929683E-1,4.3723635E-2],"split_indices":[1,13,2,2,0,2,2,2,8,0,0,0,10,2,15,0,2,3,0,5,0,2,0,0,0,0,0,0,0,0,0],"split_type":[0,0,0,0,0,0,0,0,0,0,0,0,0,0,0,0,0,0,0,0,0,0,0,0,0,0,0,0,0,0,0],"sum_hessian":[4.1636055E1,3.1792E1,9.844056E0,2.979993E1,1.9920697E0,2.3971164E0,7.44694E0,2.657982E1,3.2201095E0,1.0401425E0,1.3569739E0,1.4665984E0,5.9803414E0,1.6197456E1,1.0382364E1,1.0951707E0,2.1249387E0,4.4528084E0,1.5275329E0,1.4456453E1,1.7410034E0,9.23537E0,1.1469951E0,1.0881699E0,1.0367689E0,2.0105166E0,2.442292E0,3.2925246E0,1.1163928E1,2.564623E0,6.6707463E0],"tree_param":{"num_deleted":"0","num_feature":"24","num_nodes":"31","size_leaf_vector":"0"}},{"base_weights":[-7.904942E-3,-1.5340045E-2,1.1452942E-1,-5.5056754E-3,-1.4581825E-1,-2.038739E-2,1.2166946E-1,-1.15871765E-2,-1.0539247E-1,2.412494E-1,7.377757E-3,-3.357392E-2,7.973977E-2,9.660191E-3,1.5180882E-3,-1.5244639E-2,-2.5982824E-1,1.687342E-2,1.5180907E-1],"categories":[],"categories_nodes":[],"categories_segments":[],"categories_sizes":[],"default_left":[1,1,0,1,0,1,1,1,0,0,1,1,1,0,0,0,0,0,0],"id":41,"left_children":[1,3,-1,5,-1,7,9,11,-1,-1,13,15,17,-1,-1,-1,-1,-1,-1],"loss_changes":[4.052528E-2,5.1847883E-2,0E0,7.6660514E-2,0E0,2.566832E-2,5.6298673E-2,7.033992E-2,0E0,0E0,2.8191163E-5,1.1158593E-1,2.8404407E-2,0E0,0E0,0E0,0E0,0E0,0E0],"parents":[2147483647,0,0,1,1,3,3,5,5,6,6,7,7,10,10,11,11,12,12],"right_children":[2,4,-1,6,-1,8,10,12,-1,-1,14,16,18,-1,-1,-1,-1,-1,-1],"split_conditions":[2.5E0,7.700835E1,1.1452942E-1,3.525E1,-1.4581825E-1,2.8125E1,5.28271E1,2.15125E1,-1.0539247E-1,2.412494E-1,5E-1,1.90229E1,5E-1,9.660191E-3,1.5180882E-3,-1.5244639E-2,-2.5982824E-1,1.687342E-2,1.5180907E-1],"split_indices":[1,2,0,2,0,2,2,2,0,0,8,2,3,0,0,0,0,0,0],"split_type":[0,0,0,0,0,0,0,0,0,0,0,0,0,0,0,0,0,0,0],"sum_hessian":[4.1588028E1,4.003172E1,1.5563083E0,3.8195084E1,1.8366339E0,3.4945538E1,3.2495487E0,3.269688E1,2.2486567E0,1.0451832E0,2.2043653E0,2.6862236E1,5.834643E0,1.1196527E0,1.0847125E0,2.5836548E1,1.0256884E0,3.775439E0,2.0592039E0],"tree_param":{"num_deleted":"0","num_feature":"24","num_nodes":"19","size_leaf_vector":"0"}},{"base_weights":[5.2475045E-4,-6.3007097E-3,9.930099E-2,6.6632074E-3,-9.258829E-2,-7.631716E-3,1.339192E-1,-2.112936E-1,3.7174884E-2,-3.0552512E-2,2.9594285E-2,1.7914209E-1,2.8512938E-2,7.929173E-2,-3.0012155E-2,-1.1373573E-1,-4.273484E-3,5.1274087E-2,-7.394753E-2,4.1840114E-2,-1.7377411E-1,1.731514E-1,-4.1638322E-2,1.8422851E-2,1.941086E-1],"categories":[],"categories_nodes":[],"categories_segments":[],"categories_sizes":[],"default_left":[1,1,0,1,1,1,1,0,1,1,1,0,0,0,0,1,1,1,0,0,0,0,0,0,0],"id":42,"left_children":[1,3,-1,5,7,9,11,-1,13,15,17,-1,-1,-1,-1,19,21,23,-1,-1,-1,-1,-1,-1,-1],"loss_changes":[2.9130528E-2,4.5907337E-2,0E0,6.67504E-2,9.034856E-2,2.9427677E-2,1.2542628E-2,0E0,1.202607E-2,4.5817338E-2,3.352849E-2,0E0,0E0,0E0,0E0,5.4405004E-2,1.20810874E-1,5.059289E-2,0E0,0E0,0E0,0E0,0E0,0E0,0E0],"parents":[2147483647,0,0,1,1,3,3,4,4,5,5,6,6,8,8,9,9,10,10,15,15,16,16,17,17],"right_children":[2,4,-1,6,8,10,12,-1,14,16,18,-1,-1,-1,-1,20,22,24,-1,-1,-1,-1,-1,-1,-1],"split_conditions":[5E-1,3.95E1,9.930099E-2,3.02854E1,6.2668747E1,5E-1,5E-1,-2.112936E-1,5E-1,7.74165E0,2.4075E1,1.7914209E-1,2.8512938E-2,7.929173E-2,-3.0012155E-2,7.1833496E0,7.8646E0,2.023125E1,-7.394753E-2,4.1840114E-2,-1.7377411E-1,1.731514E-1,-4.1638322E-2,1.8422851E-2,1.941086E-1],"split_indices":[15,2,0,2,2,3,19,0,1,2,2,0,0,0,0,2,2,2,0,0,0,0,0,0,0],"split_type":[0,0,0,0,0,0,0,0,0,0,0,0,0,0,0,0,0,0,0,0,0,0,0,0,0],"sum_hessian":[4.127995E1,3.9487564E1,1.7923872E0,3.5132072E1,4.355492E0,3.2429256E1,2.7028155E0,1.9465331E0,2.4089592E0,2.018204E1,1.2247216E1,1.401839E0,1.3009765E0,1.3699983E0,1.0389609E0,4.046214E0,1.6135824E1,1.054424E1,1.7029768E0,1.2110815E0,2.8351324E0,2.1748056E0,1.39610195E1,9.490461E0,1.0537789E0],"tree_param":{"num_deleted":"0","num_feature":"24","num_nodes":"25","size_leaf_vector":"0"}},{"base_weights":[5.6515257E-3,-1.209329E-2,8.0884814E-2,2.2589985E-2,-3.6449358E-2,-1.0524764E-2,1.6353354E-1,5.7518397E-2,-1.4118637E-1,-6.909227E-2,2.8280666E-2,7.603489E-2,-1.0329316E-1,2.4892174E-1,-2.9563403E-2,-8.819306E-3,1.2942703E-1,-9.559241E-2,4.670805E-2,-9.800038E-2,7.1713224E-2,1.11473754E-1,4.2434777E-3,8.519339E-2,-5.12675E-2,-1.2795281E-1,4.496701E-2,1.0361714E-1,-3.8696356E-2,3.413182E-2,1.3452211E-1,3.8728535E-2,-1.2752888E-1,-1.3058071E-2,-1.540096E-1,7.614293E-2,-1.60876E-2],"categories":[],